
net {
  name = unnamedBN;
  software = "aGrUM 0.18.2";
  node_size = (50 50);
}

node Cases_per_Million {
   states = (L0_0__20_14L L20_14__40_27L L40_27__60_41L L60_41__80_54L L80_54__100_68L );
   label = "Cases_per_Million";
   ID = "Cases_per_Million";
}

node Deaths_per_Million {
   states = (L0_0__0_47L L0_47__0_93L L0_93__1_4L L1_4__1_87L L1_87__2_33L );
   label = "Deaths_per_Million";
   ID = "Deaths_per_Million";
}

node G_Retail {
   states = (L_15_41__1_62L L_32_44___15_41L L_66_5___49_47L L_83_53___66_5L );
   label = "G_Retail";
   ID = "G_Retail";
}

node G_Grocery_Pharmacy {
   states = (L6_04__22_8L L_10_72__6_04L L_27_48___10_72L L_44_24___27_48L L_61_0___44_24L );
   label = "G_Grocery_Pharmacy";
   ID = "G_Grocery_Pharmacy";
}

node G_Parks {
   states = (L11_35__33_44L L_10_74__11_35L L_32_83___10_74L L_54_91___32_83L L_77_0___54_91L );
   label = "G_Parks";
   ID = "G_Parks";
}

node G_Transit {
   states = (L_25_07___8_2L L_41_93___25_07L L_58_79___41_93L L_75_65___58_79L L_8_2__8_66L );
   label = "G_Transit";
   ID = "G_Transit";
}

node G_Workplace {
   states = (L_10_56__3_05L L_24_18___10_56L L_37_8___24_18L L_51_41___37_8L L_65_03___51_41L );
   label = "G_Workplace";
   ID = "G_Workplace";
}

node G_Residencial {
   states = (L13_84__21_35L L21_35__28_87L L28_87__36_38L L6_33__13_84L L_1_19__6_33L );
   label = "G_Residencial";
   ID = "G_Residencial";
}

potential ( Cases_per_Million | G_Workplace   ) {
   data = 
   ((   0.987879   0.0030303   0.0030303   0.0030303   0.0030303)   % G_Workplace=L_10_56__3_05L   
   (   0.866667   0.0333333   0.0333333   0.0333333   0.0333333)   % G_Workplace=L_24_18___10_56L   
   (   0.866667   0.0333333   0.0333333   0.0333333   0.0333333)   % G_Workplace=L_37_8___24_18L   
   (   0.95   0.0125   0.0125   0.0125   0.0125)   % G_Workplace=L_51_41___37_8L   
   (   0.0030303   0.381818   0.230303   0.230303   0.154545));   % G_Workplace=L_65_03___51_41L   
}

potential ( Deaths_per_Million | Cases_per_Million   ) {
   data = 
   ((   0.991209   0.0021978   0.0021978   0.0021978   0.0021978)   % Cases_per_Million=L0_0__20_14L   
   (   0.584615   0.2   0.2   0.00769231   0.00769231)   % Cases_per_Million=L20_14__40_27L   
   (   0.0125   0.325   0.0125   0.325   0.325)   % Cases_per_Million=L40_27__60_41L   
   (   0.0125   0.0125   0.325   0.6375   0.0125)   % Cases_per_Million=L60_41__80_54L   
   (   0.0181818   0.0181818   0.0181818   0.0181818   0.927273));   % Cases_per_Million=L80_54__100_68L   
}

potential ( G_Retail | G_Grocery_Pharmacy   ) {
   data = 
   ((   0.814516   0.169355   0.00806452   0.00806452)   % G_Grocery_Pharmacy=L6_04__22_8L   
   (   0.979167   0.00694444   0.00694444   0.00694444)   % G_Grocery_Pharmacy=L_10_72__6_04L   
   (   0.0119048   0.0119048   0.964286   0.0119048)   % G_Grocery_Pharmacy=L_27_48___10_72L   
   (   0.0119048   0.0119048   0.25   0.72619)   % G_Grocery_Pharmacy=L_44_24___27_48L   
   (   0.00490196   0.00490196   0.00490196   0.985294));   % G_Grocery_Pharmacy=L_61_0___44_24L   
}

potential (G_Grocery_Pharmacy) {
   data = (  0.19375 0.225 0.13125 0.13125 0.31875);
}

potential ( G_Parks | G_Retail   G_Workplace   ) {
   data = 
   (((   0.415768   0.498755   0.000829876   0.0838174   0.000829876)   % G_Workplace=L_10_56__3_05L   G_Retail=L_15_41__1_62L   
   (   0.2   0.2   0.2   0.2   0.2)   % G_Workplace=L_24_18___10_56L   G_Retail=L_15_41__1_62L   
   (   0.2   0.2   0.2   0.2   0.2)   % G_Workplace=L_37_8___24_18L   G_Retail=L_15_41__1_62L   
   (   0.2   0.2   0.2   0.2   0.2)   % G_Workplace=L_51_41___37_8L   G_Retail=L_15_41__1_62L   
   (   0.2   0.2   0.2   0.2   0.2))   % G_Workplace=L_65_03___51_41L   G_Retail=L_15_41__1_62L   
   ((   0.00952381   0.961905   0.00952381   0.00952381   0.00952381)   % G_Workplace=L_10_56__3_05L   G_Retail=L_32_44___15_41L   
   (   0.2   0.2   0.2   0.2   0.2)   % G_Workplace=L_24_18___10_56L   G_Retail=L_32_44___15_41L   
   (   0.2   0.2   0.2   0.2   0.2)   % G_Workplace=L_37_8___24_18L   G_Retail=L_32_44___15_41L   
   (   0.2   0.2   0.2   0.2   0.2)   % G_Workplace=L_51_41___37_8L   G_Retail=L_32_44___15_41L   
   (   0.2   0.2   0.2   0.2   0.2))   % G_Workplace=L_65_03___51_41L   G_Retail=L_32_44___15_41L   
   ((   0.2   0.2   0.2   0.2   0.2)   % G_Workplace=L_10_56__3_05L   G_Retail=L_66_5___49_47L   
   (   0.00952381   0.00952381   0.961905   0.00952381   0.00952381)   % G_Workplace=L_24_18___10_56L   G_Retail=L_66_5___49_47L   
   (   0.00952381   0.00952381   0.00952381   0.00952381   0.961905)   % G_Workplace=L_37_8___24_18L   G_Retail=L_66_5___49_47L   
   (   0.00327869   0.00327869   0.00327869   0.986885   0.00327869)   % G_Workplace=L_51_41___37_8L   G_Retail=L_66_5___49_47L   
   (   0.2   0.2   0.2   0.2   0.2))   % G_Workplace=L_65_03___51_41L   G_Retail=L_66_5___49_47L   
   ((   0.2   0.2   0.2   0.2   0.2)   % G_Workplace=L_10_56__3_05L   G_Retail=L_83_53___66_5L   
   (   0.2   0.2   0.2   0.2   0.2)   % G_Workplace=L_24_18___10_56L   G_Retail=L_83_53___66_5L   
   (   0.2   0.2   0.2   0.2   0.2)   % G_Workplace=L_37_8___24_18L   G_Retail=L_83_53___66_5L   
   (   0.2   0.2   0.2   0.2   0.2)   % G_Workplace=L_51_41___37_8L   G_Retail=L_83_53___66_5L   
   (   0.000766284   0.000766284   0.000766284   0.154023   0.843678)));   % G_Workplace=L_65_03___51_41L   G_Retail=L_83_53___66_5L   
}

potential ( G_Transit | G_Retail   ) {
   data = 
   ((   0.0857143   0.00408163   0.00408163   0.00408163   0.902041)   % G_Retail=L_15_41__1_62L   
   (   0.84   0.04   0.04   0.04   0.04)   % G_Retail=L_32_44___15_41L   
   (   0.00952381   0.2   0.771429   0.00952381   0.00952381)   % G_Retail=L_66_5___49_47L   
   (   0.00377358   0.00377358   0.00377358   0.984906   0.00377358));   % G_Retail=L_83_53___66_5L   
}

potential ( G_Workplace | G_Transit   G_Grocery_Pharmacy   ) {
   data = 
   (((   0.984314   0.00392157   0.00392157   0.00392157   0.00392157)   % G_Grocery_Pharmacy=L6_04__22_8L   G_Transit=L_25_07___8_2L   
   (   0.2   0.2   0.2   0.2   0.2)   % G_Grocery_Pharmacy=L_10_72__6_04L   G_Transit=L_25_07___8_2L   
   (   0.2   0.2   0.2   0.2   0.2)   % G_Grocery_Pharmacy=L_27_48___10_72L   G_Transit=L_25_07___8_2L   
   (   0.2   0.2   0.2   0.2   0.2)   % G_Grocery_Pharmacy=L_44_24___27_48L   G_Transit=L_25_07___8_2L   
   (   0.2   0.2   0.2   0.2   0.2))   % G_Grocery_Pharmacy=L_61_0___44_24L   G_Transit=L_25_07___8_2L   
   ((   0.2   0.2   0.2   0.2   0.2)   % G_Grocery_Pharmacy=L6_04__22_8L   G_Transit=L_41_93___25_07L   
   (   0.2   0.2   0.2   0.2   0.2)   % G_Grocery_Pharmacy=L_10_72__6_04L   G_Transit=L_41_93___25_07L   
   (   0.00769231   0.969231   0.00769231   0.00769231   0.00769231)   % G_Grocery_Pharmacy=L_27_48___10_72L   G_Transit=L_41_93___25_07L   
   (   0.2   0.2   0.2   0.2   0.2)   % G_Grocery_Pharmacy=L_44_24___27_48L   G_Transit=L_41_93___25_07L   
   (   0.2   0.2   0.2   0.2   0.2))   % G_Grocery_Pharmacy=L_61_0___44_24L   G_Transit=L_41_93___25_07L   
   ((   0.2   0.2   0.2   0.2   0.2)   % G_Grocery_Pharmacy=L6_04__22_8L   G_Transit=L_58_79___41_93L   
   (   0.2   0.2   0.2   0.2   0.2)   % G_Grocery_Pharmacy=L_10_72__6_04L   G_Transit=L_58_79___41_93L   
   (   0.00263158   0.00263158   0.00263158   0.989474   0.00263158)   % G_Grocery_Pharmacy=L_27_48___10_72L   G_Transit=L_58_79___41_93L   
   (   0.00769231   0.00769231   0.969231   0.00769231   0.00769231)   % G_Grocery_Pharmacy=L_44_24___27_48L   G_Transit=L_58_79___41_93L   
   (   0.2   0.2   0.2   0.2   0.2))   % G_Grocery_Pharmacy=L_61_0___44_24L   G_Transit=L_58_79___41_93L   
   ((   0.2   0.2   0.2   0.2   0.2)   % G_Grocery_Pharmacy=L6_04__22_8L   G_Transit=L_75_65___58_79L   
   (   0.2   0.2   0.2   0.2   0.2)   % G_Grocery_Pharmacy=L_10_72__6_04L   G_Transit=L_75_65___58_79L   
   (   0.2   0.2   0.2   0.2   0.2)   % G_Grocery_Pharmacy=L_27_48___10_72L   G_Transit=L_75_65___58_79L   
   (   0.00263158   0.00263158   0.00263158   0.00263158   0.989474)   % G_Grocery_Pharmacy=L_44_24___27_48L   G_Transit=L_75_65___58_79L   
   (   0.000796813   0.000796813   0.000796813   0.000796813   0.996813))   % G_Grocery_Pharmacy=L_61_0___44_24L   G_Transit=L_75_65___58_79L   
   ((   0.992079   0.0019802   0.0019802   0.0019802   0.0019802)   % G_Grocery_Pharmacy=L6_04__22_8L   G_Transit=L_8_2__8_66L   
   (   0.995455   0.00113636   0.00113636   0.00113636   0.00113636)   % G_Grocery_Pharmacy=L_10_72__6_04L   G_Transit=L_8_2__8_66L   
   (   0.2   0.2   0.2   0.2   0.2)   % G_Grocery_Pharmacy=L_27_48___10_72L   G_Transit=L_8_2__8_66L   
   (   0.2   0.2   0.2   0.2   0.2)   % G_Grocery_Pharmacy=L_44_24___27_48L   G_Transit=L_8_2__8_66L   
   (   0.2   0.2   0.2   0.2   0.2)));   % G_Grocery_Pharmacy=L_61_0___44_24L   G_Transit=L_8_2__8_66L   
}

potential ( G_Residencial | G_Retail   G_Workplace   ) {
   data = 
   (((   0.000829876   0.000829876   0.000829876   0.000829876   0.99668)   % G_Workplace=L_10_56__3_05L   G_Retail=L_15_41__1_62L   
   (   0.2   0.2   0.2   0.2   0.2)   % G_Workplace=L_24_18___10_56L   G_Retail=L_15_41__1_62L   
   (   0.2   0.2   0.2   0.2   0.2)   % G_Workplace=L_37_8___24_18L   G_Retail=L_15_41__1_62L   
   (   0.2   0.2   0.2   0.2   0.2)   % G_Workplace=L_51_41___37_8L   G_Retail=L_15_41__1_62L   
   (   0.2   0.2   0.2   0.2   0.2))   % G_Workplace=L_65_03___51_41L   G_Retail=L_15_41__1_62L   
   ((   0.00952381   0.00952381   0.00952381   0.961905   0.00952381)   % G_Workplace=L_10_56__3_05L   G_Retail=L_32_44___15_41L   
   (   0.2   0.2   0.2   0.2   0.2)   % G_Workplace=L_24_18___10_56L   G_Retail=L_32_44___15_41L   
   (   0.2   0.2   0.2   0.2   0.2)   % G_Workplace=L_37_8___24_18L   G_Retail=L_32_44___15_41L   
   (   0.2   0.2   0.2   0.2   0.2)   % G_Workplace=L_51_41___37_8L   G_Retail=L_32_44___15_41L   
   (   0.2   0.2   0.2   0.2   0.2))   % G_Workplace=L_65_03___51_41L   G_Retail=L_32_44___15_41L   
   ((   0.2   0.2   0.2   0.2   0.2)   % G_Workplace=L_10_56__3_05L   G_Retail=L_66_5___49_47L   
   (   0.00952381   0.00952381   0.00952381   0.961905   0.00952381)   % G_Workplace=L_24_18___10_56L   G_Retail=L_66_5___49_47L   
   (   0.961905   0.00952381   0.00952381   0.00952381   0.00952381)   % G_Workplace=L_37_8___24_18L   G_Retail=L_66_5___49_47L   
   (   0.00327869   0.986885   0.00327869   0.00327869   0.00327869)   % G_Workplace=L_51_41___37_8L   G_Retail=L_66_5___49_47L   
   (   0.2   0.2   0.2   0.2   0.2))   % G_Workplace=L_65_03___51_41L   G_Retail=L_66_5___49_47L   
   ((   0.2   0.2   0.2   0.2   0.2)   % G_Workplace=L_10_56__3_05L   G_Retail=L_83_53___66_5L   
   (   0.2   0.2   0.2   0.2   0.2)   % G_Workplace=L_24_18___10_56L   G_Retail=L_83_53___66_5L   
   (   0.2   0.2   0.2   0.2   0.2)   % G_Workplace=L_37_8___24_18L   G_Retail=L_83_53___66_5L   
   (   0.2   0.2   0.2   0.2   0.2)   % G_Workplace=L_51_41___37_8L   G_Retail=L_83_53___66_5L   
   (   0.0773946   0.230651   0.690421   0.000766284   0.000766284)));   % G_Workplace=L_65_03___51_41L   G_Retail=L_83_53___66_5L   
}


