
net {
  name = unnamedBN;
  software = "aGrUM 0.18.2";
  node_size = (50 50);
}

node Cases_per_Million {
   states = (L22_47__35_47L L35_47__48_46L L48_46__61_46L L61_46__74_46L L74_46__87_45L );
   label = "Cases_per_Million";
   ID = "Cases_per_Million";
}

node Deaths_per_Million {
   states = (L0_19__0_41L L0_41__0_62L L0_62__0_84L L0_84__1_05L L1_05__1_26L );
   label = "Deaths_per_Million";
   ID = "Deaths_per_Million";
}

node G_Retail {
   states = (L_11_98___5_59L L_18_36___11_98L L_24_74___18_36L L_31_12___24_74L L_37_5___31_12L );
   label = "G_Retail";
   ID = "G_Retail";
}

node G_Grocery_Pharmacy {
   states = (L1_31__6_52L L_14_3___9_09L L_19_5___14_3L L_3_89__1_31L L_9_09___3_89L );
   label = "G_Grocery_Pharmacy";
   ID = "G_Grocery_Pharmacy";
}

node G_Parks {
   states = (L0_47__15_91L L15_91__31_35L L31_35__46_79L L46_79__62_23L L62_23__77_67L );
   label = "G_Parks";
   ID = "G_Parks";
}

node G_Transit {
   states = (L_18_14___12_55L L_23_73___18_14L L_29_32___23_73L L_40_5___34_91L );
   label = "G_Transit";
   ID = "G_Transit";
}

node G_Workplace {
   states = (L_12_16___3_71L L_20_62___12_16L L_29_08___20_62L L_37_54___29_08L L_46_0___37_54L );
   label = "G_Workplace";
   ID = "G_Workplace";
}

node G_Residencial {
   states = (L0_43__2_7L L2_7__4_97L L4_97__7_23L L7_23__9_5L L_1_83__0_43L );
   label = "G_Residencial";
   ID = "G_Residencial";
}

potential (Cases_per_Million) {
   data = (  0.103226 0.296774 0.167742 0.2 0.232258);
}

potential (Deaths_per_Million) {
   data = (  0.522581 0.232258 0.135484 0.0709677 0.0387097);
}

potential ( G_Retail | G_Workplace   ) {
   data = 
   ((   0.00555556   0.144444   0.838889   0.00555556   0.00555556)   % G_Workplace=L_12_16___3_71L   
   (   0.0333333   0.0333333   0.0333333   0.866667   0.0333333)   % G_Workplace=L_20_62___12_16L   
   (   0.609091   0.381818   0.0030303   0.0030303   0.0030303)   % G_Workplace=L_29_08___20_62L   
   (   0.866667   0.0333333   0.0333333   0.0333333   0.0333333)   % G_Workplace=L_37_54___29_08L   
   (   0.00487805   0.00487805   0.00487805   0.126829   0.858537));   % G_Workplace=L_46_0___37_54L   
}

potential ( G_Grocery_Pharmacy | G_Transit   G_Residencial   ) {
   data = 
   (((   0.00952381   0.00952381   0.00952381   0.00952381   0.961905)   % G_Residencial=L0_43__2_7L   G_Transit=L_18_14___12_55L   
   (   0.2   0.2   0.2   0.2   0.2)   % G_Residencial=L2_7__4_97L   G_Transit=L_18_14___12_55L   
   (   0.961905   0.00952381   0.00952381   0.00952381   0.00952381)   % G_Residencial=L4_97__7_23L   G_Transit=L_18_14___12_55L   
   (   0.42695   0.00141844   0.00141844   0.568794   0.00141844)   % G_Residencial=L7_23__9_5L   G_Transit=L_18_14___12_55L   
   (   0.2   0.2   0.2   0.2   0.2))   % G_Residencial=L_1_83__0_43L   G_Transit=L_18_14___12_55L   
   ((   0.2   0.2   0.2   0.2   0.2)   % G_Residencial=L0_43__2_7L   G_Transit=L_23_73___18_14L   
   (   0.00952381   0.00952381   0.00952381   0.00952381   0.961905)   % G_Residencial=L2_7__4_97L   G_Transit=L_23_73___18_14L   
   (   0.00487805   0.00487805   0.00487805   0.492683   0.492683)   % G_Residencial=L4_97__7_23L   G_Transit=L_23_73___18_14L   
   (   0.166942   0.00165289   0.00165289   0.828099   0.00165289)   % G_Residencial=L7_23__9_5L   G_Transit=L_23_73___18_14L   
   (   0.00952381   0.961905   0.00952381   0.00952381   0.00952381))   % G_Residencial=L_1_83__0_43L   G_Transit=L_23_73___18_14L   
   ((   0.00952381   0.00952381   0.961905   0.00952381   0.00952381)   % G_Residencial=L0_43__2_7L   G_Transit=L_29_32___23_73L   
   (   0.2   0.2   0.2   0.2   0.2)   % G_Residencial=L2_7__4_97L   G_Transit=L_29_32___23_73L   
   (   0.00952381   0.961905   0.00952381   0.00952381   0.00952381)   % G_Residencial=L4_97__7_23L   G_Transit=L_29_32___23_73L   
   (   0.2   0.2   0.2   0.2   0.2)   % G_Residencial=L7_23__9_5L   G_Transit=L_29_32___23_73L   
   (   0.00952381   0.00952381   0.961905   0.00952381   0.00952381))   % G_Residencial=L_1_83__0_43L   G_Transit=L_29_32___23_73L   
   ((   0.2   0.2   0.2   0.2   0.2)   % G_Residencial=L0_43__2_7L   G_Transit=L_40_5___34_91L   
   (   0.2   0.2   0.2   0.2   0.2)   % G_Residencial=L2_7__4_97L   G_Transit=L_40_5___34_91L   
   (   0.2   0.2   0.2   0.2   0.2)   % G_Residencial=L4_97__7_23L   G_Transit=L_40_5___34_91L   
   (   0.00124224   0.373913   0.62236   0.00124224   0.00124224)   % G_Residencial=L7_23__9_5L   G_Transit=L_40_5___34_91L   
   (   0.2   0.2   0.2   0.2   0.2)));   % G_Residencial=L_1_83__0_43L   G_Transit=L_40_5___34_91L   
}

potential (G_Parks) {
   data = (  0.36129 0.36129 0.103226 0.103226 0.0709677);
}

potential (G_Transit) {
   data = (  0.298387 0.330645 0.104839 0.266129);
}

potential ( G_Workplace | G_Transit   ) {
   data = 
   ((   0.113514   0.00540541   0.762162   0.113514   0.00540541)   % G_Transit=L_18_14___12_55L   
   (   0.395122   0.00487805   0.590244   0.00487805   0.00487805)   % G_Transit=L_23_73___18_14L   
   (   0.630769   0.323077   0.0153846   0.0153846   0.0153846)   % G_Transit=L_29_32___23_73L   
   (   0.00606061   0.00606061   0.00606061   0.00606061   0.975758));   % G_Transit=L_40_5___34_91L   
}

potential ( G_Residencial | G_Workplace   ) {
   data = 
   ((   0.144444   0.144444   0.422222   0.00555556   0.283333)   % G_Workplace=L_12_16___3_71L   
   (   0.866667   0.0333333   0.0333333   0.0333333   0.0333333)   % G_Workplace=L_20_62___12_16L   
   (   0.0030303   0.0030303   0.0787879   0.912121   0.0030303)   % G_Workplace=L_29_08___20_62L   
   (   0.0333333   0.0333333   0.0333333   0.866667   0.0333333)   % G_Workplace=L_37_54___29_08L   
   (   0.00487805   0.00487805   0.00487805   0.980488   0.00487805));   % G_Workplace=L_46_0___37_54L   
}


