
net {
  name = unnamedBN;
  software = "aGrUM 0.18.2";
  node_size = (50 50);
}

node Deaths_per_Million {
   states = (L0_0__1_23L L1_23__2_45L L2_45__3_68L L3_68__4_9L L4_9__6_13L );
   label = "Deaths_per_Million";
   ID = "Deaths_per_Million";
}

node C6_Stay_at_home_requirements {
   states = (0 1 3 );
   label = "C6_Stay_at_home_requirements";
   ID = "C6_Stay_at_home_requirements";
}

potential (Deaths_per_Million) {
   data = (  0.661255 0.20369 0.0929889 0.0228782 0.0191882);
}

potential ( C6_Stay_at_home_requirements | Deaths_per_Million   ) {
   data = 
   ((   0.301711   0.312872   0.385417)   % Deaths_per_Million=L0_0__1_23L   
   (   0.00120773   0.562802   0.43599)   % Deaths_per_Million=L1_23__2_45L   
   (   0.0026455   0.121693   0.875661)   % Deaths_per_Million=L2_45__3_68L   
   (   0.0107527   0.0107527   0.978495)   % Deaths_per_Million=L3_68__4_9L   
   (   0.0128205   0.0128205   0.974359));   % Deaths_per_Million=L4_9__6_13L   
}


