
net {
  name = unnamedBN;
  software = "aGrUM 0.18.2";
  node_size = (50 50);
}

node Cases_per_Million {
   states = (L0_0__145_86L L145_86__291_71L L291_71__437_57L L437_57__583_42L L583_42__729_28L );
   label = "Cases_per_Million";
   ID = "Cases_per_Million";
}

node Deaths_per_Million {
   states = (L0_0__1_23L L1_23__2_45L L2_45__3_68L L3_68__4_9L L4_9__6_13L );
   label = "Deaths_per_Million";
   ID = "Deaths_per_Million";
}

node G_Retail {
   states = (L_24_0___3_05L L_3_05__17_9L L_44_95___24_0L L_65_9___44_95L L_86_85___65_9L );
   label = "G_Retail";
   ID = "G_Retail";
}

node G_Grocery_Pharmacy {
   states = (L1_64__22_8L L_19_52__1_64L L_40_68___19_52L L_61_84___40_68L L_83_0___61_84L );
   label = "G_Grocery_Pharmacy";
   ID = "G_Grocery_Pharmacy";
}

node G_Parks {
   states = (L34_64__74_97L L74_97__115_3L L_46_01___5_68L L_5_68__34_64L L_86_33___46_01L );
   label = "G_Parks";
   ID = "G_Parks";
}

node G_Transit {
   states = (L_23_58___3_65L L_3_65__16_27L L_43_5___23_58L L_63_43___43_5L L_83_35___63_43L );
   label = "G_Transit";
   ID = "G_Transit";
}

node G_Workplace {
   states = (L_14_57__3_18L L_32_31___14_57L L_50_06___32_31L L_67_8___50_06L L_85_55___67_8L );
   label = "G_Workplace";
   ID = "G_Workplace";
}

node G_Residencial {
   states = (L16_89__27_39L L27_39__37_9L L37_9__48_4L L6_39__16_89L L_4_12__6_39L );
   label = "G_Residencial";
   ID = "G_Residencial";
}

potential ( Cases_per_Million | Deaths_per_Million   ) {
   data = 
   ((   0.982366   0.0169643   0.000223214   0.000223214   0.000223214)   % Deaths_per_Million=L0_0__1_23L   
   (   0.815942   0.127536   0.0550725   0.000724638   0.000724638)   % Deaths_per_Million=L1_23__2_45L   
   (   0.755556   0.120635   0.120635   0.0015873   0.0015873)   % Deaths_per_Million=L2_45__3_68L   
   (   0.00645161   0.329032   0.329032   0.329032   0.00645161)   % Deaths_per_Million=L3_68__4_9L   
   (   0.00769231   0.00769231   0.392308   0.2   0.392308));   % Deaths_per_Million=L4_9__6_13L   
}

potential ( Deaths_per_Million | G_Grocery_Pharmacy   ) {
   data = 
   ((   0.775221   0.111504   0.0672566   0.0230088   0.0230088)   % G_Grocery_Pharmacy=L1_64__22_8L   
   (   0.770613   0.157204   0.00741797   0.0359486   0.028816)   % G_Grocery_Pharmacy=L_19_52__1_64L   
   (   0.482392   0.283056   0.233223   0.000664452   0.000664452)   % G_Grocery_Pharmacy=L_40_68___19_52L   
   (   0.290909   0.456198   0.249587   0.00165289   0.00165289)   % G_Grocery_Pharmacy=L_61_84___40_68L   
   (   0.0333333   0.0333333   0.866667   0.0333333   0.0333333));   % G_Grocery_Pharmacy=L_83_0___61_84L   
}

potential ( G_Retail | G_Parks   ) {
   data = 
   ((   0.69537   0.0703704   0.232407   0.000925926   0.000925926)   % G_Parks=L34_64__74_97L   
   (   0.745455   0.166942   0.0842975   0.00165289   0.00165289)   % G_Parks=L74_97__115_3L   
   (   0.190521   0.0720379   0.261611   0.403791   0.0720379)   % G_Parks=L_46_01___5_68L   
   (   0.3843   0.153925   0.426962   0.034471   0.000341297)   % G_Parks=L_5_68__34_64L   
   (   0.000904977   0.000904977   0.0461538   0.136652   0.815385));   % G_Parks=L_86_33___46_01L   
}

potential ( G_Grocery_Pharmacy | G_Retail   ) {
   data = 
   ((   0.237549   0.761265   0.000395257   0.000395257   0.000395257)   % G_Retail=L_24_0___3_05L   
   (   0.710638   0.285106   0.00141844   0.00141844   0.00141844)   % G_Retail=L_3_05__17_9L   
   (   0.0138298   0.692021   0.293085   0.000531915   0.000531915)   % G_Retail=L_44_95___24_0L   
   (   0.00147059   0.111765   0.883824   0.00147059   0.00147059)   % G_Retail=L_65_9___44_95L   
   (   0.00102041   0.00102041   0.358163   0.613265   0.0265306));   % G_Retail=L_86_85___65_9L   
}

potential (G_Parks) {
   data = (  0.15941 0.0892989 0.15572 0.432472 0.1631);
}

potential ( G_Transit | G_Retail   ) {
   data = 
   ((   0.563636   0.0102767   0.425296   0.000395257   0.000395257)   % G_Retail=L_24_0___3_05L   
   (   0.143262   0.852482   0.00141844   0.00141844   0.00141844)   % G_Retail=L_3_05__17_9L   
   (   0.0670213   0.000531915   0.612234   0.319681   0.000531915)   % G_Retail=L_44_95___24_0L   
   (   0.00147059   0.00147059   0.075   0.663235   0.258824)   % G_Retail=L_65_9___44_95L   
   (   0.00102041   0.00102041   0.00102041   0.077551   0.919388));   % G_Retail=L_86_85___65_9L   
}

potential ( G_Workplace | G_Transit   G_Residencial   ) {
   data = 
   (((   0.2   0.2   0.2   0.2   0.2)   % G_Residencial=L16_89__27_39L   G_Transit=L_23_58___3_65L   
   (   0.2   0.2   0.2   0.2   0.2)   % G_Residencial=L27_39__37_9L   G_Transit=L_23_58___3_65L   
   (   0.2   0.2   0.2   0.2   0.2)   % G_Residencial=L37_9__48_4L   G_Transit=L_23_58___3_65L   
   (   0.0626145   0.749542   0.166694   0.0209825   0.000166528)   % G_Residencial=L6_39__16_89L   G_Transit=L_23_58___3_65L   
   (   0.942794   0.0558758   0.000443459   0.000443459   0.000443459))   % G_Residencial=L_4_12__6_39L   G_Transit=L_23_58___3_65L   
   ((   0.2   0.2   0.2   0.2   0.2)   % G_Residencial=L16_89__27_39L   G_Transit=L_3_65__16_27L   
   (   0.2   0.2   0.2   0.2   0.2)   % G_Residencial=L27_39__37_9L   G_Transit=L_3_65__16_27L   
   (   0.2   0.2   0.2   0.2   0.2)   % G_Residencial=L37_9__48_4L   G_Transit=L_3_65__16_27L   
   (   0.2   0.2   0.2   0.2   0.2)   % G_Residencial=L6_39__16_89L   G_Transit=L_3_65__16_27L   
   (   0.958786   0.0402556   0.000319489   0.000319489   0.000319489))   % G_Residencial=L_4_12__6_39L   G_Transit=L_3_65__16_27L   
   ((   0.0015873   0.0015873   0.795238   0.0015873   0.2)   % G_Residencial=L16_89__27_39L   G_Transit=L_43_5___23_58L   
   (   0.2   0.2   0.2   0.2   0.2)   % G_Residencial=L27_39__37_9L   G_Transit=L_43_5___23_58L   
   (   0.2   0.2   0.2   0.2   0.2)   % G_Residencial=L37_9__48_4L   G_Transit=L_43_5___23_58L   
   (   0.161787   0.396943   0.441035   0.000117578   0.000117578)   % G_Residencial=L6_39__16_89L   G_Transit=L_43_5___23_58L   
   (   0.776497   0.222173   0.000443459   0.000443459   0.000443459))   % G_Residencial=L_4_12__6_39L   G_Transit=L_43_5___23_58L   
   ((   0.000275482   0.000275482   0.723416   0.241322   0.0347107)   % G_Residencial=L16_89__27_39L   G_Transit=L_63_43___43_5L   
   (   0.2   0.2   0.2   0.2   0.2)   % G_Residencial=L27_39__37_9L   G_Transit=L_63_43___43_5L   
   (   0.2   0.2   0.2   0.2   0.2)   % G_Residencial=L37_9__48_4L   G_Transit=L_63_43___43_5L   
   (   0.000498753   0.249875   0.312219   0.436908   0.000498753)   % G_Residencial=L6_39__16_89L   G_Transit=L_63_43___43_5L   
   (   0.2   0.2   0.2   0.2   0.2))   % G_Residencial=L_4_12__6_39L   G_Transit=L_63_43___43_5L   
   ((   0.000724638   0.000724638   0.181884   0.815942   0.000724638)   % G_Residencial=L16_89__27_39L   G_Transit=L_83_35___63_43L   
   (   0.000266312   0.000266312   0.000266312   0.932357   0.0668442)   % G_Residencial=L27_39__37_9L   G_Transit=L_83_35___63_43L   
   (   0.00392157   0.00392157   0.00392157   0.00392157   0.984314)   % G_Residencial=L37_9__48_4L   G_Transit=L_83_35___63_43L   
   (   0.2   0.2   0.2   0.2   0.2)   % G_Residencial=L6_39__16_89L   G_Transit=L_83_35___63_43L   
   (   0.2   0.2   0.2   0.2   0.2)));   % G_Residencial=L_4_12__6_39L   G_Transit=L_83_35___63_43L   
}

potential ( G_Residencial | G_Transit   G_Grocery_Pharmacy   ) {
   data = 
   (((   0.000332779   0.000332779   0.000332779   0.957072   0.0419301)   % G_Grocery_Pharmacy=L1_64__22_8L   G_Transit=L_23_58___3_65L   
   (   0.000190295   0.000190295   0.000190295   0.594862   0.404567)   % G_Grocery_Pharmacy=L_19_52__1_64L   G_Transit=L_23_58___3_65L   
   (   0.2   0.2   0.2   0.2   0.2)   % G_Grocery_Pharmacy=L_40_68___19_52L   G_Transit=L_23_58___3_65L   
   (   0.2   0.2   0.2   0.2   0.2)   % G_Grocery_Pharmacy=L_61_84___40_68L   G_Transit=L_23_58___3_65L   
   (   0.2   0.2   0.2   0.2   0.2))   % G_Grocery_Pharmacy=L_83_0___61_84L   G_Transit=L_23_58___3_65L   
   ((   0.000443459   0.000443459   0.000443459   0.000443459   0.998226)   % G_Grocery_Pharmacy=L1_64__22_8L   G_Transit=L_3_65__16_27L   
   (   0.00113636   0.00113636   0.00113636   0.00113636   0.995455)   % G_Grocery_Pharmacy=L_19_52__1_64L   G_Transit=L_3_65__16_27L   
   (   0.2   0.2   0.2   0.2   0.2)   % G_Grocery_Pharmacy=L_40_68___19_52L   G_Transit=L_3_65__16_27L   
   (   0.2   0.2   0.2   0.2   0.2)   % G_Grocery_Pharmacy=L_61_84___40_68L   G_Transit=L_3_65__16_27L   
   (   0.2   0.2   0.2   0.2   0.2))   % G_Grocery_Pharmacy=L_83_0___61_84L   G_Transit=L_3_65__16_27L   
   ((   0.00263158   0.00263158   0.00263158   0.989474   0.00263158)   % G_Grocery_Pharmacy=L1_64__22_8L   G_Transit=L_43_5___23_58L   
   (   0.0641722   0.000102512   0.000102512   0.820195   0.115428)   % G_Grocery_Pharmacy=L_19_52__1_64L   G_Transit=L_43_5___23_58L   
   (   0.000796813   0.000796813   0.000796813   0.100398   0.897211)   % G_Grocery_Pharmacy=L_40_68___19_52L   G_Transit=L_43_5___23_58L   
   (   0.2   0.2   0.2   0.2   0.2)   % G_Grocery_Pharmacy=L_61_84___40_68L   G_Transit=L_43_5___23_58L   
   (   0.2   0.2   0.2   0.2   0.2))   % G_Grocery_Pharmacy=L_83_0___61_84L   G_Transit=L_43_5___23_58L   
   ((   0.2   0.2   0.2   0.2   0.2)   % G_Grocery_Pharmacy=L1_64__22_8L   G_Transit=L_63_43___43_5L   
   (   0.997546   0.000613497   0.000613497   0.000613497   0.000613497)   % G_Grocery_Pharmacy=L_19_52__1_64L   G_Transit=L_63_43___43_5L   
   (   0.515722   0.000257732   0.000257732   0.483505   0.000257732)   % G_Grocery_Pharmacy=L_40_68___19_52L   G_Transit=L_63_43___43_5L   
   (   0.00769231   0.00769231   0.00769231   0.969231   0.00769231)   % G_Grocery_Pharmacy=L_61_84___40_68L   G_Transit=L_63_43___43_5L   
   (   0.2   0.2   0.2   0.2   0.2))   % G_Grocery_Pharmacy=L_83_0___61_84L   G_Transit=L_63_43___43_5L   
   ((   0.2   0.2   0.2   0.2   0.2)   % G_Grocery_Pharmacy=L1_64__22_8L   G_Transit=L_83_35___63_43L   
   (   0.2   0.2   0.2   0.2   0.2)   % G_Grocery_Pharmacy=L_19_52__1_64L   G_Transit=L_83_35___63_43L   
   (   0.105462   0.893277   0.000420168   0.000420168   0.000420168)   % G_Grocery_Pharmacy=L_40_68___19_52L   G_Transit=L_83_35___63_43L   
   (   0.347569   0.564583   0.0871528   0.000347222   0.000347222)   % G_Grocery_Pharmacy=L_61_84___40_68L   G_Transit=L_83_35___63_43L   
   (   0.969231   0.00769231   0.00769231   0.00769231   0.00769231)));   % G_Grocery_Pharmacy=L_83_0___61_84L   G_Transit=L_83_35___63_43L   
}


