
net {
  name = unnamedBN;
  software = "aGrUM 0.18.2";
  node_size = (50 50);
}

node Cases_per_Million {
   states = (L121_15__147_47L L15_86__42_18L L42_18__68_5L L68_5__94_82L );
   label = "Cases_per_Million";
   ID = "Cases_per_Million";
}

node Deaths_per_Million {
   states = (L1_56__1_96L L1_96__2_37L L2_37__2_78L L2_78__3_19L L3_19__3_6L );
   label = "Deaths_per_Million";
   ID = "Deaths_per_Million";
}

node G_Retail {
   states = (L_63_28___57_38L L_69_17___63_28L L_75_06___69_17L L_80_95___75_06L L_86_85___80_95L );
   label = "G_Retail";
   ID = "G_Retail";
}

node G_Grocery_Pharmacy {
   states = (L_31_27___18_33L L_44_2___31_27L L_57_13___44_2L L_70_07___57_13L L_83_0___70_07L );
   label = "G_Grocery_Pharmacy";
   ID = "G_Grocery_Pharmacy";
}

node G_Parks {
   states = (L_45_66___35_49L L_55_83___45_66L L_65_99___55_83L L_76_16___65_99L L_86_33___76_16L );
   label = "G_Parks";
   ID = "G_Parks";
}

node G_Transit {
   states = (L_67_34___63_33L L_71_34___67_34L L_75_34___71_34L L_79_35___75_34L L_83_35___79_35L );
   label = "G_Transit";
   ID = "G_Transit";
}

node G_Workplace {
   states = (L_55_69___48_22L L_63_15___55_69L L_70_62___63_15L L_78_08___70_62L L_85_55___78_08L );
   label = "G_Workplace";
   ID = "G_Workplace";
}

node G_Residencial {
   states = (L19_0__24_88L L24_88__30_76L L30_76__36_64L L36_64__42_52L L42_52__48_4L );
   label = "G_Residencial";
   ID = "G_Residencial";
}

potential ( Cases_per_Million | G_Workplace   ) {
   data = 
   ((   0.0119048   0.0119048   0.964286   0.0119048)   % G_Workplace=L_55_69___48_22L   
   (   0.00308642   0.311728   0.62037   0.0648148)   % G_Workplace=L_63_15___55_69L   
   (   0.00609756   0.00609756   0.25   0.737805)   % G_Workplace=L_70_62___63_15L   
   (   0.0416667   0.875   0.0416667   0.0416667)   % G_Workplace=L_78_08___70_62L   
   (   0.875   0.0416667   0.0416667   0.0416667));   % G_Workplace=L_85_55___78_08L   
}

potential (Deaths_per_Million) {
   data = (  0.135484 0.135484 0.264516 0.232258 0.232258);
}

potential ( G_Retail | G_Grocery_Pharmacy   G_Workplace   ) {
   data = 
   (((   0.2   0.2   0.2   0.2   0.2)   % G_Workplace=L_55_69___48_22L   G_Grocery_Pharmacy=L_31_27___18_33L   
   (   0.989474   0.00263158   0.00263158   0.00263158   0.00263158)   % G_Workplace=L_63_15___55_69L   G_Grocery_Pharmacy=L_31_27___18_33L   
   (   0.00769231   0.969231   0.00769231   0.00769231   0.00769231)   % G_Workplace=L_70_62___63_15L   G_Grocery_Pharmacy=L_31_27___18_33L   
   (   0.2   0.2   0.2   0.2   0.2)   % G_Workplace=L_78_08___70_62L   G_Grocery_Pharmacy=L_31_27___18_33L   
   (   0.2   0.2   0.2   0.2   0.2))   % G_Workplace=L_85_55___78_08L   G_Grocery_Pharmacy=L_31_27___18_33L   
   ((   0.00392157   0.00392157   0.984314   0.00392157   0.00392157)   % G_Workplace=L_55_69___48_22L   G_Grocery_Pharmacy=L_44_2___31_27L   
   (   0.111504   0.885841   0.000884956   0.000884956   0.000884956)   % G_Workplace=L_63_15___55_69L   G_Grocery_Pharmacy=L_44_2___31_27L   
   (   0.00113636   0.285227   0.711364   0.00113636   0.00113636)   % G_Workplace=L_70_62___63_15L   G_Grocery_Pharmacy=L_44_2___31_27L   
   (   0.2   0.2   0.2   0.2   0.2)   % G_Workplace=L_78_08___70_62L   G_Grocery_Pharmacy=L_44_2___31_27L   
   (   0.2   0.2   0.2   0.2   0.2))   % G_Workplace=L_85_55___78_08L   G_Grocery_Pharmacy=L_44_2___31_27L   
   ((   0.00392157   0.00392157   0.00392157   0.984314   0.00392157)   % G_Workplace=L_55_69___48_22L   G_Grocery_Pharmacy=L_57_13___44_2L   
   (   0.00392157   0.00392157   0.00392157   0.984314   0.00392157)   % G_Workplace=L_63_15___55_69L   G_Grocery_Pharmacy=L_57_13___44_2L   
   (   0.2   0.2   0.2   0.2   0.2)   % G_Workplace=L_70_62___63_15L   G_Grocery_Pharmacy=L_57_13___44_2L   
   (   0.00769231   0.00769231   0.969231   0.00769231   0.00769231)   % G_Workplace=L_78_08___70_62L   G_Grocery_Pharmacy=L_57_13___44_2L   
   (   0.00769231   0.00769231   0.00769231   0.969231   0.00769231))   % G_Workplace=L_85_55___78_08L   G_Grocery_Pharmacy=L_57_13___44_2L   
   ((   0.2   0.2   0.2   0.2   0.2)   % G_Workplace=L_55_69___48_22L   G_Grocery_Pharmacy=L_70_07___57_13L   
   (   0.00769231   0.00769231   0.00769231   0.00769231   0.969231)   % G_Workplace=L_63_15___55_69L   G_Grocery_Pharmacy=L_70_07___57_13L   
   (   0.2   0.2   0.2   0.2   0.2)   % G_Workplace=L_70_62___63_15L   G_Grocery_Pharmacy=L_70_07___57_13L   
   (   0.2   0.2   0.2   0.2   0.2)   % G_Workplace=L_78_08___70_62L   G_Grocery_Pharmacy=L_70_07___57_13L   
   (   0.2   0.2   0.2   0.2   0.2))   % G_Workplace=L_85_55___78_08L   G_Grocery_Pharmacy=L_70_07___57_13L   
   ((   0.2   0.2   0.2   0.2   0.2)   % G_Workplace=L_55_69___48_22L   G_Grocery_Pharmacy=L_83_0___70_07L   
   (   0.00769231   0.00769231   0.00769231   0.00769231   0.969231)   % G_Workplace=L_63_15___55_69L   G_Grocery_Pharmacy=L_83_0___70_07L   
   (   0.2   0.2   0.2   0.2   0.2)   % G_Workplace=L_70_62___63_15L   G_Grocery_Pharmacy=L_83_0___70_07L   
   (   0.2   0.2   0.2   0.2   0.2)   % G_Workplace=L_78_08___70_62L   G_Grocery_Pharmacy=L_83_0___70_07L   
   (   0.2   0.2   0.2   0.2   0.2)));   % G_Workplace=L_85_55___78_08L   G_Grocery_Pharmacy=L_83_0___70_07L   
}

potential ( G_Grocery_Pharmacy | G_Parks   G_Transit   G_Workplace   ) {
   data = 
   ((((   0.2   0.2   0.2   0.2   0.2)   % G_Workplace=L_55_69___48_22L   G_Transit=L_67_34___63_33L   G_Parks=L_45_66___35_49L   
   (   0.996813   0.000796813   0.000796813   0.000796813   0.000796813)   % G_Workplace=L_63_15___55_69L   G_Transit=L_67_34___63_33L   G_Parks=L_45_66___35_49L   
   (   0.2   0.2   0.2   0.2   0.2)   % G_Workplace=L_70_62___63_15L   G_Transit=L_67_34___63_33L   G_Parks=L_45_66___35_49L   
   (   0.2   0.2   0.2   0.2   0.2)   % G_Workplace=L_78_08___70_62L   G_Transit=L_67_34___63_33L   G_Parks=L_45_66___35_49L   
   (   0.2   0.2   0.2   0.2   0.2))   % G_Workplace=L_85_55___78_08L   G_Transit=L_67_34___63_33L   G_Parks=L_45_66___35_49L   
   ((   0.2   0.2   0.2   0.2   0.2)   % G_Workplace=L_55_69___48_22L   G_Transit=L_71_34___67_34L   G_Parks=L_45_66___35_49L   
   (   0.000796813   0.996813   0.000796813   0.000796813   0.000796813)   % G_Workplace=L_63_15___55_69L   G_Transit=L_71_34___67_34L   G_Parks=L_45_66___35_49L   
   (   0.2   0.2   0.2   0.2   0.2)   % G_Workplace=L_70_62___63_15L   G_Transit=L_71_34___67_34L   G_Parks=L_45_66___35_49L   
   (   0.2   0.2   0.2   0.2   0.2)   % G_Workplace=L_78_08___70_62L   G_Transit=L_71_34___67_34L   G_Parks=L_45_66___35_49L   
   (   0.2   0.2   0.2   0.2   0.2))   % G_Workplace=L_85_55___78_08L   G_Transit=L_71_34___67_34L   G_Parks=L_45_66___35_49L   
   ((   0.2   0.2   0.2   0.2   0.2)   % G_Workplace=L_55_69___48_22L   G_Transit=L_75_34___71_34L   G_Parks=L_45_66___35_49L   
   (   0.2   0.2   0.2   0.2   0.2)   % G_Workplace=L_63_15___55_69L   G_Transit=L_75_34___71_34L   G_Parks=L_45_66___35_49L   
   (   0.2   0.2   0.2   0.2   0.2)   % G_Workplace=L_70_62___63_15L   G_Transit=L_75_34___71_34L   G_Parks=L_45_66___35_49L   
   (   0.2   0.2   0.2   0.2   0.2)   % G_Workplace=L_78_08___70_62L   G_Transit=L_75_34___71_34L   G_Parks=L_45_66___35_49L   
   (   0.2   0.2   0.2   0.2   0.2))   % G_Workplace=L_85_55___78_08L   G_Transit=L_75_34___71_34L   G_Parks=L_45_66___35_49L   
   ((   0.2   0.2   0.2   0.2   0.2)   % G_Workplace=L_55_69___48_22L   G_Transit=L_79_35___75_34L   G_Parks=L_45_66___35_49L   
   (   0.2   0.2   0.2   0.2   0.2)   % G_Workplace=L_63_15___55_69L   G_Transit=L_79_35___75_34L   G_Parks=L_45_66___35_49L   
   (   0.2   0.2   0.2   0.2   0.2)   % G_Workplace=L_70_62___63_15L   G_Transit=L_79_35___75_34L   G_Parks=L_45_66___35_49L   
   (   0.2   0.2   0.2   0.2   0.2)   % G_Workplace=L_78_08___70_62L   G_Transit=L_79_35___75_34L   G_Parks=L_45_66___35_49L   
   (   0.2   0.2   0.2   0.2   0.2))   % G_Workplace=L_85_55___78_08L   G_Transit=L_79_35___75_34L   G_Parks=L_45_66___35_49L   
   ((   0.2   0.2   0.2   0.2   0.2)   % G_Workplace=L_55_69___48_22L   G_Transit=L_83_35___79_35L   G_Parks=L_45_66___35_49L   
   (   0.2   0.2   0.2   0.2   0.2)   % G_Workplace=L_63_15___55_69L   G_Transit=L_83_35___79_35L   G_Parks=L_45_66___35_49L   
   (   0.2   0.2   0.2   0.2   0.2)   % G_Workplace=L_70_62___63_15L   G_Transit=L_83_35___79_35L   G_Parks=L_45_66___35_49L   
   (   0.2   0.2   0.2   0.2   0.2)   % G_Workplace=L_78_08___70_62L   G_Transit=L_83_35___79_35L   G_Parks=L_45_66___35_49L   
   (   0.2   0.2   0.2   0.2   0.2)))   % G_Workplace=L_85_55___78_08L   G_Transit=L_83_35___79_35L   G_Parks=L_45_66___35_49L   
   (((   0.000796813   0.996813   0.000796813   0.000796813   0.000796813)   % G_Workplace=L_55_69___48_22L   G_Transit=L_67_34___63_33L   G_Parks=L_55_83___45_66L   
   (   0.2   0.2   0.2   0.2   0.2)   % G_Workplace=L_63_15___55_69L   G_Transit=L_67_34___63_33L   G_Parks=L_55_83___45_66L   
   (   0.2   0.2   0.2   0.2   0.2)   % G_Workplace=L_70_62___63_15L   G_Transit=L_67_34___63_33L   G_Parks=L_55_83___45_66L   
   (   0.2   0.2   0.2   0.2   0.2)   % G_Workplace=L_78_08___70_62L   G_Transit=L_67_34___63_33L   G_Parks=L_55_83___45_66L   
   (   0.2   0.2   0.2   0.2   0.2))   % G_Workplace=L_85_55___78_08L   G_Transit=L_67_34___63_33L   G_Parks=L_55_83___45_66L   
   ((   0.2   0.2   0.2   0.2   0.2)   % G_Workplace=L_55_69___48_22L   G_Transit=L_71_34___67_34L   G_Parks=L_55_83___45_66L   
   (   0.2   0.799042   0.000319489   0.000319489   0.000319489)   % G_Workplace=L_63_15___55_69L   G_Transit=L_71_34___67_34L   G_Parks=L_55_83___45_66L   
   (   0.993651   0.0015873   0.0015873   0.0015873   0.0015873)   % G_Workplace=L_70_62___63_15L   G_Transit=L_71_34___67_34L   G_Parks=L_55_83___45_66L   
   (   0.2   0.2   0.2   0.2   0.2)   % G_Workplace=L_78_08___70_62L   G_Transit=L_71_34___67_34L   G_Parks=L_55_83___45_66L   
   (   0.2   0.2   0.2   0.2   0.2))   % G_Workplace=L_85_55___78_08L   G_Transit=L_71_34___67_34L   G_Parks=L_55_83___45_66L   
   ((   0.2   0.2   0.2   0.2   0.2)   % G_Workplace=L_55_69___48_22L   G_Transit=L_75_34___71_34L   G_Parks=L_55_83___45_66L   
   (   0.2   0.2   0.2   0.2   0.2)   % G_Workplace=L_63_15___55_69L   G_Transit=L_75_34___71_34L   G_Parks=L_55_83___45_66L   
   (   0.000796813   0.996813   0.000796813   0.000796813   0.000796813)   % G_Workplace=L_70_62___63_15L   G_Transit=L_75_34___71_34L   G_Parks=L_55_83___45_66L   
   (   0.2   0.2   0.2   0.2   0.2)   % G_Workplace=L_78_08___70_62L   G_Transit=L_75_34___71_34L   G_Parks=L_55_83___45_66L   
   (   0.2   0.2   0.2   0.2   0.2))   % G_Workplace=L_85_55___78_08L   G_Transit=L_75_34___71_34L   G_Parks=L_55_83___45_66L   
   ((   0.2   0.2   0.2   0.2   0.2)   % G_Workplace=L_55_69___48_22L   G_Transit=L_79_35___75_34L   G_Parks=L_55_83___45_66L   
   (   0.2   0.2   0.2   0.2   0.2)   % G_Workplace=L_63_15___55_69L   G_Transit=L_79_35___75_34L   G_Parks=L_55_83___45_66L   
   (   0.2   0.2   0.2   0.2   0.2)   % G_Workplace=L_70_62___63_15L   G_Transit=L_79_35___75_34L   G_Parks=L_55_83___45_66L   
   (   0.2   0.2   0.2   0.2   0.2)   % G_Workplace=L_78_08___70_62L   G_Transit=L_79_35___75_34L   G_Parks=L_55_83___45_66L   
   (   0.2   0.2   0.2   0.2   0.2))   % G_Workplace=L_85_55___78_08L   G_Transit=L_79_35___75_34L   G_Parks=L_55_83___45_66L   
   ((   0.2   0.2   0.2   0.2   0.2)   % G_Workplace=L_55_69___48_22L   G_Transit=L_83_35___79_35L   G_Parks=L_55_83___45_66L   
   (   0.2   0.2   0.2   0.2   0.2)   % G_Workplace=L_63_15___55_69L   G_Transit=L_83_35___79_35L   G_Parks=L_55_83___45_66L   
   (   0.2   0.2   0.2   0.2   0.2)   % G_Workplace=L_70_62___63_15L   G_Transit=L_83_35___79_35L   G_Parks=L_55_83___45_66L   
   (   0.2   0.2   0.2   0.2   0.2)   % G_Workplace=L_78_08___70_62L   G_Transit=L_83_35___79_35L   G_Parks=L_55_83___45_66L   
   (   0.2   0.2   0.2   0.2   0.2)))   % G_Workplace=L_85_55___78_08L   G_Transit=L_83_35___79_35L   G_Parks=L_55_83___45_66L   
   (((   0.2   0.2   0.2   0.2   0.2)   % G_Workplace=L_55_69___48_22L   G_Transit=L_67_34___63_33L   G_Parks=L_65_99___55_83L   
   (   0.2   0.2   0.2   0.2   0.2)   % G_Workplace=L_63_15___55_69L   G_Transit=L_67_34___63_33L   G_Parks=L_65_99___55_83L   
   (   0.2   0.2   0.2   0.2   0.2)   % G_Workplace=L_70_62___63_15L   G_Transit=L_67_34___63_33L   G_Parks=L_65_99___55_83L   
   (   0.2   0.2   0.2   0.2   0.2)   % G_Workplace=L_78_08___70_62L   G_Transit=L_67_34___63_33L   G_Parks=L_65_99___55_83L   
   (   0.2   0.2   0.2   0.2   0.2))   % G_Workplace=L_85_55___78_08L   G_Transit=L_67_34___63_33L   G_Parks=L_65_99___55_83L   
   ((   0.000796813   0.000796813   0.996813   0.000796813   0.000796813)   % G_Workplace=L_55_69___48_22L   G_Transit=L_71_34___67_34L   G_Parks=L_65_99___55_83L   
   (   0.000796813   0.996813   0.000796813   0.000796813   0.000796813)   % G_Workplace=L_63_15___55_69L   G_Transit=L_71_34___67_34L   G_Parks=L_65_99___55_83L   
   (   0.0015873   0.993651   0.0015873   0.0015873   0.0015873)   % G_Workplace=L_70_62___63_15L   G_Transit=L_71_34___67_34L   G_Parks=L_65_99___55_83L   
   (   0.2   0.2   0.2   0.2   0.2)   % G_Workplace=L_78_08___70_62L   G_Transit=L_71_34___67_34L   G_Parks=L_65_99___55_83L   
   (   0.2   0.2   0.2   0.2   0.2))   % G_Workplace=L_85_55___78_08L   G_Transit=L_71_34___67_34L   G_Parks=L_65_99___55_83L   
   ((   0.2   0.2   0.2   0.2   0.2)   % G_Workplace=L_55_69___48_22L   G_Transit=L_75_34___71_34L   G_Parks=L_65_99___55_83L   
   (   0.0015873   0.993651   0.0015873   0.0015873   0.0015873)   % G_Workplace=L_63_15___55_69L   G_Transit=L_75_34___71_34L   G_Parks=L_65_99___55_83L   
   (   0.000531915   0.997872   0.000531915   0.000531915   0.000531915)   % G_Workplace=L_70_62___63_15L   G_Transit=L_75_34___71_34L   G_Parks=L_65_99___55_83L   
   (   0.2   0.2   0.2   0.2   0.2)   % G_Workplace=L_78_08___70_62L   G_Transit=L_75_34___71_34L   G_Parks=L_65_99___55_83L   
   (   0.2   0.2   0.2   0.2   0.2))   % G_Workplace=L_85_55___78_08L   G_Transit=L_75_34___71_34L   G_Parks=L_65_99___55_83L   
   ((   0.2   0.2   0.2   0.2   0.2)   % G_Workplace=L_55_69___48_22L   G_Transit=L_79_35___75_34L   G_Parks=L_65_99___55_83L   
   (   0.0015873   0.0015873   0.993651   0.0015873   0.0015873)   % G_Workplace=L_63_15___55_69L   G_Transit=L_79_35___75_34L   G_Parks=L_65_99___55_83L   
   (   0.2   0.2   0.2   0.2   0.2)   % G_Workplace=L_70_62___63_15L   G_Transit=L_79_35___75_34L   G_Parks=L_65_99___55_83L   
   (   0.0015873   0.0015873   0.993651   0.0015873   0.0015873)   % G_Workplace=L_78_08___70_62L   G_Transit=L_79_35___75_34L   G_Parks=L_65_99___55_83L   
   (   0.2   0.2   0.2   0.2   0.2))   % G_Workplace=L_85_55___78_08L   G_Transit=L_79_35___75_34L   G_Parks=L_65_99___55_83L   
   ((   0.2   0.2   0.2   0.2   0.2)   % G_Workplace=L_55_69___48_22L   G_Transit=L_83_35___79_35L   G_Parks=L_65_99___55_83L   
   (   0.2   0.2   0.2   0.2   0.2)   % G_Workplace=L_63_15___55_69L   G_Transit=L_83_35___79_35L   G_Parks=L_65_99___55_83L   
   (   0.2   0.2   0.2   0.2   0.2)   % G_Workplace=L_70_62___63_15L   G_Transit=L_83_35___79_35L   G_Parks=L_65_99___55_83L   
   (   0.2   0.2   0.2   0.2   0.2)   % G_Workplace=L_78_08___70_62L   G_Transit=L_83_35___79_35L   G_Parks=L_65_99___55_83L   
   (   0.0015873   0.0015873   0.993651   0.0015873   0.0015873)))   % G_Workplace=L_85_55___78_08L   G_Transit=L_83_35___79_35L   G_Parks=L_65_99___55_83L   
   (((   0.2   0.2   0.2   0.2   0.2)   % G_Workplace=L_55_69___48_22L   G_Transit=L_67_34___63_33L   G_Parks=L_76_16___65_99L   
   (   0.2   0.2   0.2   0.2   0.2)   % G_Workplace=L_63_15___55_69L   G_Transit=L_67_34___63_33L   G_Parks=L_76_16___65_99L   
   (   0.2   0.2   0.2   0.2   0.2)   % G_Workplace=L_70_62___63_15L   G_Transit=L_67_34___63_33L   G_Parks=L_76_16___65_99L   
   (   0.2   0.2   0.2   0.2   0.2)   % G_Workplace=L_78_08___70_62L   G_Transit=L_67_34___63_33L   G_Parks=L_76_16___65_99L   
   (   0.2   0.2   0.2   0.2   0.2))   % G_Workplace=L_85_55___78_08L   G_Transit=L_67_34___63_33L   G_Parks=L_76_16___65_99L   
   ((   0.2   0.2   0.2   0.2   0.2)   % G_Workplace=L_55_69___48_22L   G_Transit=L_71_34___67_34L   G_Parks=L_76_16___65_99L   
   (   0.2   0.2   0.2   0.2   0.2)   % G_Workplace=L_63_15___55_69L   G_Transit=L_71_34___67_34L   G_Parks=L_76_16___65_99L   
   (   0.2   0.2   0.2   0.2   0.2)   % G_Workplace=L_70_62___63_15L   G_Transit=L_71_34___67_34L   G_Parks=L_76_16___65_99L   
   (   0.2   0.2   0.2   0.2   0.2)   % G_Workplace=L_78_08___70_62L   G_Transit=L_71_34___67_34L   G_Parks=L_76_16___65_99L   
   (   0.2   0.2   0.2   0.2   0.2))   % G_Workplace=L_85_55___78_08L   G_Transit=L_71_34___67_34L   G_Parks=L_76_16___65_99L   
   ((   0.2   0.2   0.2   0.2   0.2)   % G_Workplace=L_55_69___48_22L   G_Transit=L_75_34___71_34L   G_Parks=L_76_16___65_99L   
   (   0.0015873   0.0015873   0.993651   0.0015873   0.0015873)   % G_Workplace=L_63_15___55_69L   G_Transit=L_75_34___71_34L   G_Parks=L_76_16___65_99L   
   (   0.0015873   0.993651   0.0015873   0.0015873   0.0015873)   % G_Workplace=L_70_62___63_15L   G_Transit=L_75_34___71_34L   G_Parks=L_76_16___65_99L   
   (   0.2   0.2   0.2   0.2   0.2)   % G_Workplace=L_78_08___70_62L   G_Transit=L_75_34___71_34L   G_Parks=L_76_16___65_99L   
   (   0.2   0.2   0.2   0.2   0.2))   % G_Workplace=L_85_55___78_08L   G_Transit=L_75_34___71_34L   G_Parks=L_76_16___65_99L   
   ((   0.2   0.2   0.2   0.2   0.2)   % G_Workplace=L_55_69___48_22L   G_Transit=L_79_35___75_34L   G_Parks=L_76_16___65_99L   
   (   0.0015873   0.0015873   0.0015873   0.0015873   0.993651)   % G_Workplace=L_63_15___55_69L   G_Transit=L_79_35___75_34L   G_Parks=L_76_16___65_99L   
   (   0.2   0.2   0.2   0.2   0.2)   % G_Workplace=L_70_62___63_15L   G_Transit=L_79_35___75_34L   G_Parks=L_76_16___65_99L   
   (   0.2   0.2   0.2   0.2   0.2)   % G_Workplace=L_78_08___70_62L   G_Transit=L_79_35___75_34L   G_Parks=L_76_16___65_99L   
   (   0.2   0.2   0.2   0.2   0.2))   % G_Workplace=L_85_55___78_08L   G_Transit=L_79_35___75_34L   G_Parks=L_76_16___65_99L   
   ((   0.2   0.2   0.2   0.2   0.2)   % G_Workplace=L_55_69___48_22L   G_Transit=L_83_35___79_35L   G_Parks=L_76_16___65_99L   
   (   0.2   0.2   0.2   0.2   0.2)   % G_Workplace=L_63_15___55_69L   G_Transit=L_83_35___79_35L   G_Parks=L_76_16___65_99L   
   (   0.2   0.2   0.2   0.2   0.2)   % G_Workplace=L_70_62___63_15L   G_Transit=L_83_35___79_35L   G_Parks=L_76_16___65_99L   
   (   0.2   0.2   0.2   0.2   0.2)   % G_Workplace=L_78_08___70_62L   G_Transit=L_83_35___79_35L   G_Parks=L_76_16___65_99L   
   (   0.2   0.2   0.2   0.2   0.2)))   % G_Workplace=L_85_55___78_08L   G_Transit=L_83_35___79_35L   G_Parks=L_76_16___65_99L   
   (((   0.2   0.2   0.2   0.2   0.2)   % G_Workplace=L_55_69___48_22L   G_Transit=L_67_34___63_33L   G_Parks=L_86_33___76_16L   
   (   0.2   0.2   0.2   0.2   0.2)   % G_Workplace=L_63_15___55_69L   G_Transit=L_67_34___63_33L   G_Parks=L_86_33___76_16L   
   (   0.2   0.2   0.2   0.2   0.2)   % G_Workplace=L_70_62___63_15L   G_Transit=L_67_34___63_33L   G_Parks=L_86_33___76_16L   
   (   0.2   0.2   0.2   0.2   0.2)   % G_Workplace=L_78_08___70_62L   G_Transit=L_67_34___63_33L   G_Parks=L_86_33___76_16L   
   (   0.2   0.2   0.2   0.2   0.2))   % G_Workplace=L_85_55___78_08L   G_Transit=L_67_34___63_33L   G_Parks=L_86_33___76_16L   
   ((   0.2   0.2   0.2   0.2   0.2)   % G_Workplace=L_55_69___48_22L   G_Transit=L_71_34___67_34L   G_Parks=L_86_33___76_16L   
   (   0.2   0.2   0.2   0.2   0.2)   % G_Workplace=L_63_15___55_69L   G_Transit=L_71_34___67_34L   G_Parks=L_86_33___76_16L   
   (   0.2   0.2   0.2   0.2   0.2)   % G_Workplace=L_70_62___63_15L   G_Transit=L_71_34___67_34L   G_Parks=L_86_33___76_16L   
   (   0.2   0.2   0.2   0.2   0.2)   % G_Workplace=L_78_08___70_62L   G_Transit=L_71_34___67_34L   G_Parks=L_86_33___76_16L   
   (   0.2   0.2   0.2   0.2   0.2))   % G_Workplace=L_85_55___78_08L   G_Transit=L_71_34___67_34L   G_Parks=L_86_33___76_16L   
   ((   0.2   0.2   0.2   0.2   0.2)   % G_Workplace=L_55_69___48_22L   G_Transit=L_75_34___71_34L   G_Parks=L_86_33___76_16L   
   (   0.2   0.2   0.2   0.2   0.2)   % G_Workplace=L_63_15___55_69L   G_Transit=L_75_34___71_34L   G_Parks=L_86_33___76_16L   
   (   0.2   0.2   0.2   0.2   0.2)   % G_Workplace=L_70_62___63_15L   G_Transit=L_75_34___71_34L   G_Parks=L_86_33___76_16L   
   (   0.2   0.2   0.2   0.2   0.2)   % G_Workplace=L_78_08___70_62L   G_Transit=L_75_34___71_34L   G_Parks=L_86_33___76_16L   
   (   0.2   0.2   0.2   0.2   0.2))   % G_Workplace=L_85_55___78_08L   G_Transit=L_75_34___71_34L   G_Parks=L_86_33___76_16L   
   ((   0.2   0.2   0.2   0.2   0.2)   % G_Workplace=L_55_69___48_22L   G_Transit=L_79_35___75_34L   G_Parks=L_86_33___76_16L   
   (   0.2   0.2   0.2   0.2   0.2)   % G_Workplace=L_63_15___55_69L   G_Transit=L_79_35___75_34L   G_Parks=L_86_33___76_16L   
   (   0.2   0.2   0.2   0.2   0.2)   % G_Workplace=L_70_62___63_15L   G_Transit=L_79_35___75_34L   G_Parks=L_86_33___76_16L   
   (   0.2   0.2   0.2   0.2   0.2)   % G_Workplace=L_78_08___70_62L   G_Transit=L_79_35___75_34L   G_Parks=L_86_33___76_16L   
   (   0.2   0.2   0.2   0.2   0.2))   % G_Workplace=L_85_55___78_08L   G_Transit=L_79_35___75_34L   G_Parks=L_86_33___76_16L   
   ((   0.2   0.2   0.2   0.2   0.2)   % G_Workplace=L_55_69___48_22L   G_Transit=L_83_35___79_35L   G_Parks=L_86_33___76_16L   
   (   0.0015873   0.0015873   0.0015873   0.993651   0.0015873)   % G_Workplace=L_63_15___55_69L   G_Transit=L_83_35___79_35L   G_Parks=L_86_33___76_16L   
   (   0.2   0.2   0.2   0.2   0.2)   % G_Workplace=L_70_62___63_15L   G_Transit=L_83_35___79_35L   G_Parks=L_86_33___76_16L   
   (   0.2   0.2   0.2   0.2   0.2)   % G_Workplace=L_78_08___70_62L   G_Transit=L_83_35___79_35L   G_Parks=L_86_33___76_16L   
   (   0.2   0.2   0.2   0.2   0.2))));   % G_Workplace=L_85_55___78_08L   G_Transit=L_83_35___79_35L   G_Parks=L_86_33___76_16L   
}

potential (G_Parks) {
   data = (  0.135484 0.329032 0.393548 0.103226 0.0387097);
}

potential (G_Transit) {
   data = (  0.135484 0.425806 0.264516 0.103226 0.0709677);
}

potential (G_Workplace) {
   data = (  0.135484 0.522581 0.264516 0.0387097 0.0387097);
}

potential ( G_Residencial | G_Workplace   G_Retail   ) {
   data = 
   (((   0.2   0.2   0.2   0.2   0.2)   % G_Retail=L_63_28___57_38L   G_Workplace=L_55_69___48_22L   
   (   0.2   0.2   0.2   0.2   0.2)   % G_Retail=L_69_17___63_28L   G_Workplace=L_55_69___48_22L   
   (   0.984314   0.00392157   0.00392157   0.00392157   0.00392157)   % G_Retail=L_75_06___69_17L   G_Workplace=L_55_69___48_22L   
   (   0.984314   0.00392157   0.00392157   0.00392157   0.00392157)   % G_Retail=L_80_95___75_06L   G_Workplace=L_55_69___48_22L   
   (   0.2   0.2   0.2   0.2   0.2))   % G_Retail=L_86_85___80_95L   G_Workplace=L_55_69___48_22L   
   ((   0.0019802   0.992079   0.0019802   0.0019802   0.0019802)   % G_Retail=L_63_28___57_38L   G_Workplace=L_63_15___55_69L   
   (   0.000995025   0.125373   0.871642   0.000995025   0.000995025)   % G_Retail=L_69_17___63_28L   G_Workplace=L_63_15___55_69L   
   (   0.2   0.2   0.2   0.2   0.2)   % G_Retail=L_75_06___69_17L   G_Workplace=L_63_15___55_69L   
   (   0.00392157   0.984314   0.00392157   0.00392157   0.00392157)   % G_Retail=L_80_95___75_06L   G_Workplace=L_63_15___55_69L   
   (   0.984314   0.00392157   0.00392157   0.00392157   0.00392157))   % G_Retail=L_86_85___80_95L   G_Workplace=L_63_15___55_69L   
   ((   0.2   0.2   0.2   0.2   0.2)   % G_Retail=L_63_28___57_38L   G_Workplace=L_70_62___63_15L   
   (   0.00263158   0.00263158   0.989474   0.00263158   0.00263158)   % G_Retail=L_69_17___63_28L   G_Workplace=L_70_62___63_15L   
   (   0.0015873   0.0015873   0.993651   0.0015873   0.0015873)   % G_Retail=L_75_06___69_17L   G_Workplace=L_70_62___63_15L   
   (   0.2   0.2   0.2   0.2   0.2)   % G_Retail=L_80_95___75_06L   G_Workplace=L_70_62___63_15L   
   (   0.2   0.2   0.2   0.2   0.2))   % G_Retail=L_86_85___80_95L   G_Workplace=L_70_62___63_15L   
   ((   0.2   0.2   0.2   0.2   0.2)   % G_Retail=L_63_28___57_38L   G_Workplace=L_78_08___70_62L   
   (   0.2   0.2   0.2   0.2   0.2)   % G_Retail=L_69_17___63_28L   G_Workplace=L_78_08___70_62L   
   (   0.00769231   0.00769231   0.00769231   0.969231   0.00769231)   % G_Retail=L_75_06___69_17L   G_Workplace=L_78_08___70_62L   
   (   0.2   0.2   0.2   0.2   0.2)   % G_Retail=L_80_95___75_06L   G_Workplace=L_78_08___70_62L   
   (   0.2   0.2   0.2   0.2   0.2))   % G_Retail=L_86_85___80_95L   G_Workplace=L_78_08___70_62L   
   ((   0.2   0.2   0.2   0.2   0.2)   % G_Retail=L_63_28___57_38L   G_Workplace=L_85_55___78_08L   
   (   0.2   0.2   0.2   0.2   0.2)   % G_Retail=L_69_17___63_28L   G_Workplace=L_85_55___78_08L   
   (   0.2   0.2   0.2   0.2   0.2)   % G_Retail=L_75_06___69_17L   G_Workplace=L_85_55___78_08L   
   (   0.00769231   0.00769231   0.00769231   0.00769231   0.969231)   % G_Retail=L_80_95___75_06L   G_Workplace=L_85_55___78_08L   
   (   0.2   0.2   0.2   0.2   0.2)));   % G_Retail=L_86_85___80_95L   G_Workplace=L_85_55___78_08L   
}


