
net {
  name = unnamedBN;
  software = "aGrUM 0.18.2";
  node_size = (50 50);
}

node Cases_per_Million {
   states = (L0_03__80_18L L160_33__240_49L L320_64__400_79L );
   label = "Cases_per_Million";
   ID = "Cases_per_Million";
}

node Deaths_per_Million {
   states = (L10_75__14_32L L14_32__17_9L L17_9__21_47L L3_61__7_18L L7_18__10_75L );
   label = "Deaths_per_Million";
   ID = "Deaths_per_Million";
}

node G_Retail {
   states = (L_74_61___70_54L L_78_68___74_61L L_82_75___78_68L L_86_82___82_75L L_90_89___86_82L );
   label = "G_Retail";
   ID = "G_Retail";
}

node G_Grocery_Pharmacy {
   states = (L_28_74___15_17L L_42_31___28_74L L_55_89___42_31L L_69_46___55_89L L_83_03___69_46L );
   label = "G_Grocery_Pharmacy";
   ID = "G_Grocery_Pharmacy";
}

node G_Parks {
   states = (L_51_03___46_14L L_55_93___51_03L L_60_82___55_93L L_65_72___60_82L L_70_61___65_72L );
   label = "G_Parks";
   ID = "G_Parks";
}

node G_Transit {
   states = (L_73_5___69_83L L_77_17___73_5L L_80_84___77_17L L_84_51___80_84L L_88_18___84_51L );
   label = "G_Transit";
   ID = "G_Transit";
}

node G_Workplace {
   states = (L_50_82___41_52L L_60_12___50_82L L_69_43___60_12L L_78_73___69_43L L_88_03___78_73L );
   label = "G_Workplace";
   ID = "G_Workplace";
}

node G_Residencial {
   states = (L15_32__19_58L L19_58__23_83L L23_83__28_09L L28_09__32_34L L32_34__36_6L );
   label = "G_Residencial";
   ID = "G_Residencial";
}

potential (Cases_per_Million) {
   data = (  0.913978 0.0430108 0.0430108);
}

potential (Deaths_per_Million) {
   data = (  0.167742 0.135484 0.103226 0.264516 0.329032);
}

potential ( G_Retail | G_Grocery_Pharmacy   ) {
   data = 
   ((   0.472727   0.472727   0.0181818   0.0181818   0.0181818)   % G_Grocery_Pharmacy=L_28_74___15_17L   
   (   0.134211   0.331579   0.528947   0.00263158   0.00263158)   % G_Grocery_Pharmacy=L_42_31___28_74L   
   (   0.00487805   0.00487805   0.00487805   0.614634   0.370732)   % G_Grocery_Pharmacy=L_55_89___42_31L   
   (   0.00952381   0.00952381   0.485714   0.485714   0.00952381)   % G_Grocery_Pharmacy=L_69_46___55_89L   
   (   0.0333333   0.0333333   0.0333333   0.0333333   0.866667));   % G_Grocery_Pharmacy=L_83_03___69_46L   
}

potential ( G_Grocery_Pharmacy | G_Transit   ) {
   data = 
   ((   0.126829   0.858537   0.00487805   0.00487805   0.00487805)   % G_Transit=L_73_5___69_83L   
   (   0.113043   0.547826   0.330435   0.00434783   0.00434783)   % G_Transit=L_77_17___73_5L   
   (   0.00434783   0.330435   0.547826   0.113043   0.00434783)   % G_Transit=L_80_84___77_17L   
   (   0.0125   0.0125   0.0125   0.95   0.0125)   % G_Transit=L_84_51___80_84L   
   (   0.0333333   0.0333333   0.0333333   0.0333333   0.866667));   % G_Transit=L_88_18___84_51L   
}

potential ( G_Parks | G_Workplace   ) {
   data = 
   ((   0.00769231   0.00769231   0.00769231   0.392308   0.584615)   % G_Workplace=L_50_82___41_52L   
   (   0.00769231   0.392308   0.00769231   0.00769231   0.584615)   % G_Workplace=L_60_12___50_82L   
   (   0.331868   0.551648   0.112088   0.0021978   0.0021978)   % G_Workplace=L_69_43___60_12L   
   (   0.0333333   0.866667   0.0333333   0.0333333   0.0333333)   % G_Workplace=L_78_73___69_43L   
   (   0.0333333   0.0333333   0.0333333   0.866667   0.0333333));   % G_Workplace=L_88_03___78_73L   
}

potential ( G_Transit | G_Residencial   G_Parks   ) {
   data = 
   (((   0.2   0.2   0.2   0.2   0.2)   % G_Parks=L_51_03___46_14L   G_Residencial=L15_32__19_58L   
   (   0.2   0.2   0.2   0.2   0.2)   % G_Parks=L_55_93___51_03L   G_Residencial=L15_32__19_58L   
   (   0.2   0.2   0.2   0.2   0.2)   % G_Parks=L_60_82___55_93L   G_Residencial=L15_32__19_58L   
   (   0.00769231   0.00769231   0.969231   0.00769231   0.00769231)   % G_Parks=L_65_72___60_82L   G_Residencial=L15_32__19_58L   
   (   0.00263158   0.00263158   0.00263158   0.989474   0.00263158))   % G_Parks=L_70_61___65_72L   G_Residencial=L15_32__19_58L   
   ((   0.2   0.2   0.2   0.2   0.2)   % G_Parks=L_51_03___46_14L   G_Residencial=L19_58__23_83L   
   (   0.969231   0.00769231   0.00769231   0.00769231   0.00769231)   % G_Parks=L_55_93___51_03L   G_Residencial=L19_58__23_83L   
   (   0.2   0.2   0.2   0.2   0.2)   % G_Parks=L_60_82___55_93L   G_Residencial=L19_58__23_83L   
   (   0.00769231   0.969231   0.00769231   0.00769231   0.00769231)   % G_Parks=L_65_72___60_82L   G_Residencial=L19_58__23_83L   
   (   0.00263158   0.00263158   0.989474   0.00263158   0.00263158))   % G_Parks=L_70_61___65_72L   G_Residencial=L19_58__23_83L   
   ((   0.989474   0.00263158   0.00263158   0.00263158   0.00263158)   % G_Parks=L_51_03___46_14L   G_Residencial=L23_83__28_09L   
   (   0.596825   0.398413   0.0015873   0.0015873   0.0015873)   % G_Parks=L_55_93___51_03L   G_Residencial=L23_83__28_09L   
   (   0.2   0.2   0.2   0.2   0.2)   % G_Parks=L_60_82___55_93L   G_Residencial=L23_83__28_09L   
   (   0.2   0.2   0.2   0.2   0.2)   % G_Parks=L_65_72___60_82L   G_Residencial=L23_83__28_09L   
   (   0.2   0.2   0.2   0.2   0.2))   % G_Parks=L_70_61___65_72L   G_Residencial=L23_83__28_09L   
   ((   0.331579   0.660526   0.00263158   0.00263158   0.00263158)   % G_Parks=L_51_03___46_14L   G_Residencial=L28_09__32_34L   
   (   0.0013245   0.498013   0.498013   0.0013245   0.0013245)   % G_Parks=L_55_93___51_03L   G_Residencial=L28_09__32_34L   
   (   0.00769231   0.969231   0.00769231   0.00769231   0.00769231)   % G_Parks=L_60_82___55_93L   G_Residencial=L28_09__32_34L   
   (   0.2   0.2   0.2   0.2   0.2)   % G_Parks=L_65_72___60_82L   G_Residencial=L28_09__32_34L   
   (   0.2   0.2   0.2   0.2   0.2))   % G_Parks=L_70_61___65_72L   G_Residencial=L28_09__32_34L   
   ((   0.2   0.2   0.2   0.2   0.2)   % G_Parks=L_51_03___46_14L   G_Residencial=L32_34__36_6L   
   (   0.00769231   0.00769231   0.969231   0.00769231   0.00769231)   % G_Parks=L_55_93___51_03L   G_Residencial=L32_34__36_6L   
   (   0.00769231   0.00769231   0.969231   0.00769231   0.00769231)   % G_Parks=L_60_82___55_93L   G_Residencial=L32_34__36_6L   
   (   0.00769231   0.00769231   0.00769231   0.00769231   0.969231)   % G_Parks=L_65_72___60_82L   G_Residencial=L32_34__36_6L   
   (   0.2   0.2   0.2   0.2   0.2)));   % G_Parks=L_70_61___65_72L   G_Residencial=L32_34__36_6L   
}

potential (G_Workplace) {
   data = (  0.167742 0.167742 0.587097 0.0387097 0.0387097);
}

potential ( G_Residencial | G_Workplace   ) {
   data = 
   ((   0.584615   0.392308   0.00769231   0.00769231   0.00769231)   % G_Workplace=L_50_82___41_52L   
   (   0.2   0.584615   0.2   0.00769231   0.00769231)   % G_Workplace=L_60_12___50_82L   
   (   0.0021978   0.0021978   0.386813   0.496703   0.112088)   % G_Workplace=L_69_43___60_12L   
   (   0.0333333   0.0333333   0.0333333   0.866667   0.0333333)   % G_Workplace=L_78_73___69_43L   
   (   0.0333333   0.0333333   0.0333333   0.0333333   0.866667));   % G_Workplace=L_88_03___78_73L   
}


