
net {
  name = unnamedBN;
  software = "aGrUM 0.18.2";
  node_size = (50 50);
}

node Cases_per_Million {
   states = (L0_0__10_56L L10_56__21_12L L21_12__31_68L L42_24__52_8L );
   label = "Cases_per_Million";
   ID = "Cases_per_Million";
}

node Deaths_per_Million {
   states = (L0_0__1_73L L1_73__3_46L L3_46__5_19L L5_19__6_91L L6_91__8_64L );
   label = "Deaths_per_Million";
   ID = "Deaths_per_Million";
}

node G_Retail {
   states = (L_42_04___29_81L L_54_27___42_04L L_66_5___54_27L L_78_74___66_5L L_90_97___78_74L );
   label = "G_Retail";
   ID = "G_Retail";
}

node G_Grocery_Pharmacy {
   states = (L_27_99___7_85L L_48_14___27_99L L_68_28___48_14L L_7_85__12_3L L_88_43___68_28L );
   label = "G_Grocery_Pharmacy";
   ID = "G_Grocery_Pharmacy";
}

node G_Parks {
   states = (L20_68__49_61L L49_61__78_54L L_37_18___8_25L L_66_11___37_18L L_8_25__20_68L );
   label = "G_Parks";
   ID = "G_Parks";
}

node G_Transit {
   states = (L_45_27___34_67L L_55_87___45_27L L_66_47___55_87L L_77_07___66_47L L_87_67___77_07L );
   label = "G_Transit";
   ID = "G_Transit";
}

node G_Workplace {
   states = (L_11_48__7_24L L_30_21___11_48L L_48_94___30_21L L_67_67___48_94L L_86_39___67_67L );
   label = "G_Workplace";
   ID = "G_Workplace";
}

node G_Residencial {
   states = (L16_88__24_75L L1_13__9_01L L32_62__40_49L L9_01__16_88L );
   label = "G_Residencial";
   ID = "G_Residencial";
}

potential (Cases_per_Million) {
   data = (  0.664062 0.226562 0.0390625 0.0703125);
}

potential (Deaths_per_Million) {
   data = (  0.5375 0.19375 0.1625 0.06875 0.0375);
}

potential ( G_Retail | G_Transit   ) {
   data = 
   ((   0.836364   0.154545   0.0030303   0.0030303   0.0030303)   % G_Transit=L_45_27___34_67L   
   (   0.283333   0.7   0.00555556   0.00555556   0.00555556)   % G_Transit=L_55_87___45_27L   
   (   0.00952381   0.00952381   0.485714   0.485714   0.00952381)   % G_Transit=L_66_47___55_87L   
   (   0.00952381   0.00952381   0.00952381   0.961905   0.00952381)   % G_Transit=L_77_07___66_47L   
   (   0.0125   0.0125   0.0125   0.0125   0.95));   % G_Transit=L_87_67___77_07L   
}

potential ( G_Grocery_Pharmacy | G_Retail   ) {
   data = 
   ((   0.154545   0.0030303   0.0030303   0.836364   0.0030303)   % G_Retail=L_42_04___29_81L   
   (   0.838889   0.00555556   0.00555556   0.144444   0.00555556)   % G_Retail=L_54_27___42_04L   
   (   0.472727   0.472727   0.0181818   0.0181818   0.0181818)   % G_Retail=L_66_5___54_27L   
   (   0.651613   0.167742   0.167742   0.00645161   0.00645161)   % G_Retail=L_78_74___66_5L   
   (   0.0125   0.0125   0.6375   0.0125   0.325));   % G_Retail=L_90_97___78_74L   
}

potential (G_Parks) {
   data = (  0.35 0.06875 0.1 0.31875 0.1625);
}

potential ( G_Transit | G_Parks   ) {
   data = 
   ((   0.807143   0.182143   0.00357143   0.00357143   0.00357143)   % G_Parks=L20_68__49_61L   
   (   0.472727   0.0181818   0.472727   0.0181818   0.0181818)   % G_Parks=L49_61__78_54L   
   (   0.0125   0.95   0.0125   0.0125   0.0125)   % G_Parks=L_37_18___8_25L   
   (   0.00392157   0.00392157   0.298039   0.396078   0.298039)   % G_Parks=L_66_11___37_18L   
   (   0.584615   0.392308   0.00769231   0.00769231   0.00769231));   % G_Parks=L_8_25__20_68L   
}

potential ( G_Workplace | G_Residencial   ) {
   data = 
   ((   0.00540541   0.00540541   0.32973   0.545946   0.113514)   % G_Residencial=L16_88__24_75L   
   (   0.771429   0.2   0.00952381   0.00952381   0.00952381)   % G_Residencial=L1_13__9_01L   
   (   0.0222222   0.0222222   0.0222222   0.0222222   0.911111)   % G_Residencial=L32_62__40_49L   
   (   0.00327869   0.0688525   0.921311   0.00327869   0.00327869));   % G_Residencial=L9_01__16_88L   
}

potential ( G_Residencial | G_Transit   ) {
   data = 
   ((   0.00378788   0.306818   0.00378788   0.685606)   % G_Transit=L_45_27___34_67L   
   (   0.284722   0.145833   0.00694444   0.5625)   % G_Transit=L_55_87___45_27L   
   (   0.964286   0.0119048   0.0119048   0.0119048)   % G_Transit=L_66_47___55_87L   
   (   0.72619   0.0119048   0.0119048   0.25)   % G_Transit=L_77_07___66_47L   
   (   0.015625   0.015625   0.640625   0.328125));   % G_Transit=L_87_67___77_07L   
}


