
net {
  name = unnamedBN;
  software = "aGrUM 0.18.2";
  node_size = (50 50);
}

node Cases_per_Million {
   states = (L0_0__374_43L L1123_28__1497_7L L1497_7__1872_13L L374_43__748_85L L748_85__1123_28L );
   label = "Cases_per_Million";
   ID = "Cases_per_Million";
}

node C6_Stay_at_home_requirements {
   states = (0 1 3 );
   label = "C6_Stay_at_home_requirements";
   ID = "C6_Stay_at_home_requirements";
}

potential (Cases_per_Million) {
   data = (  0.904797 0.00442804 0.00811808 0.0708487 0.0118081);
}

potential ( C6_Stay_at_home_requirements | Cases_per_Million   ) {
   data = 
   ((   0.575313   0.171561   0.253127)   % Cases_per_Million=L0_0__374_43L   
   (   0.0555556   0.0555556   0.888889)   % Cases_per_Million=L1123_28__1497_7L   
   (   0.030303   0.030303   0.939394)   % Cases_per_Million=L1497_7__1872_13L   
   (   0.368056   0.00347222   0.628472)   % Cases_per_Million=L374_43__748_85L   
   (   0.0208333   0.0208333   0.958333));   % Cases_per_Million=L748_85__1123_28L   
}


