
net {
  name = unnamedBN;
  software = "aGrUM 0.18.2";
  node_size = (50 50);
}

node Cases_per_Million {
   states = (L0_0__374_43L L1123_28__1497_7L L1497_7__1872_13L L374_43__748_85L L748_85__1123_28L );
   label = "Cases_per_Million";
   ID = "Cases_per_Million";
}

node Deaths_per_Million {
   states = (L0_0__4_29L L12_88__17_17L L17_17__21_47L L4_29__8_59L L8_59__12_88L );
   label = "Deaths_per_Million";
   ID = "Deaths_per_Million";
}

node G_Retail {
   states = (L0_38__23_21L L_22_46__0_38L L_45_29___22_46L L_68_13___45_29L L_90_97___68_13L );
   label = "G_Retail";
   ID = "G_Retail";
}

node G_Grocery_Pharmacy {
   states = (L17_78__44_34L L_35_32___8_77L L_61_87___35_32L L_88_43___61_87L L_8_77__17_78L );
   label = "G_Grocery_Pharmacy";
   ID = "G_Grocery_Pharmacy";
}

node G_Parks {
   states = (L135_62__207_35L L207_35__279_09L L63_88__135_62L L_79_59___7_86L L_7_86__63_88L );
   label = "G_Parks";
   ID = "G_Parks";
}

node G_Transit {
   states = (L10_49__43_38L L43_38__76_27L L_22_4__10_49L L_55_29___22_4L L_88_18___55_29L );
   label = "G_Transit";
   ID = "G_Transit";
}

node G_Workplace {
   states = (L_0_47__21_42L L_22_36___0_47L L_44_25___22_36L L_66_14___44_25L L_88_03___66_14L );
   label = "G_Workplace";
   ID = "G_Workplace";
}

node G_Residencial {
   states = (L13_31__22_37L L22_37__31_43L L31_43__40_49L L4_25__13_31L L_4_81__4_25L );
   label = "G_Residencial";
   ID = "G_Residencial";
}

node H2_Testing_policy {
   states = (1 2 3 No policy );
   label = "H2_Testing_policy";
   ID = "H2_Testing_policy";
}

node H3_Contact_tracing {
   states = (0 1 2 );
   label = "H3_Contact_tracing";
   ID = "H3_Contact_tracing";
}

node H6_Facial_Coverings {
   states = (0 1 2 3 Recommended );
   label = "H6_Facial_Coverings";
   ID = "H6_Facial_Coverings";
}

node C1_School_closing {
   states = (0 1 2 3 );
   label = "C1_School_closing";
   ID = "C1_School_closing";
}

node C2_Workplace_closing {
   states = (0 1 2 3 );
   label = "C2_Workplace_closing";
   ID = "C2_Workplace_closing";
}

node C4_Restrictions_on_gatherings {
   states = (0 1 );
   label = "C4_Restrictions_on_gatherings";
   ID = "C4_Restrictions_on_gatherings";
}

node C6_Stay_at_home_requirements {
   states = (0 1 3 );
   label = "C6_Stay_at_home_requirements";
   ID = "C6_Stay_at_home_requirements";
}

potential ( Cases_per_Million | C6_Stay_at_home_requirements   H2_Testing_policy   ) {
   data = 
   (((   0.2   0.2   0.2   0.2   0.2)   % H2_Testing_policy=1   C6_Stay_at_home_requirements=0   
   (   0.998767   0.000308166   0.000308166   0.000308166   0.000308166)   % H2_Testing_policy=2   C6_Stay_at_home_requirements=0   
   (   0.915956   0.000198216   0.000198216   0.083449   0.000198216)   % H2_Testing_policy=3   C6_Stay_at_home_requirements=0   
   (   0.993388   0.00165289   0.00165289   0.00165289   0.00165289))   % H2_Testing_policy=No policy   C6_Stay_at_home_requirements=0   
   ((   0.2   0.2   0.2   0.2   0.2)   % H2_Testing_policy=1   C6_Stay_at_home_requirements=1   
   (   0.998416   0.00039604   0.00039604   0.00039604   0.00039604)   % H2_Testing_policy=2   C6_Stay_at_home_requirements=1   
   (   0.2   0.2   0.2   0.2   0.2)   % H2_Testing_policy=3   C6_Stay_at_home_requirements=1   
   (   0.2   0.2   0.2   0.2   0.2))   % H2_Testing_policy=No policy   C6_Stay_at_home_requirements=1   
   ((   0.980635   0.000302572   0.000302572   0.0184569   0.000302572)   % H2_Testing_policy=1   C6_Stay_at_home_requirements=3   
   (   0.2   0.2   0.2   0.2   0.2)   % H2_Testing_policy=2   C6_Stay_at_home_requirements=3   
   (   0.319601   0.0405316   0.0803987   0.439203   0.120266)   % H2_Testing_policy=3   C6_Stay_at_home_requirements=3   
   (   0.2   0.2   0.2   0.2   0.2)));   % H2_Testing_policy=No policy   C6_Stay_at_home_requirements=3   
}

potential ( Deaths_per_Million | C6_Stay_at_home_requirements   ) {
   data = 
   ((   0.998202   0.000449438   0.000449438   0.000449438   0.000449438)   % C6_Stay_at_home_requirements=0   
   (   0.922835   0.0015748   0.0015748   0.0488189   0.0251969)   % C6_Stay_at_home_requirements=1   
   (   0.374274   0.0630705   0.0506224   0.411618   0.100415));   % C6_Stay_at_home_requirements=3   
}

potential ( G_Retail | G_Grocery_Pharmacy   ) {
   data = 
   ((   0.881319   0.0021978   0.112088   0.0021978   0.0021978)   % G_Grocery_Pharmacy=L17_78__44_34L   
   (   0.00128205   0.0333333   0.161538   0.546154   0.257692)   % G_Grocery_Pharmacy=L_35_32___8_77L   
   (   0.00102041   0.00102041   0.0520408   0.0265306   0.919388)   % G_Grocery_Pharmacy=L_61_87___35_32L   
   (   0.00555556   0.00555556   0.00555556   0.00555556   0.977778)   % G_Grocery_Pharmacy=L_88_43___61_87L   
   (   0.14863   0.753653   0.0915525   0.00593607   0.000228311));   % G_Grocery_Pharmacy=L_8_77__17_78L   
}

potential (G_Grocery_Pharmacy) {
   data = (  0.0671587 0.115129 0.144649 0.0265683 0.646494);
}

potential ( G_Parks | G_Transit   C2_Workplace_closing   ) {
   data = 
   (((   0.00141844   0.00141844   0.00141844   0.285106   0.710638)   % C2_Workplace_closing=0   G_Transit=L10_49__43_38L   
   (   0.415768   0.33278   0.249793   0.000829876   0.000829876)   % C2_Workplace_closing=1   G_Transit=L10_49__43_38L   
   (   0.00141844   0.143262   0.852482   0.00141844   0.00141844)   % C2_Workplace_closing=2   G_Transit=L10_49__43_38L   
   (   0.2   0.2   0.2   0.2   0.2))   % C2_Workplace_closing=3   G_Transit=L10_49__43_38L   
   ((   0.2   0.2   0.2   0.2   0.2)   % C2_Workplace_closing=0   G_Transit=L43_38__76_27L   
   (   0.994326   0.00141844   0.00141844   0.00141844   0.00141844)   % C2_Workplace_closing=1   G_Transit=L43_38__76_27L   
   (   0.980488   0.00487805   0.00487805   0.00487805   0.00487805)   % C2_Workplace_closing=2   G_Transit=L43_38__76_27L   
   (   0.2   0.2   0.2   0.2   0.2))   % C2_Workplace_closing=3   G_Transit=L43_38__76_27L   
   ((   0.000433839   0.000433839   0.000433839   0.0438178   0.954881)   % C2_Workplace_closing=0   G_Transit=L_22_4__10_49L   
   (   0.264611   0.264611   0.440822   0.000293686   0.0296623)   % C2_Workplace_closing=1   G_Transit=L_22_4__10_49L   
   (   0.000133245   0.000133245   0.31992   0.000133245   0.67968)   % C2_Workplace_closing=2   G_Transit=L_22_4__10_49L   
   (   0.2   0.2   0.2   0.2   0.2))   % C2_Workplace_closing=3   G_Transit=L_22_4__10_49L   
   ((   0.00952381   0.00952381   0.00952381   0.961905   0.00952381)   % C2_Workplace_closing=0   G_Transit=L_55_29___22_4L   
   (   0.2   0.2   0.2   0.2   0.2)   % C2_Workplace_closing=1   G_Transit=L_55_29___22_4L   
   (   0.000293686   0.000293686   0.0883994   0.117768   0.793245)   % C2_Workplace_closing=2   G_Transit=L_55_29___22_4L   
   (   0.000904977   0.000904977   0.000904977   0.815385   0.1819))   % C2_Workplace_closing=3   G_Transit=L_55_29___22_4L   
   ((   0.2   0.2   0.2   0.2   0.2)   % C2_Workplace_closing=0   G_Transit=L_88_18___55_29L   
   (   0.2   0.2   0.2   0.2   0.2)   % C2_Workplace_closing=1   G_Transit=L_88_18___55_29L   
   (   0.00952381   0.00952381   0.961905   0.00952381   0.00952381)   % C2_Workplace_closing=2   G_Transit=L_88_18___55_29L   
   (   0.000178412   0.000178412   0.000178412   0.999286   0.000178412)));   % C2_Workplace_closing=3   G_Transit=L_88_18___55_29L   
}

potential ( G_Transit | G_Retail   ) {
   data = 
   ((   0.332701   0.0720379   0.593365   0.000947867   0.000947867)   % G_Retail=L0_38__23_21L   
   (   0.0903904   0.0453453   0.781081   0.0828829   0.0003003)   % G_Retail=L_22_46__0_38L   
   (   0.0015873   0.0015873   0.120635   0.874603   0.0015873)   % G_Retail=L_45_29___22_46L   
   (   0.00208333   0.00208333   0.00208333   0.679167   0.314583)   % G_Retail=L_68_13___45_29L   
   (   0.00078125   0.00078125   0.00078125   0.00078125   0.996875));   % G_Retail=L_90_97___68_13L   
}

potential ( G_Workplace | G_Residencial   ) {
   data = 
   ((   0.00128205   0.00128205   0.514103   0.385897   0.0974359)   % G_Residencial=L13_31__22_37L   
   (   0.0013245   0.0013245   0.0013245   0.663576   0.33245)   % G_Residencial=L22_37__31_43L   
   (   0.00392157   0.00392157   0.00392157   0.101961   0.886275)   % G_Residencial=L31_43__40_49L   
   (   0.000443459   0.0891353   0.754324   0.155654   0.000443459)   % G_Residencial=L4_25__13_31L   
   (   0.238462   0.632234   0.128571   0.0003663   0.0003663));   % G_Residencial=L_4_81__4_25L   
}

potential ( G_Residencial | G_Transit   ) {
   data = 
   ((   0.00152672   0.00152672   0.00152672   0.30687   0.68855)   % G_Transit=L10_49__43_38L   
   (   0.00434783   0.00434783   0.00434783   0.00434783   0.982609)   % G_Transit=L43_38__76_27L   
   (   0.00786687   0.000302572   0.000302572   0.40121   0.590318)   % G_Transit=L_22_4__10_49L   
   (   0.303896   0.000865801   0.000865801   0.606926   0.0874459)   % G_Transit=L_55_29___22_4L   
   (   0.28042   0.525175   0.175524   0.0181818   0.000699301));   % G_Transit=L_88_18___55_29L   
}

potential ( H2_Testing_policy | G_Grocery_Pharmacy   H6_Facial_Coverings   H3_Contact_tracing   ) {
   data = 
   ((((   0.25   0.25   0.25   0.25)   % H3_Contact_tracing=0   H6_Facial_Coverings=0   G_Grocery_Pharmacy=L17_78__44_34L   
   (   0.00165563   0.995033   0.00165563   0.00165563)   % H3_Contact_tracing=1   H6_Facial_Coverings=0   G_Grocery_Pharmacy=L17_78__44_34L   
   (   0.25   0.25   0.25   0.25))   % H3_Contact_tracing=2   H6_Facial_Coverings=0   G_Grocery_Pharmacy=L17_78__44_34L   
   ((   0.25   0.25   0.25   0.25)   % H3_Contact_tracing=0   H6_Facial_Coverings=1   G_Grocery_Pharmacy=L17_78__44_34L   
   (   0.25   0.25   0.25   0.25)   % H3_Contact_tracing=1   H6_Facial_Coverings=1   G_Grocery_Pharmacy=L17_78__44_34L   
   (   0.000664894   0.998005   0.000664894   0.000664894))   % H3_Contact_tracing=2   H6_Facial_Coverings=1   G_Grocery_Pharmacy=L17_78__44_34L   
   ((   0.25   0.25   0.25   0.25)   % H3_Contact_tracing=0   H6_Facial_Coverings=2   G_Grocery_Pharmacy=L17_78__44_34L   
   (   0.25   0.25   0.25   0.25)   % H3_Contact_tracing=1   H6_Facial_Coverings=2   G_Grocery_Pharmacy=L17_78__44_34L   
   (   0.00165563   0.00165563   0.995033   0.00165563))   % H3_Contact_tracing=2   H6_Facial_Coverings=2   G_Grocery_Pharmacy=L17_78__44_34L   
   ((   0.25   0.25   0.25   0.25)   % H3_Contact_tracing=0   H6_Facial_Coverings=3   G_Grocery_Pharmacy=L17_78__44_34L   
   (   0.25   0.25   0.25   0.25)   % H3_Contact_tracing=1   H6_Facial_Coverings=3   G_Grocery_Pharmacy=L17_78__44_34L   
   (   0.000369822   0.000369822   0.998891   0.000369822))   % H3_Contact_tracing=2   H6_Facial_Coverings=3   G_Grocery_Pharmacy=L17_78__44_34L   
   ((   0.25   0.25   0.25   0.25)   % H3_Contact_tracing=0   H6_Facial_Coverings=Recommended   G_Grocery_Pharmacy=L17_78__44_34L   
   (   0.25   0.25   0.25   0.25)   % H3_Contact_tracing=1   H6_Facial_Coverings=Recommended   G_Grocery_Pharmacy=L17_78__44_34L   
   (   0.25   0.25   0.25   0.25)))   % H3_Contact_tracing=2   H6_Facial_Coverings=Recommended   G_Grocery_Pharmacy=L17_78__44_34L   
   (((   0.25   0.25   0.25   0.25)   % H3_Contact_tracing=0   H6_Facial_Coverings=0   G_Grocery_Pharmacy=L_35_32___8_77L   
   (   0.996681   0.00110619   0.00110619   0.00110619)   % H3_Contact_tracing=1   H6_Facial_Coverings=0   G_Grocery_Pharmacy=L_35_32___8_77L   
   (   0.25   0.25   0.25   0.25))   % H3_Contact_tracing=2   H6_Facial_Coverings=0   G_Grocery_Pharmacy=L_35_32___8_77L   
   ((   0.25   0.25   0.25   0.25)   % H3_Contact_tracing=0   H6_Facial_Coverings=1   G_Grocery_Pharmacy=L_35_32___8_77L   
   (   0.25   0.25   0.25   0.25)   % H3_Contact_tracing=1   H6_Facial_Coverings=1   G_Grocery_Pharmacy=L_35_32___8_77L   
   (   0.000554324   0.998337   0.000554324   0.000554324))   % H3_Contact_tracing=2   H6_Facial_Coverings=1   G_Grocery_Pharmacy=L_35_32___8_77L   
   ((   0.25   0.25   0.25   0.25)   % H3_Contact_tracing=0   H6_Facial_Coverings=2   G_Grocery_Pharmacy=L_35_32___8_77L   
   (   0.25   0.25   0.25   0.25)   % H3_Contact_tracing=1   H6_Facial_Coverings=2   G_Grocery_Pharmacy=L_35_32___8_77L   
   (   0.25   0.25   0.25   0.25))   % H3_Contact_tracing=2   H6_Facial_Coverings=2   G_Grocery_Pharmacy=L_35_32___8_77L   
   ((   0.25   0.25   0.25   0.25)   % H3_Contact_tracing=0   H6_Facial_Coverings=3   G_Grocery_Pharmacy=L_35_32___8_77L   
   (   0.25   0.25   0.25   0.25)   % H3_Contact_tracing=1   H6_Facial_Coverings=3   G_Grocery_Pharmacy=L_35_32___8_77L   
   (   0.000256148   0.000256148   0.999232   0.000256148))   % H3_Contact_tracing=2   H6_Facial_Coverings=3   G_Grocery_Pharmacy=L_35_32___8_77L   
   ((   0.25   0.25   0.25   0.25)   % H3_Contact_tracing=0   H6_Facial_Coverings=Recommended   G_Grocery_Pharmacy=L_35_32___8_77L   
   (   0.998891   0.000369822   0.000369822   0.000369822)   % H3_Contact_tracing=1   H6_Facial_Coverings=Recommended   G_Grocery_Pharmacy=L_35_32___8_77L   
   (   0.25   0.25   0.25   0.25)))   % H3_Contact_tracing=2   H6_Facial_Coverings=Recommended   G_Grocery_Pharmacy=L_35_32___8_77L   
   (((   0.25   0.25   0.25   0.25)   % H3_Contact_tracing=0   H6_Facial_Coverings=0   G_Grocery_Pharmacy=L_61_87___35_32L   
   (   0.999688   0.000104123   0.000104123   0.000104123)   % H3_Contact_tracing=1   H6_Facial_Coverings=0   G_Grocery_Pharmacy=L_61_87___35_32L   
   (   0.25   0.25   0.25   0.25))   % H3_Contact_tracing=2   H6_Facial_Coverings=0   G_Grocery_Pharmacy=L_61_87___35_32L   
   ((   0.25   0.25   0.25   0.25)   % H3_Contact_tracing=0   H6_Facial_Coverings=1   G_Grocery_Pharmacy=L_61_87___35_32L   
   (   0.25   0.25   0.25   0.25)   % H3_Contact_tracing=1   H6_Facial_Coverings=1   G_Grocery_Pharmacy=L_61_87___35_32L   
   (   0.00110619   0.996681   0.00110619   0.00110619))   % H3_Contact_tracing=2   H6_Facial_Coverings=1   G_Grocery_Pharmacy=L_61_87___35_32L   
   ((   0.25   0.25   0.25   0.25)   % H3_Contact_tracing=0   H6_Facial_Coverings=2   G_Grocery_Pharmacy=L_61_87___35_32L   
   (   0.25   0.25   0.25   0.25)   % H3_Contact_tracing=1   H6_Facial_Coverings=2   G_Grocery_Pharmacy=L_61_87___35_32L   
   (   0.25   0.25   0.25   0.25))   % H3_Contact_tracing=2   H6_Facial_Coverings=2   G_Grocery_Pharmacy=L_61_87___35_32L   
   ((   0.25   0.25   0.25   0.25)   % H3_Contact_tracing=0   H6_Facial_Coverings=3   G_Grocery_Pharmacy=L_61_87___35_32L   
   (   0.25   0.25   0.25   0.25)   % H3_Contact_tracing=1   H6_Facial_Coverings=3   G_Grocery_Pharmacy=L_61_87___35_32L   
   (   0.25   0.25   0.25   0.25))   % H3_Contact_tracing=2   H6_Facial_Coverings=3   G_Grocery_Pharmacy=L_61_87___35_32L   
   ((   0.25   0.25   0.25   0.25)   % H3_Contact_tracing=0   H6_Facial_Coverings=Recommended   G_Grocery_Pharmacy=L_61_87___35_32L   
   (   0.997508   0.000830565   0.000830565   0.000830565)   % H3_Contact_tracing=1   H6_Facial_Coverings=Recommended   G_Grocery_Pharmacy=L_61_87___35_32L   
   (   0.25   0.25   0.25   0.25)))   % H3_Contact_tracing=2   H6_Facial_Coverings=Recommended   G_Grocery_Pharmacy=L_61_87___35_32L   
   (((   0.25   0.25   0.25   0.25)   % H3_Contact_tracing=0   H6_Facial_Coverings=0   G_Grocery_Pharmacy=L_88_43___61_87L   
   (   0.998337   0.000554324   0.000554324   0.000554324)   % H3_Contact_tracing=1   H6_Facial_Coverings=0   G_Grocery_Pharmacy=L_88_43___61_87L   
   (   0.25   0.25   0.25   0.25))   % H3_Contact_tracing=2   H6_Facial_Coverings=0   G_Grocery_Pharmacy=L_88_43___61_87L   
   ((   0.25   0.25   0.25   0.25)   % H3_Contact_tracing=0   H6_Facial_Coverings=1   G_Grocery_Pharmacy=L_88_43___61_87L   
   (   0.25   0.25   0.25   0.25)   % H3_Contact_tracing=1   H6_Facial_Coverings=1   G_Grocery_Pharmacy=L_88_43___61_87L   
   (   0.25   0.25   0.25   0.25))   % H3_Contact_tracing=2   H6_Facial_Coverings=1   G_Grocery_Pharmacy=L_88_43___61_87L   
   ((   0.25   0.25   0.25   0.25)   % H3_Contact_tracing=0   H6_Facial_Coverings=2   G_Grocery_Pharmacy=L_88_43___61_87L   
   (   0.25   0.25   0.25   0.25)   % H3_Contact_tracing=1   H6_Facial_Coverings=2   G_Grocery_Pharmacy=L_88_43___61_87L   
   (   0.25   0.25   0.25   0.25))   % H3_Contact_tracing=2   H6_Facial_Coverings=2   G_Grocery_Pharmacy=L_88_43___61_87L   
   ((   0.25   0.25   0.25   0.25)   % H3_Contact_tracing=0   H6_Facial_Coverings=3   G_Grocery_Pharmacy=L_88_43___61_87L   
   (   0.25   0.25   0.25   0.25)   % H3_Contact_tracing=1   H6_Facial_Coverings=3   G_Grocery_Pharmacy=L_88_43___61_87L   
   (   0.25   0.25   0.25   0.25))   % H3_Contact_tracing=2   H6_Facial_Coverings=3   G_Grocery_Pharmacy=L_88_43___61_87L   
   ((   0.25   0.25   0.25   0.25)   % H3_Contact_tracing=0   H6_Facial_Coverings=Recommended   G_Grocery_Pharmacy=L_88_43___61_87L   
   (   0.990132   0.00328947   0.00328947   0.00328947)   % H3_Contact_tracing=1   H6_Facial_Coverings=Recommended   G_Grocery_Pharmacy=L_88_43___61_87L   
   (   0.25   0.25   0.25   0.25)))   % H3_Contact_tracing=2   H6_Facial_Coverings=Recommended   G_Grocery_Pharmacy=L_88_43___61_87L   
   (((   0.000302663   0.0911017   0.000302663   0.908293)   % H3_Contact_tracing=0   H6_Facial_Coverings=0   G_Grocery_Pharmacy=L_8_77__17_78L   
   (   0.000185048   0.999445   0.000185048   0.000185048)   % H3_Contact_tracing=1   H6_Facial_Coverings=0   G_Grocery_Pharmacy=L_8_77__17_78L   
   (   0.25   0.25   0.25   0.25))   % H3_Contact_tracing=2   H6_Facial_Coverings=0   G_Grocery_Pharmacy=L_8_77__17_78L   
   ((   0.25   0.25   0.25   0.25)   % H3_Contact_tracing=0   H6_Facial_Coverings=1   G_Grocery_Pharmacy=L_8_77__17_78L   
   (   0.25   0.25   0.25   0.25)   % H3_Contact_tracing=1   H6_Facial_Coverings=1   G_Grocery_Pharmacy=L_8_77__17_78L   
   (   5.95096e-05   0.999821   5.95096e-05   5.95096e-05))   % H3_Contact_tracing=2   H6_Facial_Coverings=1   G_Grocery_Pharmacy=L_8_77__17_78L   
   ((   0.25   0.25   0.25   0.25)   % H3_Contact_tracing=0   H6_Facial_Coverings=2   G_Grocery_Pharmacy=L_8_77__17_78L   
   (   0.25   0.25   0.25   0.25)   % H3_Contact_tracing=1   H6_Facial_Coverings=2   G_Grocery_Pharmacy=L_8_77__17_78L   
   (   0.000277469   0.416482   0.582963   0.000277469))   % H3_Contact_tracing=2   H6_Facial_Coverings=2   G_Grocery_Pharmacy=L_8_77__17_78L   
   ((   0.25   0.25   0.25   0.25)   % H3_Contact_tracing=0   H6_Facial_Coverings=3   G_Grocery_Pharmacy=L_8_77__17_78L   
   (   0.25   0.25   0.25   0.25)   % H3_Contact_tracing=1   H6_Facial_Coverings=3   G_Grocery_Pharmacy=L_8_77__17_78L   
   (   4.27277e-05   4.27277e-05   0.999872   4.27277e-05))   % H3_Contact_tracing=2   H6_Facial_Coverings=3   G_Grocery_Pharmacy=L_8_77__17_78L   
   ((   0.25   0.25   0.25   0.25)   % H3_Contact_tracing=0   H6_Facial_Coverings=Recommended   G_Grocery_Pharmacy=L_8_77__17_78L   
   (   0.25   0.25   0.25   0.25)   % H3_Contact_tracing=1   H6_Facial_Coverings=Recommended   G_Grocery_Pharmacy=L_8_77__17_78L   
   (   0.25   0.25   0.25   0.25))));   % H3_Contact_tracing=2   H6_Facial_Coverings=Recommended   G_Grocery_Pharmacy=L_8_77__17_78L   
}

potential ( H3_Contact_tracing | G_Workplace   G_Retail   G_Grocery_Pharmacy   ) {
   data = 
   ((((   0.000333   0.000333   0.999334)   % G_Grocery_Pharmacy=L17_78__44_34L   G_Retail=L0_38__23_21L   G_Workplace=L_0_47__21_42L   
   (   0.333333   0.333333   0.333333)   % G_Grocery_Pharmacy=L_35_32___8_77L   G_Retail=L0_38__23_21L   G_Workplace=L_0_47__21_42L   
   (   0.333333   0.333333   0.333333)   % G_Grocery_Pharmacy=L_61_87___35_32L   G_Retail=L0_38__23_21L   G_Workplace=L_0_47__21_42L   
   (   0.333333   0.333333   0.333333)   % G_Grocery_Pharmacy=L_88_43___61_87L   G_Retail=L0_38__23_21L   G_Workplace=L_0_47__21_42L   
   (   0.00132802   0.997344   0.00132802))   % G_Grocery_Pharmacy=L_8_77__17_78L   G_Retail=L0_38__23_21L   G_Workplace=L_0_47__21_42L   
   ((   0.333333   0.333333   0.333333)   % G_Grocery_Pharmacy=L17_78__44_34L   G_Retail=L_22_46__0_38L   G_Workplace=L_0_47__21_42L   
   (   0.333333   0.333333   0.333333)   % G_Grocery_Pharmacy=L_35_32___8_77L   G_Retail=L_22_46__0_38L   G_Workplace=L_0_47__21_42L   
   (   0.333333   0.333333   0.333333)   % G_Grocery_Pharmacy=L_61_87___35_32L   G_Retail=L_22_46__0_38L   G_Workplace=L_0_47__21_42L   
   (   0.333333   0.333333   0.333333)   % G_Grocery_Pharmacy=L_88_43___61_87L   G_Retail=L_22_46__0_38L   G_Workplace=L_0_47__21_42L   
   (   0.000177683   0.266702   0.73312))   % G_Grocery_Pharmacy=L_8_77__17_78L   G_Retail=L_22_46__0_38L   G_Workplace=L_0_47__21_42L   
   ((   0.333333   0.333333   0.333333)   % G_Grocery_Pharmacy=L17_78__44_34L   G_Retail=L_45_29___22_46L   G_Workplace=L_0_47__21_42L   
   (   0.333333   0.333333   0.333333)   % G_Grocery_Pharmacy=L_35_32___8_77L   G_Retail=L_45_29___22_46L   G_Workplace=L_0_47__21_42L   
   (   0.333333   0.333333   0.333333)   % G_Grocery_Pharmacy=L_61_87___35_32L   G_Retail=L_45_29___22_46L   G_Workplace=L_0_47__21_42L   
   (   0.333333   0.333333   0.333333)   % G_Grocery_Pharmacy=L_88_43___61_87L   G_Retail=L_45_29___22_46L   G_Workplace=L_0_47__21_42L   
   (   0.0026455   0.0026455   0.994709))   % G_Grocery_Pharmacy=L_8_77__17_78L   G_Retail=L_45_29___22_46L   G_Workplace=L_0_47__21_42L   
   ((   0.333333   0.333333   0.333333)   % G_Grocery_Pharmacy=L17_78__44_34L   G_Retail=L_68_13___45_29L   G_Workplace=L_0_47__21_42L   
   (   0.333333   0.333333   0.333333)   % G_Grocery_Pharmacy=L_35_32___8_77L   G_Retail=L_68_13___45_29L   G_Workplace=L_0_47__21_42L   
   (   0.333333   0.333333   0.333333)   % G_Grocery_Pharmacy=L_61_87___35_32L   G_Retail=L_68_13___45_29L   G_Workplace=L_0_47__21_42L   
   (   0.333333   0.333333   0.333333)   % G_Grocery_Pharmacy=L_88_43___61_87L   G_Retail=L_68_13___45_29L   G_Workplace=L_0_47__21_42L   
   (   0.333333   0.333333   0.333333))   % G_Grocery_Pharmacy=L_8_77__17_78L   G_Retail=L_68_13___45_29L   G_Workplace=L_0_47__21_42L   
   ((   0.333333   0.333333   0.333333)   % G_Grocery_Pharmacy=L17_78__44_34L   G_Retail=L_90_97___68_13L   G_Workplace=L_0_47__21_42L   
   (   0.333333   0.333333   0.333333)   % G_Grocery_Pharmacy=L_35_32___8_77L   G_Retail=L_90_97___68_13L   G_Workplace=L_0_47__21_42L   
   (   0.333333   0.333333   0.333333)   % G_Grocery_Pharmacy=L_61_87___35_32L   G_Retail=L_90_97___68_13L   G_Workplace=L_0_47__21_42L   
   (   0.333333   0.333333   0.333333)   % G_Grocery_Pharmacy=L_88_43___61_87L   G_Retail=L_90_97___68_13L   G_Workplace=L_0_47__21_42L   
   (   0.333333   0.333333   0.333333)))   % G_Grocery_Pharmacy=L_8_77__17_78L   G_Retail=L_90_97___68_13L   G_Workplace=L_0_47__21_42L   
   (((   0.333333   0.333333   0.333333)   % G_Grocery_Pharmacy=L17_78__44_34L   G_Retail=L0_38__23_21L   G_Workplace=L_22_36___0_47L   
   (   0.333333   0.333333   0.333333)   % G_Grocery_Pharmacy=L_35_32___8_77L   G_Retail=L0_38__23_21L   G_Workplace=L_22_36___0_47L   
   (   0.333333   0.333333   0.333333)   % G_Grocery_Pharmacy=L_61_87___35_32L   G_Retail=L0_38__23_21L   G_Workplace=L_22_36___0_47L   
   (   0.333333   0.333333   0.333333)   % G_Grocery_Pharmacy=L_88_43___61_87L   G_Retail=L0_38__23_21L   G_Workplace=L_22_36___0_47L   
   (   0.999408   0.000296033   0.000296033))   % G_Grocery_Pharmacy=L_8_77__17_78L   G_Retail=L0_38__23_21L   G_Workplace=L_22_36___0_47L   
   ((   0.333333   0.333333   0.333333)   % G_Grocery_Pharmacy=L17_78__44_34L   G_Retail=L_22_46__0_38L   G_Workplace=L_22_36___0_47L   
   (   0.333333   0.333333   0.333333)   % G_Grocery_Pharmacy=L_35_32___8_77L   G_Retail=L_22_46__0_38L   G_Workplace=L_22_36___0_47L   
   (   0.333333   0.333333   0.333333)   % G_Grocery_Pharmacy=L_61_87___35_32L   G_Retail=L_22_46__0_38L   G_Workplace=L_22_36___0_47L   
   (   0.333333   0.333333   0.333333)   % G_Grocery_Pharmacy=L_88_43___61_87L   G_Retail=L_22_46__0_38L   G_Workplace=L_22_36___0_47L   
   (   0.0328263   0.196739   0.770434))   % G_Grocery_Pharmacy=L_8_77__17_78L   G_Retail=L_22_46__0_38L   G_Workplace=L_22_36___0_47L   
   ((   0.0026455   0.994709   0.0026455)   % G_Grocery_Pharmacy=L17_78__44_34L   G_Retail=L_45_29___22_46L   G_Workplace=L_22_36___0_47L   
   (   0.000886525   0.000886525   0.998227)   % G_Grocery_Pharmacy=L_35_32___8_77L   G_Retail=L_45_29___22_46L   G_Workplace=L_22_36___0_47L   
   (   0.333333   0.333333   0.333333)   % G_Grocery_Pharmacy=L_61_87___35_32L   G_Retail=L_45_29___22_46L   G_Workplace=L_22_36___0_47L   
   (   0.333333   0.333333   0.333333)   % G_Grocery_Pharmacy=L_88_43___61_87L   G_Retail=L_45_29___22_46L   G_Workplace=L_22_36___0_47L   
   (   0.0026455   0.0026455   0.994709))   % G_Grocery_Pharmacy=L_8_77__17_78L   G_Retail=L_45_29___22_46L   G_Workplace=L_22_36___0_47L   
   ((   0.333333   0.333333   0.333333)   % G_Grocery_Pharmacy=L17_78__44_34L   G_Retail=L_68_13___45_29L   G_Workplace=L_22_36___0_47L   
   (   0.00132802   0.00132802   0.997344)   % G_Grocery_Pharmacy=L_35_32___8_77L   G_Retail=L_68_13___45_29L   G_Workplace=L_22_36___0_47L   
   (   0.333333   0.333333   0.333333)   % G_Grocery_Pharmacy=L_61_87___35_32L   G_Retail=L_68_13___45_29L   G_Workplace=L_22_36___0_47L   
   (   0.333333   0.333333   0.333333)   % G_Grocery_Pharmacy=L_88_43___61_87L   G_Retail=L_68_13___45_29L   G_Workplace=L_22_36___0_47L   
   (   0.333333   0.333333   0.333333))   % G_Grocery_Pharmacy=L_8_77__17_78L   G_Retail=L_68_13___45_29L   G_Workplace=L_22_36___0_47L   
   ((   0.333333   0.333333   0.333333)   % G_Grocery_Pharmacy=L17_78__44_34L   G_Retail=L_90_97___68_13L   G_Workplace=L_22_36___0_47L   
   (   0.333333   0.333333   0.333333)   % G_Grocery_Pharmacy=L_35_32___8_77L   G_Retail=L_90_97___68_13L   G_Workplace=L_22_36___0_47L   
   (   0.333333   0.333333   0.333333)   % G_Grocery_Pharmacy=L_61_87___35_32L   G_Retail=L_90_97___68_13L   G_Workplace=L_22_36___0_47L   
   (   0.333333   0.333333   0.333333)   % G_Grocery_Pharmacy=L_88_43___61_87L   G_Retail=L_90_97___68_13L   G_Workplace=L_22_36___0_47L   
   (   0.333333   0.333333   0.333333)))   % G_Grocery_Pharmacy=L_8_77__17_78L   G_Retail=L_90_97___68_13L   G_Workplace=L_22_36___0_47L   
   (((   0.00132802   0.00132802   0.997344)   % G_Grocery_Pharmacy=L17_78__44_34L   G_Retail=L0_38__23_21L   G_Workplace=L_44_25___22_36L   
   (   0.333333   0.333333   0.333333)   % G_Grocery_Pharmacy=L_35_32___8_77L   G_Retail=L0_38__23_21L   G_Workplace=L_44_25___22_36L   
   (   0.333333   0.333333   0.333333)   % G_Grocery_Pharmacy=L_61_87___35_32L   G_Retail=L0_38__23_21L   G_Workplace=L_44_25___22_36L   
   (   0.333333   0.333333   0.333333)   % G_Grocery_Pharmacy=L_88_43___61_87L   G_Retail=L0_38__23_21L   G_Workplace=L_44_25___22_36L   
   (   0.000222074   0.000222074   0.999556))   % G_Grocery_Pharmacy=L_8_77__17_78L   G_Retail=L0_38__23_21L   G_Workplace=L_44_25___22_36L   
   ((   0.333333   0.333333   0.333333)   % G_Grocery_Pharmacy=L17_78__44_34L   G_Retail=L_22_46__0_38L   G_Workplace=L_44_25___22_36L   
   (   0.0026455   0.0026455   0.994709)   % G_Grocery_Pharmacy=L_35_32___8_77L   G_Retail=L_22_46__0_38L   G_Workplace=L_44_25___22_36L   
   (   0.333333   0.333333   0.333333)   % G_Grocery_Pharmacy=L_61_87___35_32L   G_Retail=L_22_46__0_38L   G_Workplace=L_44_25___22_36L   
   (   0.333333   0.333333   0.333333)   % G_Grocery_Pharmacy=L_88_43___61_87L   G_Retail=L_22_46__0_38L   G_Workplace=L_44_25___22_36L   
   (   5.22794e-05   5.22794e-05   0.999895))   % G_Grocery_Pharmacy=L_8_77__17_78L   G_Retail=L_22_46__0_38L   G_Workplace=L_44_25___22_36L   
   ((   0.0026455   0.994709   0.0026455)   % G_Grocery_Pharmacy=L17_78__44_34L   G_Retail=L_45_29___22_46L   G_Workplace=L_44_25___22_36L   
   (   0.00132802   0.00132802   0.997344)   % G_Grocery_Pharmacy=L_35_32___8_77L   G_Retail=L_45_29___22_46L   G_Workplace=L_44_25___22_36L   
   (   0.333333   0.333333   0.333333)   % G_Grocery_Pharmacy=L_61_87___35_32L   G_Retail=L_45_29___22_46L   G_Workplace=L_44_25___22_36L   
   (   0.333333   0.333333   0.333333)   % G_Grocery_Pharmacy=L_88_43___61_87L   G_Retail=L_45_29___22_46L   G_Workplace=L_44_25___22_36L   
   (   0.000205002   0.000205002   0.99959))   % G_Grocery_Pharmacy=L_8_77__17_78L   G_Retail=L_45_29___22_46L   G_Workplace=L_44_25___22_36L   
   ((   0.333333   0.333333   0.333333)   % G_Grocery_Pharmacy=L17_78__44_34L   G_Retail=L_68_13___45_29L   G_Workplace=L_44_25___22_36L   
   (   0.000242248   0.000242248   0.999516)   % G_Grocery_Pharmacy=L_35_32___8_77L   G_Retail=L_68_13___45_29L   G_Workplace=L_44_25___22_36L   
   (   0.333333   0.333333   0.333333)   % G_Grocery_Pharmacy=L_61_87___35_32L   G_Retail=L_68_13___45_29L   G_Workplace=L_44_25___22_36L   
   (   0.333333   0.333333   0.333333)   % G_Grocery_Pharmacy=L_88_43___61_87L   G_Retail=L_68_13___45_29L   G_Workplace=L_44_25___22_36L   
   (   0.0026455   0.0026455   0.994709))   % G_Grocery_Pharmacy=L_8_77__17_78L   G_Retail=L_68_13___45_29L   G_Workplace=L_44_25___22_36L   
   ((   0.333333   0.333333   0.333333)   % G_Grocery_Pharmacy=L17_78__44_34L   G_Retail=L_90_97___68_13L   G_Workplace=L_44_25___22_36L   
   (   0.0026455   0.994709   0.0026455)   % G_Grocery_Pharmacy=L_35_32___8_77L   G_Retail=L_90_97___68_13L   G_Workplace=L_44_25___22_36L   
   (   0.000886525   0.998227   0.000886525)   % G_Grocery_Pharmacy=L_61_87___35_32L   G_Retail=L_90_97___68_13L   G_Workplace=L_44_25___22_36L   
   (   0.333333   0.333333   0.333333)   % G_Grocery_Pharmacy=L_88_43___61_87L   G_Retail=L_90_97___68_13L   G_Workplace=L_44_25___22_36L   
   (   0.333333   0.333333   0.333333)))   % G_Grocery_Pharmacy=L_8_77__17_78L   G_Retail=L_90_97___68_13L   G_Workplace=L_44_25___22_36L   
   (((   0.000443853   0.000443853   0.999112)   % G_Grocery_Pharmacy=L17_78__44_34L   G_Retail=L0_38__23_21L   G_Workplace=L_66_14___44_25L   
   (   0.333333   0.333333   0.333333)   % G_Grocery_Pharmacy=L_35_32___8_77L   G_Retail=L0_38__23_21L   G_Workplace=L_66_14___44_25L   
   (   0.333333   0.333333   0.333333)   % G_Grocery_Pharmacy=L_61_87___35_32L   G_Retail=L0_38__23_21L   G_Workplace=L_66_14___44_25L   
   (   0.333333   0.333333   0.333333)   % G_Grocery_Pharmacy=L_88_43___61_87L   G_Retail=L0_38__23_21L   G_Workplace=L_66_14___44_25L   
   (   0.000886525   0.000886525   0.998227))   % G_Grocery_Pharmacy=L_8_77__17_78L   G_Retail=L0_38__23_21L   G_Workplace=L_66_14___44_25L   
   ((   0.333333   0.333333   0.333333)   % G_Grocery_Pharmacy=L17_78__44_34L   G_Retail=L_22_46__0_38L   G_Workplace=L_66_14___44_25L   
   (   0.333333   0.333333   0.333333)   % G_Grocery_Pharmacy=L_35_32___8_77L   G_Retail=L_22_46__0_38L   G_Workplace=L_66_14___44_25L   
   (   0.333333   0.333333   0.333333)   % G_Grocery_Pharmacy=L_61_87___35_32L   G_Retail=L_22_46__0_38L   G_Workplace=L_66_14___44_25L   
   (   0.333333   0.333333   0.333333)   % G_Grocery_Pharmacy=L_88_43___61_87L   G_Retail=L_22_46__0_38L   G_Workplace=L_66_14___44_25L   
   (   0.000532481   0.000532481   0.998935))   % G_Grocery_Pharmacy=L_8_77__17_78L   G_Retail=L_22_46__0_38L   G_Workplace=L_66_14___44_25L   
   ((   0.333333   0.333333   0.333333)   % G_Grocery_Pharmacy=L17_78__44_34L   G_Retail=L_45_29___22_46L   G_Workplace=L_66_14___44_25L   
   (   0.333333   0.333333   0.333333)   % G_Grocery_Pharmacy=L_35_32___8_77L   G_Retail=L_45_29___22_46L   G_Workplace=L_66_14___44_25L   
   (   0.333333   0.333333   0.333333)   % G_Grocery_Pharmacy=L_61_87___35_32L   G_Retail=L_45_29___22_46L   G_Workplace=L_66_14___44_25L   
   (   0.333333   0.333333   0.333333)   % G_Grocery_Pharmacy=L_88_43___61_87L   G_Retail=L_45_29___22_46L   G_Workplace=L_66_14___44_25L   
   (   0.0026455   0.0026455   0.994709))   % G_Grocery_Pharmacy=L_8_77__17_78L   G_Retail=L_45_29___22_46L   G_Workplace=L_66_14___44_25L   
   ((   0.333333   0.333333   0.333333)   % G_Grocery_Pharmacy=L17_78__44_34L   G_Retail=L_68_13___45_29L   G_Workplace=L_66_14___44_25L   
   (   0.000665336   0.998669   0.000665336)   % G_Grocery_Pharmacy=L_35_32___8_77L   G_Retail=L_68_13___45_29L   G_Workplace=L_66_14___44_25L   
   (   0.333333   0.333333   0.333333)   % G_Grocery_Pharmacy=L_61_87___35_32L   G_Retail=L_68_13___45_29L   G_Workplace=L_66_14___44_25L   
   (   0.333333   0.333333   0.333333)   % G_Grocery_Pharmacy=L_88_43___61_87L   G_Retail=L_68_13___45_29L   G_Workplace=L_66_14___44_25L   
   (   0.333333   0.333333   0.333333))   % G_Grocery_Pharmacy=L_8_77__17_78L   G_Retail=L_68_13___45_29L   G_Workplace=L_66_14___44_25L   
   ((   0.333333   0.333333   0.333333)   % G_Grocery_Pharmacy=L17_78__44_34L   G_Retail=L_90_97___68_13L   G_Workplace=L_66_14___44_25L   
   (   0.000380518   0.999239   0.000380518)   % G_Grocery_Pharmacy=L_35_32___8_77L   G_Retail=L_90_97___68_13L   G_Workplace=L_66_14___44_25L   
   (   0.000166583   0.999667   0.000166583)   % G_Grocery_Pharmacy=L_61_87___35_32L   G_Retail=L_90_97___68_13L   G_Workplace=L_66_14___44_25L   
   (   0.000532481   0.998935   0.000532481)   % G_Grocery_Pharmacy=L_88_43___61_87L   G_Retail=L_90_97___68_13L   G_Workplace=L_66_14___44_25L   
   (   0.333333   0.333333   0.333333)))   % G_Grocery_Pharmacy=L_8_77__17_78L   G_Retail=L_90_97___68_13L   G_Workplace=L_66_14___44_25L   
   (((   0.333333   0.333333   0.333333)   % G_Grocery_Pharmacy=L17_78__44_34L   G_Retail=L0_38__23_21L   G_Workplace=L_88_03___66_14L   
   (   0.333333   0.333333   0.333333)   % G_Grocery_Pharmacy=L_35_32___8_77L   G_Retail=L0_38__23_21L   G_Workplace=L_88_03___66_14L   
   (   0.333333   0.333333   0.333333)   % G_Grocery_Pharmacy=L_61_87___35_32L   G_Retail=L0_38__23_21L   G_Workplace=L_88_03___66_14L   
   (   0.333333   0.333333   0.333333)   % G_Grocery_Pharmacy=L_88_43___61_87L   G_Retail=L0_38__23_21L   G_Workplace=L_88_03___66_14L   
   (   0.333333   0.333333   0.333333))   % G_Grocery_Pharmacy=L_8_77__17_78L   G_Retail=L0_38__23_21L   G_Workplace=L_88_03___66_14L   
   ((   0.333333   0.333333   0.333333)   % G_Grocery_Pharmacy=L17_78__44_34L   G_Retail=L_22_46__0_38L   G_Workplace=L_88_03___66_14L   
   (   0.333333   0.333333   0.333333)   % G_Grocery_Pharmacy=L_35_32___8_77L   G_Retail=L_22_46__0_38L   G_Workplace=L_88_03___66_14L   
   (   0.333333   0.333333   0.333333)   % G_Grocery_Pharmacy=L_61_87___35_32L   G_Retail=L_22_46__0_38L   G_Workplace=L_88_03___66_14L   
   (   0.333333   0.333333   0.333333)   % G_Grocery_Pharmacy=L_88_43___61_87L   G_Retail=L_22_46__0_38L   G_Workplace=L_88_03___66_14L   
   (   0.333333   0.333333   0.333333))   % G_Grocery_Pharmacy=L_8_77__17_78L   G_Retail=L_22_46__0_38L   G_Workplace=L_88_03___66_14L   
   ((   0.333333   0.333333   0.333333)   % G_Grocery_Pharmacy=L17_78__44_34L   G_Retail=L_45_29___22_46L   G_Workplace=L_88_03___66_14L   
   (   0.333333   0.333333   0.333333)   % G_Grocery_Pharmacy=L_35_32___8_77L   G_Retail=L_45_29___22_46L   G_Workplace=L_88_03___66_14L   
   (   0.00132802   0.00132802   0.997344)   % G_Grocery_Pharmacy=L_61_87___35_32L   G_Retail=L_45_29___22_46L   G_Workplace=L_88_03___66_14L   
   (   0.333333   0.333333   0.333333)   % G_Grocery_Pharmacy=L_88_43___61_87L   G_Retail=L_45_29___22_46L   G_Workplace=L_88_03___66_14L   
   (   0.333333   0.333333   0.333333))   % G_Grocery_Pharmacy=L_8_77__17_78L   G_Retail=L_45_29___22_46L   G_Workplace=L_88_03___66_14L   
   ((   0.333333   0.333333   0.333333)   % G_Grocery_Pharmacy=L17_78__44_34L   G_Retail=L_68_13___45_29L   G_Workplace=L_88_03___66_14L   
   (   0.333333   0.333333   0.333333)   % G_Grocery_Pharmacy=L_35_32___8_77L   G_Retail=L_68_13___45_29L   G_Workplace=L_88_03___66_14L   
   (   0.0026455   0.0026455   0.994709)   % G_Grocery_Pharmacy=L_61_87___35_32L   G_Retail=L_68_13___45_29L   G_Workplace=L_88_03___66_14L   
   (   0.333333   0.333333   0.333333)   % G_Grocery_Pharmacy=L_88_43___61_87L   G_Retail=L_68_13___45_29L   G_Workplace=L_88_03___66_14L   
   (   0.333333   0.333333   0.333333))   % G_Grocery_Pharmacy=L_8_77__17_78L   G_Retail=L_68_13___45_29L   G_Workplace=L_88_03___66_14L   
   ((   0.333333   0.333333   0.333333)   % G_Grocery_Pharmacy=L17_78__44_34L   G_Retail=L_90_97___68_13L   G_Workplace=L_88_03___66_14L   
   (   0.333333   0.333333   0.333333)   % G_Grocery_Pharmacy=L_35_32___8_77L   G_Retail=L_90_97___68_13L   G_Workplace=L_88_03___66_14L   
   (   0.000156789   0.999686   0.000156789)   % G_Grocery_Pharmacy=L_61_87___35_32L   G_Retail=L_90_97___68_13L   G_Workplace=L_88_03___66_14L   
   (   0.00132802   0.997344   0.00132802)   % G_Grocery_Pharmacy=L_88_43___61_87L   G_Retail=L_90_97___68_13L   G_Workplace=L_88_03___66_14L   
   (   0.333333   0.333333   0.333333))));   % G_Grocery_Pharmacy=L_8_77__17_78L   G_Retail=L_90_97___68_13L   G_Workplace=L_88_03___66_14L   
}

potential ( H6_Facial_Coverings | C1_School_closing   ) {
   data = 
   ((   0.987692   0.00307692   0.00307692   0.00307692   0.00307692)   % C1_School_closing=0   
   (   0.000449438   0.252135   0.126292   0.620674   0.000449438)   % C1_School_closing=1   
   (   0.000682594   0.574061   0.000682594   0.423891   0.000682594)   % C1_School_closing=2   
   (   0.797865   0.000711744   0.000711744   0.000711744   0.2));   % C1_School_closing=3   
}

potential ( C1_School_closing | G_Transit   H3_Contact_tracing   ) {
   data = 
   (((   0.990132   0.00328947   0.00328947   0.00328947)   % H3_Contact_tracing=0   G_Transit=L10_49__43_38L   
   (   0.975806   0.00806452   0.00806452   0.00806452)   % H3_Contact_tracing=1   G_Transit=L10_49__43_38L   
   (   0.000874126   0.682692   0.315559   0.000874126))   % H3_Contact_tracing=2   G_Transit=L10_49__43_38L   
   ((   0.25   0.25   0.25   0.25)   % H3_Contact_tracing=0   G_Transit=L43_38__76_27L   
   (   0.25   0.25   0.25   0.25)   % H3_Contact_tracing=1   G_Transit=L43_38__76_27L   
   (   0.00183824   0.994485   0.00183824   0.00183824))   % H3_Contact_tracing=2   G_Transit=L43_38__76_27L   
   ((   0.991758   0.00274725   0.00274725   0.00274725)   % H3_Contact_tracing=0   G_Transit=L_22_4__10_49L   
   (   0.176758   0.000976562   0.000976562   0.821289)   % H3_Contact_tracing=1   G_Transit=L_22_4__10_49L   
   (   0.000152812   0.79783   0.201864   0.000152812))   % H3_Contact_tracing=2   G_Transit=L_22_4__10_49L   
   ((   0.25   0.25   0.25   0.25)   % H3_Contact_tracing=0   G_Transit=L_55_29___22_4L   
   (   0.00806452   0.00806452   0.00806452   0.975806)   % H3_Contact_tracing=1   G_Transit=L_55_29___22_4L   
   (   0.000378215   0.045764   0.95348   0.000378215))   % H3_Contact_tracing=2   G_Transit=L_55_29___22_4L   
   ((   0.25   0.25   0.25   0.25)   % H3_Contact_tracing=0   G_Transit=L_88_18___55_29L   
   (   0.000308261   0.000308261   0.000308261   0.999075)   % H3_Contact_tracing=1   G_Transit=L_88_18___55_29L   
   (   0.00543478   0.00543478   0.983696   0.00543478)));   % H3_Contact_tracing=2   G_Transit=L_88_18___55_29L   
}

potential ( C2_Workplace_closing | H2_Testing_policy   C1_School_closing   G_Retail   ) {
   data = 
   ((((   0.25   0.25   0.25   0.25)   % G_Retail=L0_38__23_21L   C1_School_closing=0   H2_Testing_policy=1   
   (   0.25   0.25   0.25   0.25)   % G_Retail=L_22_46__0_38L   C1_School_closing=0   H2_Testing_policy=1   
   (   0.25   0.25   0.25   0.25)   % G_Retail=L_45_29___22_46L   C1_School_closing=0   H2_Testing_policy=1   
   (   0.25   0.25   0.25   0.25)   % G_Retail=L_68_13___45_29L   C1_School_closing=0   H2_Testing_policy=1   
   (   0.25   0.25   0.25   0.25))   % G_Retail=L_90_97___68_13L   C1_School_closing=0   H2_Testing_policy=1   
   ((   0.25   0.25   0.25   0.25)   % G_Retail=L0_38__23_21L   C1_School_closing=1   H2_Testing_policy=1   
   (   0.25   0.25   0.25   0.25)   % G_Retail=L_22_46__0_38L   C1_School_closing=1   H2_Testing_policy=1   
   (   0.25   0.25   0.25   0.25)   % G_Retail=L_45_29___22_46L   C1_School_closing=1   H2_Testing_policy=1   
   (   0.25   0.25   0.25   0.25)   % G_Retail=L_68_13___45_29L   C1_School_closing=1   H2_Testing_policy=1   
   (   0.25   0.25   0.25   0.25))   % G_Retail=L_90_97___68_13L   C1_School_closing=1   H2_Testing_policy=1   
   ((   0.25   0.25   0.25   0.25)   % G_Retail=L0_38__23_21L   C1_School_closing=2   H2_Testing_policy=1   
   (   0.25   0.25   0.25   0.25)   % G_Retail=L_22_46__0_38L   C1_School_closing=2   H2_Testing_policy=1   
   (   0.25   0.25   0.25   0.25)   % G_Retail=L_45_29___22_46L   C1_School_closing=2   H2_Testing_policy=1   
   (   0.25   0.25   0.25   0.25)   % G_Retail=L_68_13___45_29L   C1_School_closing=2   H2_Testing_policy=1   
   (   0.25   0.25   0.25   0.25))   % G_Retail=L_90_97___68_13L   C1_School_closing=2   H2_Testing_policy=1   
   ((   0.25   0.25   0.25   0.25)   % G_Retail=L0_38__23_21L   C1_School_closing=3   H2_Testing_policy=1   
   (   0.25   0.25   0.25   0.25)   % G_Retail=L_22_46__0_38L   C1_School_closing=3   H2_Testing_policy=1   
   (   0.25   0.25   0.25   0.25)   % G_Retail=L_45_29___22_46L   C1_School_closing=3   H2_Testing_policy=1   
   (   0.000778816   0.000778816   0.000778816   0.997664)   % G_Retail=L_68_13___45_29L   C1_School_closing=3   H2_Testing_policy=1   
   (   6.12595e-05   6.12595e-05   6.12595e-05   0.999816)))   % G_Retail=L_90_97___68_13L   C1_School_closing=3   H2_Testing_policy=1   
   (((   0.995342   0.0015528   0.0015528   0.0015528)   % G_Retail=L0_38__23_21L   C1_School_closing=0   H2_Testing_policy=2   
   (   0.997664   0.000778816   0.000778816   0.000778816)   % G_Retail=L_22_46__0_38L   C1_School_closing=0   H2_Testing_policy=2   
   (   0.25   0.25   0.25   0.25)   % G_Retail=L_45_29___22_46L   C1_School_closing=0   H2_Testing_policy=2   
   (   0.25   0.25   0.25   0.25)   % G_Retail=L_68_13___45_29L   C1_School_closing=0   H2_Testing_policy=2   
   (   0.25   0.25   0.25   0.25))   % G_Retail=L_90_97___68_13L   C1_School_closing=0   H2_Testing_policy=2   
   ((   0.000260146   0.99922   0.000260146   0.000260146)   % G_Retail=L0_38__23_21L   C1_School_closing=1   H2_Testing_policy=2   
   (   0.000156152   0.999532   0.000156152   0.000156152)   % G_Retail=L_22_46__0_38L   C1_School_closing=1   H2_Testing_policy=2   
   (   0.00308642   0.990741   0.00308642   0.00308642)   % G_Retail=L_45_29___22_46L   C1_School_closing=1   H2_Testing_policy=2   
   (   0.25   0.25   0.25   0.25)   % G_Retail=L_68_13___45_29L   C1_School_closing=1   H2_Testing_policy=2   
   (   0.25   0.25   0.25   0.25))   % G_Retail=L_90_97___68_13L   C1_School_closing=1   H2_Testing_policy=2   
   ((   0.25   0.25   0.25   0.25)   % G_Retail=L0_38__23_21L   C1_School_closing=2   H2_Testing_policy=2   
   (   0.000173491   0.000173491   0.99948   0.000173491)   % G_Retail=L_22_46__0_38L   C1_School_closing=2   H2_Testing_policy=2   
   (   0.000164366   0.000164366   0.999507   0.000164366)   % G_Retail=L_45_29___22_46L   C1_School_closing=2   H2_Testing_policy=2   
   (   0.000623441   0.000623441   0.99813   0.000623441)   % G_Retail=L_68_13___45_29L   C1_School_closing=2   H2_Testing_policy=2   
   (   0.25   0.25   0.25   0.25))   % G_Retail=L_90_97___68_13L   C1_School_closing=2   H2_Testing_policy=2   
   ((   0.990741   0.00308642   0.00308642   0.00308642)   % G_Retail=L0_38__23_21L   C1_School_closing=3   H2_Testing_policy=2   
   (   0.99922   0.000260146   0.000260146   0.000260146)   % G_Retail=L_22_46__0_38L   C1_School_closing=3   H2_Testing_policy=2   
   (   0.995342   0.0015528   0.0015528   0.0015528)   % G_Retail=L_45_29___22_46L   C1_School_closing=3   H2_Testing_policy=2   
   (   0.25   0.25   0.25   0.25)   % G_Retail=L_68_13___45_29L   C1_School_closing=3   H2_Testing_policy=2   
   (   0.25   0.25   0.25   0.25)))   % G_Retail=L_90_97___68_13L   C1_School_closing=3   H2_Testing_policy=2   
   (((   0.25   0.25   0.25   0.25)   % G_Retail=L0_38__23_21L   C1_School_closing=0   H2_Testing_policy=3   
   (   0.25   0.25   0.25   0.25)   % G_Retail=L_22_46__0_38L   C1_School_closing=0   H2_Testing_policy=3   
   (   0.25   0.25   0.25   0.25)   % G_Retail=L_45_29___22_46L   C1_School_closing=0   H2_Testing_policy=3   
   (   0.25   0.25   0.25   0.25)   % G_Retail=L_68_13___45_29L   C1_School_closing=0   H2_Testing_policy=3   
   (   0.25   0.25   0.25   0.25))   % G_Retail=L_90_97___68_13L   C1_School_closing=0   H2_Testing_policy=3   
   ((   0.000173491   0.832929   0.166724   0.000173491)   % G_Retail=L0_38__23_21L   C1_School_closing=1   H2_Testing_policy=3   
   (   5.29549e-05   0.0847808   0.915113   5.29549e-05)   % G_Retail=L_22_46__0_38L   C1_School_closing=1   H2_Testing_policy=3   
   (   0.00308642   0.00308642   0.990741   0.00308642)   % G_Retail=L_45_29___22_46L   C1_School_closing=1   H2_Testing_policy=3   
   (   0.25   0.25   0.25   0.25)   % G_Retail=L_68_13___45_29L   C1_School_closing=1   H2_Testing_policy=3   
   (   0.25   0.25   0.25   0.25))   % G_Retail=L_90_97___68_13L   C1_School_closing=1   H2_Testing_policy=3   
   ((   0.00308642   0.00308642   0.990741   0.00308642)   % G_Retail=L0_38__23_21L   C1_School_closing=2   H2_Testing_policy=3   
   (   0.000173491   0.000173491   0.99948   0.000173491)   % G_Retail=L_22_46__0_38L   C1_School_closing=2   H2_Testing_policy=3   
   (   0.0015528   0.0015528   0.0015528   0.995342)   % G_Retail=L_45_29___22_46L   C1_School_closing=2   H2_Testing_policy=3   
   (   0.00031211   0.00031211   0.00031211   0.999064)   % G_Retail=L_68_13___45_29L   C1_School_closing=2   H2_Testing_policy=3   
   (   0.25   0.25   0.25   0.25))   % G_Retail=L_90_97___68_13L   C1_School_closing=2   H2_Testing_policy=3   
   ((   0.25   0.25   0.25   0.25)   % G_Retail=L0_38__23_21L   C1_School_closing=3   H2_Testing_policy=3   
   (   0.25   0.25   0.25   0.25)   % G_Retail=L_22_46__0_38L   C1_School_closing=3   H2_Testing_policy=3   
   (   0.25   0.25   0.25   0.25)   % G_Retail=L_45_29___22_46L   C1_School_closing=3   H2_Testing_policy=3   
   (   0.25   0.25   0.25   0.25)   % G_Retail=L_68_13___45_29L   C1_School_closing=3   H2_Testing_policy=3   
   (   0.25   0.25   0.25   0.25)))   % G_Retail=L_90_97___68_13L   C1_School_closing=3   H2_Testing_policy=3   
   (((   0.99883   0.000390016   0.000390016   0.000390016)   % G_Retail=L0_38__23_21L   C1_School_closing=0   H2_Testing_policy=No policy   
   (   0.995342   0.0015528   0.0015528   0.0015528)   % G_Retail=L_22_46__0_38L   C1_School_closing=0   H2_Testing_policy=No policy   
   (   0.25   0.25   0.25   0.25)   % G_Retail=L_45_29___22_46L   C1_School_closing=0   H2_Testing_policy=No policy   
   (   0.25   0.25   0.25   0.25)   % G_Retail=L_68_13___45_29L   C1_School_closing=0   H2_Testing_policy=No policy   
   (   0.25   0.25   0.25   0.25))   % G_Retail=L_90_97___68_13L   C1_School_closing=0   H2_Testing_policy=No policy   
   ((   0.25   0.25   0.25   0.25)   % G_Retail=L0_38__23_21L   C1_School_closing=1   H2_Testing_policy=No policy   
   (   0.25   0.25   0.25   0.25)   % G_Retail=L_22_46__0_38L   C1_School_closing=1   H2_Testing_policy=No policy   
   (   0.25   0.25   0.25   0.25)   % G_Retail=L_45_29___22_46L   C1_School_closing=1   H2_Testing_policy=No policy   
   (   0.25   0.25   0.25   0.25)   % G_Retail=L_68_13___45_29L   C1_School_closing=1   H2_Testing_policy=No policy   
   (   0.25   0.25   0.25   0.25))   % G_Retail=L_90_97___68_13L   C1_School_closing=1   H2_Testing_policy=No policy   
   ((   0.25   0.25   0.25   0.25)   % G_Retail=L0_38__23_21L   C1_School_closing=2   H2_Testing_policy=No policy   
   (   0.25   0.25   0.25   0.25)   % G_Retail=L_22_46__0_38L   C1_School_closing=2   H2_Testing_policy=No policy   
   (   0.25   0.25   0.25   0.25)   % G_Retail=L_45_29___22_46L   C1_School_closing=2   H2_Testing_policy=No policy   
   (   0.25   0.25   0.25   0.25)   % G_Retail=L_68_13___45_29L   C1_School_closing=2   H2_Testing_policy=No policy   
   (   0.25   0.25   0.25   0.25))   % G_Retail=L_90_97___68_13L   C1_School_closing=2   H2_Testing_policy=No policy   
   ((   0.25   0.25   0.25   0.25)   % G_Retail=L0_38__23_21L   C1_School_closing=3   H2_Testing_policy=No policy   
   (   0.25   0.25   0.25   0.25)   % G_Retail=L_22_46__0_38L   C1_School_closing=3   H2_Testing_policy=No policy   
   (   0.25   0.25   0.25   0.25)   % G_Retail=L_45_29___22_46L   C1_School_closing=3   H2_Testing_policy=No policy   
   (   0.25   0.25   0.25   0.25)   % G_Retail=L_68_13___45_29L   C1_School_closing=3   H2_Testing_policy=No policy   
   (   0.25   0.25   0.25   0.25))));   % G_Retail=L_90_97___68_13L   C1_School_closing=3   H2_Testing_policy=No policy   
}

potential ( C4_Restrictions_on_gatherings | G_Parks   C1_School_closing   ) {
   data = 
   (((   0.5   0.5)   % C1_School_closing=0   G_Parks=L135_62__207_35L   
   (   0.0010846   0.998915)   % C1_School_closing=1   G_Parks=L135_62__207_35L   
   (   0.5   0.5)   % C1_School_closing=2   G_Parks=L135_62__207_35L   
   (   0.5   0.5))   % C1_School_closing=3   G_Parks=L135_62__207_35L   
   ((   0.5   0.5)   % C1_School_closing=0   G_Parks=L207_35__279_09L   
   (   0.00177936   0.998221)   % C1_School_closing=1   G_Parks=L207_35__279_09L   
   (   0.5   0.5)   % C1_School_closing=2   G_Parks=L207_35__279_09L   
   (   0.5   0.5))   % C1_School_closing=3   G_Parks=L207_35__279_09L   
   ((   0.5   0.5)   % C1_School_closing=0   G_Parks=L63_88__135_62L   
   (   0.000780031   0.99922)   % C1_School_closing=1   G_Parks=L63_88__135_62L   
   (   0.00124688   0.998753)   % C1_School_closing=2   G_Parks=L63_88__135_62L   
   (   0.5   0.5))   % C1_School_closing=3   G_Parks=L63_88__135_62L   
   ((   0.0121951   0.987805)   % C1_School_closing=0   G_Parks=L_79_59___7_86L   
   (   0.5   0.5)   % C1_School_closing=1   G_Parks=L_79_59___7_86L   
   (   0.00177936   0.998221)   % C1_School_closing=2   G_Parks=L_79_59___7_86L   
   (   0.000438212   0.999562))   % C1_School_closing=3   G_Parks=L_79_59___7_86L   
   ((   0.998221   0.00177936)   % C1_School_closing=0   G_Parks=L_7_86__63_88L   
   (   0.00059453   0.999405)   % C1_School_closing=1   G_Parks=L_7_86__63_88L   
   (   0.000640205   0.99936)   % C1_School_closing=2   G_Parks=L_7_86__63_88L   
   (   0.00191571   0.998084)));   % C1_School_closing=3   G_Parks=L_7_86__63_88L   
}

potential ( C6_Stay_at_home_requirements | H6_Facial_Coverings   C2_Workplace_closing   C1_School_closing   ) {
   data = 
   ((((   0.99948   0.000260213   0.000260213)   % C1_School_closing=0   C2_Workplace_closing=0   H6_Facial_Coverings=0   
   (   0.333333   0.333333   0.333333)   % C1_School_closing=1   C2_Workplace_closing=0   H6_Facial_Coverings=0   
   (   0.333333   0.333333   0.333333)   % C1_School_closing=2   C2_Workplace_closing=0   H6_Facial_Coverings=0   
   (   0.999445   0.000277546   0.000277546))   % C1_School_closing=3   C2_Workplace_closing=0   H6_Facial_Coverings=0   
   ((   0.333333   0.333333   0.333333)   % C1_School_closing=0   C2_Workplace_closing=1   H6_Facial_Coverings=0   
   (   0.333333   0.333333   0.333333)   % C1_School_closing=1   C2_Workplace_closing=1   H6_Facial_Coverings=0   
   (   0.333333   0.333333   0.333333)   % C1_School_closing=2   C2_Workplace_closing=1   H6_Facial_Coverings=0   
   (   0.333333   0.333333   0.333333))   % C1_School_closing=3   C2_Workplace_closing=1   H6_Facial_Coverings=0   
   ((   0.333333   0.333333   0.333333)   % C1_School_closing=0   C2_Workplace_closing=2   H6_Facial_Coverings=0   
   (   0.333333   0.333333   0.333333)   % C1_School_closing=1   C2_Workplace_closing=2   H6_Facial_Coverings=0   
   (   0.333333   0.333333   0.333333)   % C1_School_closing=2   C2_Workplace_closing=2   H6_Facial_Coverings=0   
   (   0.333333   0.333333   0.333333))   % C1_School_closing=3   C2_Workplace_closing=2   H6_Facial_Coverings=0   
   ((   0.333333   0.333333   0.333333)   % C1_School_closing=0   C2_Workplace_closing=3   H6_Facial_Coverings=0   
   (   0.333333   0.333333   0.333333)   % C1_School_closing=1   C2_Workplace_closing=3   H6_Facial_Coverings=0   
   (   0.333333   0.333333   0.333333)   % C1_School_closing=2   C2_Workplace_closing=3   H6_Facial_Coverings=0   
   (   0.000101595   0.000101595   0.999797)))   % C1_School_closing=3   C2_Workplace_closing=3   H6_Facial_Coverings=0   
   (((   0.333333   0.333333   0.333333)   % C1_School_closing=0   C2_Workplace_closing=0   H6_Facial_Coverings=1   
   (   0.333333   0.333333   0.333333)   % C1_School_closing=1   C2_Workplace_closing=0   H6_Facial_Coverings=1   
   (   0.333333   0.333333   0.333333)   % C1_School_closing=2   C2_Workplace_closing=0   H6_Facial_Coverings=1   
   (   0.333333   0.333333   0.333333))   % C1_School_closing=3   C2_Workplace_closing=0   H6_Facial_Coverings=1   
   ((   0.333333   0.333333   0.333333)   % C1_School_closing=0   C2_Workplace_closing=1   H6_Facial_Coverings=1   
   (   0.999703   0.000148743   0.000148743)   % C1_School_closing=1   C2_Workplace_closing=1   H6_Facial_Coverings=1   
   (   0.333333   0.333333   0.333333)   % C1_School_closing=2   C2_Workplace_closing=1   H6_Facial_Coverings=1   
   (   0.333333   0.333333   0.333333))   % C1_School_closing=3   C2_Workplace_closing=1   H6_Facial_Coverings=1   
   ((   0.333333   0.333333   0.333333)   % C1_School_closing=0   C2_Workplace_closing=2   H6_Facial_Coverings=1   
   (   0.333333   0.333333   0.333333)   % C1_School_closing=1   C2_Workplace_closing=2   H6_Facial_Coverings=1   
   (   9.91768e-05   0.999802   9.91768e-05)   % C1_School_closing=2   C2_Workplace_closing=2   H6_Facial_Coverings=1   
   (   0.333333   0.333333   0.333333))   % C1_School_closing=3   C2_Workplace_closing=2   H6_Facial_Coverings=1   
   ((   0.333333   0.333333   0.333333)   % C1_School_closing=0   C2_Workplace_closing=3   H6_Facial_Coverings=1   
   (   0.333333   0.333333   0.333333)   % C1_School_closing=1   C2_Workplace_closing=3   H6_Facial_Coverings=1   
   (   0.333333   0.333333   0.333333)   % C1_School_closing=2   C2_Workplace_closing=3   H6_Facial_Coverings=1   
   (   0.333333   0.333333   0.333333)))   % C1_School_closing=3   C2_Workplace_closing=3   H6_Facial_Coverings=1   
   (((   0.333333   0.333333   0.333333)   % C1_School_closing=0   C2_Workplace_closing=0   H6_Facial_Coverings=2   
   (   0.333333   0.333333   0.333333)   % C1_School_closing=1   C2_Workplace_closing=0   H6_Facial_Coverings=2   
   (   0.333333   0.333333   0.333333)   % C1_School_closing=2   C2_Workplace_closing=0   H6_Facial_Coverings=2   
   (   0.333333   0.333333   0.333333))   % C1_School_closing=3   C2_Workplace_closing=0   H6_Facial_Coverings=2   
   ((   0.333333   0.333333   0.333333)   % C1_School_closing=0   C2_Workplace_closing=1   H6_Facial_Coverings=2   
   (   0.999405   0.000297354   0.000297354)   % C1_School_closing=1   C2_Workplace_closing=1   H6_Facial_Coverings=2   
   (   0.333333   0.333333   0.333333)   % C1_School_closing=2   C2_Workplace_closing=1   H6_Facial_Coverings=2   
   (   0.333333   0.333333   0.333333))   % C1_School_closing=3   C2_Workplace_closing=1   H6_Facial_Coverings=2   
   ((   0.333333   0.333333   0.333333)   % C1_School_closing=0   C2_Workplace_closing=2   H6_Facial_Coverings=2   
   (   0.333333   0.333333   0.333333)   % C1_School_closing=1   C2_Workplace_closing=2   H6_Facial_Coverings=2   
   (   0.333333   0.333333   0.333333)   % C1_School_closing=2   C2_Workplace_closing=2   H6_Facial_Coverings=2   
   (   0.333333   0.333333   0.333333))   % C1_School_closing=3   C2_Workplace_closing=2   H6_Facial_Coverings=2   
   ((   0.333333   0.333333   0.333333)   % C1_School_closing=0   C2_Workplace_closing=3   H6_Facial_Coverings=2   
   (   0.333333   0.333333   0.333333)   % C1_School_closing=1   C2_Workplace_closing=3   H6_Facial_Coverings=2   
   (   0.333333   0.333333   0.333333)   % C1_School_closing=2   C2_Workplace_closing=3   H6_Facial_Coverings=2   
   (   0.333333   0.333333   0.333333)))   % C1_School_closing=3   C2_Workplace_closing=3   H6_Facial_Coverings=2   
   (((   0.333333   0.333333   0.333333)   % C1_School_closing=0   C2_Workplace_closing=0   H6_Facial_Coverings=3   
   (   0.333333   0.333333   0.333333)   % C1_School_closing=1   C2_Workplace_closing=0   H6_Facial_Coverings=3   
   (   0.333333   0.333333   0.333333)   % C1_School_closing=2   C2_Workplace_closing=0   H6_Facial_Coverings=3   
   (   0.333333   0.333333   0.333333))   % C1_School_closing=3   C2_Workplace_closing=0   H6_Facial_Coverings=3   
   ((   0.333333   0.333333   0.333333)   % C1_School_closing=0   C2_Workplace_closing=1   H6_Facial_Coverings=3   
   (   0.999243   0.000378358   0.000378358)   % C1_School_closing=1   C2_Workplace_closing=1   H6_Facial_Coverings=3   
   (   0.333333   0.333333   0.333333)   % C1_School_closing=2   C2_Workplace_closing=1   H6_Facial_Coverings=3   
   (   0.333333   0.333333   0.333333))   % C1_School_closing=3   C2_Workplace_closing=1   H6_Facial_Coverings=3   
   ((   0.333333   0.333333   0.333333)   % C1_School_closing=0   C2_Workplace_closing=2   H6_Facial_Coverings=3   
   (   0.775767   7.18236e-05   0.224161)   % C1_School_closing=1   C2_Workplace_closing=2   H6_Facial_Coverings=3   
   (   0.999562   0.000219154   0.000219154)   % C1_School_closing=2   C2_Workplace_closing=2   H6_Facial_Coverings=3   
   (   0.333333   0.333333   0.333333))   % C1_School_closing=3   C2_Workplace_closing=2   H6_Facial_Coverings=3   
   ((   0.333333   0.333333   0.333333)   % C1_School_closing=0   C2_Workplace_closing=3   H6_Facial_Coverings=3   
   (   0.333333   0.333333   0.333333)   % C1_School_closing=1   C2_Workplace_closing=3   H6_Facial_Coverings=3   
   (   0.000346861   0.000346861   0.999306)   % C1_School_closing=2   C2_Workplace_closing=3   H6_Facial_Coverings=3   
   (   0.333333   0.333333   0.333333)))   % C1_School_closing=3   C2_Workplace_closing=3   H6_Facial_Coverings=3   
   (((   0.333333   0.333333   0.333333)   % C1_School_closing=0   C2_Workplace_closing=0   H6_Facial_Coverings=Recommended   
   (   0.333333   0.333333   0.333333)   % C1_School_closing=1   C2_Workplace_closing=0   H6_Facial_Coverings=Recommended   
   (   0.333333   0.333333   0.333333)   % C1_School_closing=2   C2_Workplace_closing=0   H6_Facial_Coverings=Recommended   
   (   0.333333   0.333333   0.333333))   % C1_School_closing=3   C2_Workplace_closing=0   H6_Facial_Coverings=Recommended   
   ((   0.333333   0.333333   0.333333)   % C1_School_closing=0   C2_Workplace_closing=1   H6_Facial_Coverings=Recommended   
   (   0.333333   0.333333   0.333333)   % C1_School_closing=1   C2_Workplace_closing=1   H6_Facial_Coverings=Recommended   
   (   0.333333   0.333333   0.333333)   % C1_School_closing=2   C2_Workplace_closing=1   H6_Facial_Coverings=Recommended   
   (   0.333333   0.333333   0.333333))   % C1_School_closing=3   C2_Workplace_closing=1   H6_Facial_Coverings=Recommended   
   ((   0.333333   0.333333   0.333333)   % C1_School_closing=0   C2_Workplace_closing=2   H6_Facial_Coverings=Recommended   
   (   0.333333   0.333333   0.333333)   % C1_School_closing=1   C2_Workplace_closing=2   H6_Facial_Coverings=Recommended   
   (   0.333333   0.333333   0.333333)   % C1_School_closing=2   C2_Workplace_closing=2   H6_Facial_Coverings=Recommended   
   (   0.333333   0.333333   0.333333))   % C1_School_closing=3   C2_Workplace_closing=2   H6_Facial_Coverings=Recommended   
   ((   0.333333   0.333333   0.333333)   % C1_School_closing=0   C2_Workplace_closing=3   H6_Facial_Coverings=Recommended   
   (   0.333333   0.333333   0.333333)   % C1_School_closing=1   C2_Workplace_closing=3   H6_Facial_Coverings=Recommended   
   (   0.333333   0.333333   0.333333)   % C1_School_closing=2   C2_Workplace_closing=3   H6_Facial_Coverings=Recommended   
   (   0.000297354   0.000297354   0.999405))));   % C1_School_closing=3   C2_Workplace_closing=3   H6_Facial_Coverings=Recommended   
}


