
net {
  name = unnamedBN;
  software = "aGrUM 0.18.2";
  node_size = (50 50);
}

node Deaths_per_Million {
   states = (L0_0__4_29L L12_88__17_17L L17_17__21_47L L4_29__8_59L L8_59__12_88L );
   label = "Deaths_per_Million";
   ID = "Deaths_per_Million";
}

node C6_Stay_at_home_requirements {
   states = (0 1 3 );
   label = "C6_Stay_at_home_requirements";
   ID = "C6_Stay_at_home_requirements";
}

potential (Deaths_per_Million) {
   data = (  0.801476 0.0191882 0.0154982 0.129889 0.0339483);
}

potential ( C6_Stay_at_home_requirements | Deaths_per_Million   ) {
   data = 
   ((   0.681707   0.179865   0.138428)   % Deaths_per_Million=L0_0__4_29L   
   (   0.0128205   0.0128205   0.974359)   % Deaths_per_Million=L12_88__17_17L   
   (   0.015873   0.015873   0.968254)   % Deaths_per_Million=L17_17__21_47L   
   (   0.00189394   0.0587121   0.939394)   % Deaths_per_Million=L4_29__8_59L   
   (   0.00724638   0.115942   0.876812));   % Deaths_per_Million=L8_59__12_88L   
}


