
net {
  name = unnamedBN;
  software = "aGrUM 0.18.2";
  node_size = (50 50);
}

node Cases_per_Million {
   states = (L0_0__372_91L L1118_72__1491_63L L1491_63__1864_53L L372_91__745_81L );
   label = "Cases_per_Million";
   ID = "Cases_per_Million";
}

node Deaths_per_Million {
   states = (L0_0__1_63L L1_63__3_27L L3_27__4_9L L6_53__8_17L );
   label = "Deaths_per_Million";
   ID = "Deaths_per_Million";
}

node G_Retail {
   states = (L2_27__19_46L L_14_93__2_27L L_32_12___14_93L L_66_51___49_32L );
   label = "G_Retail";
   ID = "G_Retail";
}

node G_Grocery_Pharmacy {
   states = (L10_66__22_33L L22_33__34_0L L_12_69___1_02L L_1_02__10_66L L_24_36___12_69L );
   label = "G_Grocery_Pharmacy";
   ID = "G_Grocery_Pharmacy";
}

node G_Parks {
   states = (L26_09__45_59L L45_59__65_09L L6_58__26_09L L_12_92__6_58L L_32_43___12_92L );
   label = "G_Parks";
   ID = "G_Parks";
}

node G_Transit {
   states = (L0_6__9_16L L_16_52___7_96L L_33_64___25_08L L_7_96__0_6L );
   label = "G_Transit";
   ID = "G_Transit";
}

node G_Workplace {
   states = (L_11_51___4_16L L_18_85___11_51L L_26_2___18_85L L_33_55___26_2L L_40_9___33_55L );
   label = "G_Workplace";
   ID = "G_Workplace";
}

node G_Residencial {
   states = (L0_49__4_09L L14_88__18_48L L4_09__7_68L L7_68__11_28L );
   label = "G_Residencial";
   ID = "G_Residencial";
}

potential ( Cases_per_Million | G_Workplace   ) {
   data = 
   ((   0.979167   0.00694444   0.00694444   0.00694444)   % G_Workplace=L_11_51___4_16L   
   (   0.685606   0.00378788   0.00378788   0.306818)   % G_Workplace=L_18_85___11_51L   
   (   0.0416667   0.0416667   0.0416667   0.875)   % G_Workplace=L_26_2___18_85L   
   (   0.145833   0.145833   0.00694444   0.701389)   % G_Workplace=L_33_55___26_2L   
   (   0.015625   0.015625   0.328125   0.640625));   % G_Workplace=L_40_9___33_55L   
}

potential ( Deaths_per_Million | G_Workplace   ) {
   data = 
   ((   0.979167   0.00694444   0.00694444   0.00694444)   % G_Workplace=L_11_51___4_16L   
   (   0.685606   0.231061   0.0795455   0.00378788)   % G_Workplace=L_18_85___11_51L   
   (   0.0416667   0.875   0.0416667   0.0416667)   % G_Workplace=L_26_2___18_85L   
   (   0.00694444   0.145833   0.840278   0.00694444)   % G_Workplace=L_33_55___26_2L   
   (   0.015625   0.015625   0.015625   0.953125));   % G_Workplace=L_40_9___33_55L   
}

potential ( G_Retail | G_Transit   ) {
   data = 
   ((   0.17   0.49   0.33   0.01)   % G_Transit=L0_6__9_16L   
   (   0.0147059   0.955882   0.0147059   0.0147059)   % G_Transit=L_16_52___7_96L   
   (   0.0277778   0.0277778   0.0277778   0.916667)   % G_Transit=L_33_64___25_08L   
   (   0.00324675   0.834416   0.159091   0.00324675));   % G_Transit=L_7_96__0_6L   
}

potential ( G_Grocery_Pharmacy | G_Retail   ) {
   data = 
   ((   0.04   0.84   0.04   0.04   0.04)   % G_Retail=L2_27__19_46L   
   (   0.0451613   0.00215054   0.174194   0.776344   0.00215054)   % G_Retail=L_14_93__2_27L   
   (   0.00952381   0.00952381   0.771429   0.2   0.00952381)   % G_Retail=L_32_12___14_93L   
   (   0.0222222   0.0222222   0.0222222   0.0222222   0.911111));   % G_Retail=L_66_51___49_32L   
}

potential ( G_Parks | G_Residencial   ) {
   data = 
   ((   0.348148   0.0518519   0.496296   0.101235   0.00246914)   % G_Residencial=L0_49__4_09L   
   (   0.0222222   0.0222222   0.0222222   0.0222222   0.911111)   % G_Residencial=L14_88__18_48L   
   (   0.808   0.168   0.008   0.008   0.008)   % G_Residencial=L4_09__7_68L   
   (   0.630769   0.323077   0.0153846   0.0153846   0.0153846));   % G_Residencial=L7_68__11_28L   
}

potential (G_Transit) {
   data = (  0.195312 0.132812 0.0703125 0.601562);
}

potential (G_Workplace) {
   data = (  0.225 0.4125 0.0375 0.225 0.1);
}

potential ( G_Residencial | G_Grocery_Pharmacy   G_Workplace   ) {
   data = 
   (((   0.25   0.25   0.25   0.25)   % G_Workplace=L_11_51___4_16L   G_Grocery_Pharmacy=L10_66__22_33L   
   (   0.25   0.25   0.25   0.25)   % G_Workplace=L_18_85___11_51L   G_Grocery_Pharmacy=L10_66__22_33L   
   (   0.25   0.25   0.25   0.25)   % G_Workplace=L_26_2___18_85L   G_Grocery_Pharmacy=L10_66__22_33L   
   (   0.00961538   0.00961538   0.971154   0.00961538)   % G_Workplace=L_33_55___26_2L   G_Grocery_Pharmacy=L10_66__22_33L   
   (   0.25   0.25   0.25   0.25))   % G_Workplace=L_40_9___33_55L   G_Grocery_Pharmacy=L10_66__22_33L   
   ((   0.25   0.25   0.25   0.25)   % G_Workplace=L_11_51___4_16L   G_Grocery_Pharmacy=L22_33__34_0L   
   (   0.25   0.25   0.25   0.25)   % G_Workplace=L_18_85___11_51L   G_Grocery_Pharmacy=L22_33__34_0L   
   (   0.25   0.25   0.25   0.25)   % G_Workplace=L_26_2___18_85L   G_Grocery_Pharmacy=L22_33__34_0L   
   (   0.971154   0.00961538   0.00961538   0.00961538)   % G_Workplace=L_33_55___26_2L   G_Grocery_Pharmacy=L22_33__34_0L   
   (   0.25   0.25   0.25   0.25))   % G_Workplace=L_40_9___33_55L   G_Grocery_Pharmacy=L22_33__34_0L   
   ((   0.994048   0.00198413   0.00198413   0.00198413)   % G_Workplace=L_11_51___4_16L   G_Grocery_Pharmacy=L_12_69___1_02L   
   (   0.495098   0.00490196   0.495098   0.00490196)   % G_Workplace=L_18_85___11_51L   G_Grocery_Pharmacy=L_12_69___1_02L   
   (   0.00961538   0.00961538   0.971154   0.00961538)   % G_Workplace=L_26_2___18_85L   G_Grocery_Pharmacy=L_12_69___1_02L   
   (   0.25   0.25   0.25   0.25)   % G_Workplace=L_33_55___26_2L   G_Grocery_Pharmacy=L_12_69___1_02L   
   (   0.25   0.25   0.25   0.25))   % G_Workplace=L_40_9___33_55L   G_Grocery_Pharmacy=L_12_69___1_02L   
   ((   0.985294   0.00490196   0.00490196   0.00490196)   % G_Workplace=L_11_51___4_16L   G_Grocery_Pharmacy=L_1_02__10_66L   
   (   0.997283   0.000905797   0.000905797   0.000905797)   % G_Workplace=L_18_85___11_51L   G_Grocery_Pharmacy=L_1_02__10_66L   
   (   0.25   0.25   0.25   0.25)   % G_Workplace=L_26_2___18_85L   G_Grocery_Pharmacy=L_1_02__10_66L   
   (   0.00247525   0.00247525   0.74505   0.25)   % G_Workplace=L_33_55___26_2L   G_Grocery_Pharmacy=L_1_02__10_66L   
   (   0.00490196   0.00490196   0.00490196   0.985294))   % G_Workplace=L_40_9___33_55L   G_Grocery_Pharmacy=L_1_02__10_66L   
   ((   0.25   0.25   0.25   0.25)   % G_Workplace=L_11_51___4_16L   G_Grocery_Pharmacy=L_24_36___12_69L   
   (   0.25   0.25   0.25   0.25)   % G_Workplace=L_18_85___11_51L   G_Grocery_Pharmacy=L_24_36___12_69L   
   (   0.25   0.25   0.25   0.25)   % G_Workplace=L_26_2___18_85L   G_Grocery_Pharmacy=L_24_36___12_69L   
   (   0.00961538   0.971154   0.00961538   0.00961538)   % G_Workplace=L_33_55___26_2L   G_Grocery_Pharmacy=L_24_36___12_69L   
   (   0.00961538   0.971154   0.00961538   0.00961538)));   % G_Workplace=L_40_9___33_55L   G_Grocery_Pharmacy=L_24_36___12_69L   
}


