
net {
  name = unnamedBN;
  software = "aGrUM 0.18.2";
  node_size = (50 50);
}

node Cases_per_Million {
   states = (L0_0__374_43L L1123_28__1497_7L L1497_7__1872_13L L374_43__748_85L L748_85__1123_28L );
   label = "Cases_per_Million";
   ID = "Cases_per_Million";
}

node Deaths_per_Million {
   states = (L0_0__4_29L L12_88__17_17L L17_17__21_47L L4_29__8_59L L8_59__12_88L );
   label = "Deaths_per_Million";
   ID = "Deaths_per_Million";
}

node G_Retail {
   states = (L0_38__23_21L L_22_46__0_38L L_45_29___22_46L L_68_13___45_29L L_90_97___68_13L );
   label = "G_Retail";
   ID = "G_Retail";
}

node G_Grocery_Pharmacy {
   states = (L17_78__44_34L L_35_32___8_77L L_61_87___35_32L L_88_43___61_87L L_8_77__17_78L );
   label = "G_Grocery_Pharmacy";
   ID = "G_Grocery_Pharmacy";
}

node G_Parks {
   states = (L135_62__207_35L L207_35__279_09L L63_88__135_62L L_79_59___7_86L L_7_86__63_88L );
   label = "G_Parks";
   ID = "G_Parks";
}

node G_Transit {
   states = (L10_49__43_38L L43_38__76_27L L_22_4__10_49L L_55_29___22_4L L_88_18___55_29L );
   label = "G_Transit";
   ID = "G_Transit";
}

node G_Workplace {
   states = (L_0_47__21_42L L_22_36___0_47L L_44_25___22_36L L_66_14___44_25L L_88_03___66_14L );
   label = "G_Workplace";
   ID = "G_Workplace";
}

node G_Residencial {
   states = (L13_31__22_37L L22_37__31_43L L31_43__40_49L L4_25__13_31L L_4_81__4_25L );
   label = "G_Residencial";
   ID = "G_Residencial";
}

potential (Cases_per_Million) {
   data = (  0.904797 0.00442804 0.00811808 0.0708487 0.0118081);
}

potential ( Deaths_per_Million | G_Parks   ) {
   data = 
   ((   0.993103   0.00172414   0.00172414   0.00172414   0.00172414)   % G_Parks=L135_62__207_35L   
   (   0.988732   0.0028169   0.0028169   0.0028169   0.0028169)   % G_Parks=L207_35__279_09L   
   (   0.977778   0.000766284   0.000766284   0.0199234   0.000766284)   % G_Parks=L63_88__135_62L   
   (   0.38306   0.0688525   0.0415301   0.396721   0.109836)   % G_Parks=L_79_59___7_86L   
   (   0.933826   0.000369686   0.00961183   0.0465804   0.00961183));   % G_Parks=L_7_86__63_88L   
}

potential ( G_Retail | G_Transit   ) {
   data = 
   ((   0.535878   0.459542   0.00152672   0.00152672   0.00152672)   % G_Transit=L10_49__43_38L   
   (   0.330435   0.656522   0.00434783   0.00434783   0.00434783)   % G_Transit=L43_38__76_27L   
   (   0.18941   0.786989   0.0229955   0.000302572   0.000302572)   % G_Transit=L_22_4__10_49L   
   (   0.000865801   0.238961   0.477056   0.282251   0.000865801)   % G_Transit=L_55_29___22_4L   
   (   0.000699301   0.000699301   0.000699301   0.105594   0.892308));   % G_Transit=L_88_18___55_29L   
}

potential ( G_Grocery_Pharmacy | G_Retail   ) {
   data = 
   ((   0.380095   0.000947867   0.000947867   0.000947867   0.617062)   % G_Retail=L0_38__23_21L   
   (   0.0003003   0.00780781   0.0003003   0.0003003   0.991291)   % G_Retail=L_22_46__0_38L   
   (   0.0809524   0.2   0.0809524   0.0015873   0.636508)   % G_Retail=L_45_29___22_46L   
   (   0.00208333   0.8875   0.0541667   0.00208333   0.0541667)   % G_Retail=L_68_13___45_29L   
   (   0.00078125   0.157031   0.703906   0.1375   0.00078125));   % G_Retail=L_90_97___68_13L   
}

potential ( G_Parks | G_Transit   ) {
   data = 
   ((   0.192366   0.192366   0.345038   0.0778626   0.192366)   % G_Transit=L10_49__43_38L   
   (   0.982609   0.00434783   0.00434783   0.00434783   0.00434783)   % G_Transit=L43_38__76_27L   
   (   0.0683812   0.0683812   0.29531   0.00786687   0.560061)   % G_Transit=L_22_4__10_49L   
   (   0.000865801   0.000865801   0.0658009   0.303896   0.628571)   % G_Transit=L_55_29___22_4L   
   (   0.000699301   0.000699301   0.0181818   0.97972   0.000699301));   % G_Transit=L_88_18___55_29L   
}

potential ( G_Transit | G_Residencial   ) {
   data = 
   ((   0.00128205   0.00128205   0.0333333   0.45   0.514103)   % G_Residencial=L13_31__22_37L   
   (   0.0013245   0.0013245   0.0013245   0.0013245   0.994702)   % G_Residencial=L22_37__31_43L   
   (   0.00392157   0.00392157   0.00392157   0.00392157   0.984314)   % G_Residencial=L31_43__40_49L   
   (   0.0891353   0.000443459   0.588027   0.310865   0.0115299)   % G_Residencial=L4_25__13_31L   
   (   0.165201   0.0827839   0.714652   0.0369963   0.0003663));   % G_Residencial=L_4_81__4_25L   
}

potential ( G_Workplace | G_Residencial   ) {
   data = 
   ((   0.00128205   0.00128205   0.514103   0.385897   0.0974359)   % G_Residencial=L13_31__22_37L   
   (   0.0013245   0.0013245   0.0013245   0.663576   0.33245)   % G_Residencial=L22_37__31_43L   
   (   0.00392157   0.00392157   0.00392157   0.101961   0.886275)   % G_Residencial=L31_43__40_49L   
   (   0.000443459   0.0891353   0.754324   0.155654   0.000443459)   % G_Residencial=L4_25__13_31L   
   (   0.238462   0.632234   0.128571   0.0003663   0.0003663));   % G_Residencial=L_4_81__4_25L   
}

potential (G_Residencial) {
   data = (  0.115129 0.111439 0.0376384 0.332841 0.402952);
}


