
net {
  name = unnamedBN;
  software = "aGrUM 0.18.2";
  node_size = (50 50);
}

node Cases_per_Million {
   states = (L0_0__5_62L L11_23__16_85L L16_85__22_46L L22_46__28_08L L5_62__11_23L );
   label = "Cases_per_Million";
   ID = "Cases_per_Million";
}

node H6_Facial_Coverings {
   states = (0 1 3 );
   label = "H6_Facial_Coverings";
   ID = "H6_Facial_Coverings";
}

potential (Cases_per_Million) {
   data = (  0.760886 0.096679 0.0265683 0.0154982 0.100369);
}

potential ( H6_Facial_Coverings | Cases_per_Million   ) {
   data = 
   ((   0.61623   0.000323311   0.383446)   % Cases_per_Million=L0_0__5_62L   
   (   0.26972   0.307888   0.422392)   % Cases_per_Million=L11_23__16_85L   
   (   0.425926   0.425926   0.148148)   % Cases_per_Million=L16_85__22_46L   
   (   0.015873   0.253968   0.730159)   % Cases_per_Million=L22_46__28_08L   
   (   0.443627   0.186275   0.370098));   % Cases_per_Million=L5_62__11_23L   
}


