
net {
  name = unnamedBN;
  software = "aGrUM 0.18.2";
  node_size = (50 50);
}

node Cases_per_Million {
   states = (L0_27__2_6L L2_6__4_92L L4_92__7_24L L7_24__9_56L L9_56__11_88L );
   label = "Cases_per_Million";
   ID = "Cases_per_Million";
}

node Deaths_per_Million {
   states = (L0_06__0_13L L0_0__0_06L L0_13__0_19L L0_19__0_25L L0_25__0_31L );
   label = "Deaths_per_Million";
   ID = "Deaths_per_Million";
}

node G_Retail {
   states = (L_36_34___26_71L L_45_97___36_34L L_55_6___45_97L L_65_24___55_6L L_74_87___65_24L );
   label = "G_Retail";
   ID = "G_Retail";
}

node G_Grocery_Pharmacy {
   states = (L0_5__15_68L L_14_69__0_5L L_29_87___14_69L L_45_05___29_87L L_60_23___45_05L );
   label = "G_Grocery_Pharmacy";
   ID = "G_Grocery_Pharmacy";
}

node G_Parks {
   states = (L_16_8___7_62L L_25_98___16_8L L_35_16___25_98L L_44_34___35_16L L_7_62__1_56L );
   label = "G_Parks";
   ID = "G_Parks";
}

node G_Transit {
   states = (L_50_11___44_89L L_55_32___50_11L L_65_74___60_53L L_70_95___65_74L );
   label = "G_Transit";
   ID = "G_Transit";
}

node G_Workplace {
   states = (L_40_19___29_76L L_50_61___40_19L L_81_9___71_47L );
   label = "G_Workplace";
   ID = "G_Workplace";
}

node G_Residencial {
   states = (L12_58__16_86L L16_86__21_14L L25_42__29_7L L29_7__33_98L );
   label = "G_Residencial";
   ID = "G_Residencial";
}

potential (Cases_per_Million) {
   data = (  0.619355 0.2 0.0387097 0.0709677 0.0709677);
}

potential (Deaths_per_Million) {
   data = (  0.296774 0.393548 0.103226 0.167742 0.0387097);
}

potential (G_Retail) {
   data = (  0.425806 0.458065 0.0387097 0.0387097 0.0387097);
}

potential ( G_Grocery_Pharmacy | G_Retail   G_Residencial   ) {
   data = 
   (((   0.961905   0.00952381   0.00952381   0.00952381   0.00952381)   % G_Residencial=L12_58__16_86L   G_Retail=L_36_34___26_71L   
   (   0.249793   0.747718   0.000829876   0.000829876   0.000829876)   % G_Residencial=L16_86__21_14L   G_Retail=L_36_34___26_71L   
   (   0.2   0.2   0.2   0.2   0.2)   % G_Residencial=L25_42__29_7L   G_Retail=L_36_34___26_71L   
   (   0.2   0.2   0.2   0.2   0.2))   % G_Residencial=L29_7__33_98L   G_Retail=L_36_34___26_71L   
   ((   0.00327869   0.986885   0.00327869   0.00327869   0.00327869)   % G_Residencial=L12_58__16_86L   G_Retail=L_45_97___36_34L   
   (   0.000995025   0.99602   0.000995025   0.000995025   0.000995025)   % G_Residencial=L16_86__21_14L   G_Retail=L_45_97___36_34L   
   (   0.00952381   0.00952381   0.961905   0.00952381   0.00952381)   % G_Residencial=L25_42__29_7L   G_Retail=L_45_97___36_34L   
   (   0.2   0.2   0.2   0.2   0.2))   % G_Residencial=L29_7__33_98L   G_Retail=L_45_97___36_34L   
   ((   0.2   0.2   0.2   0.2   0.2)   % G_Residencial=L12_58__16_86L   G_Retail=L_55_6___45_97L   
   (   0.00952381   0.00952381   0.961905   0.00952381   0.00952381)   % G_Residencial=L16_86__21_14L   G_Retail=L_55_6___45_97L   
   (   0.2   0.2   0.2   0.2   0.2)   % G_Residencial=L25_42__29_7L   G_Retail=L_55_6___45_97L   
   (   0.2   0.2   0.2   0.2   0.2))   % G_Residencial=L29_7__33_98L   G_Retail=L_55_6___45_97L   
   ((   0.00952381   0.00952381   0.00952381   0.961905   0.00952381)   % G_Residencial=L12_58__16_86L   G_Retail=L_65_24___55_6L   
   (   0.2   0.2   0.2   0.2   0.2)   % G_Residencial=L16_86__21_14L   G_Retail=L_65_24___55_6L   
   (   0.2   0.2   0.2   0.2   0.2)   % G_Residencial=L25_42__29_7L   G_Retail=L_65_24___55_6L   
   (   0.2   0.2   0.2   0.2   0.2))   % G_Residencial=L29_7__33_98L   G_Retail=L_65_24___55_6L   
   ((   0.2   0.2   0.2   0.2   0.2)   % G_Residencial=L12_58__16_86L   G_Retail=L_74_87___65_24L   
   (   0.2   0.2   0.2   0.2   0.2)   % G_Residencial=L16_86__21_14L   G_Retail=L_74_87___65_24L   
   (   0.2   0.2   0.2   0.2   0.2)   % G_Residencial=L25_42__29_7L   G_Retail=L_74_87___65_24L   
   (   0.00952381   0.00952381   0.00952381   0.00952381   0.961905)));   % G_Residencial=L29_7__33_98L   G_Retail=L_74_87___65_24L   
}

potential (G_Parks) {
   data = (  0.167742 0.329032 0.2 0.232258 0.0709677);
}

potential ( G_Transit | G_Retail   ) {
   data = 
   ((   0.761364   0.231061   0.00378788   0.00378788)   % G_Retail=L_36_34___26_71L   
   (   0.285211   0.637324   0.0739437   0.00352113)   % G_Retail=L_45_97___36_34L   
   (   0.875   0.0416667   0.0416667   0.0416667)   % G_Retail=L_55_6___45_97L   
   (   0.0416667   0.875   0.0416667   0.0416667)   % G_Retail=L_65_24___55_6L   
   (   0.0416667   0.0416667   0.0416667   0.875));   % G_Retail=L_74_87___65_24L   
}

potential ( G_Workplace | G_Transit   G_Grocery_Pharmacy   ) {
   data = 
   (((   0.661202   0.333333   0.00546448)   % G_Grocery_Pharmacy=L0_5__15_68L   G_Transit=L_50_11___44_89L   
   (   0.996983   0.0015083   0.0015083)   % G_Grocery_Pharmacy=L_14_69__0_5L   G_Transit=L_50_11___44_89L   
   (   0.015873   0.968254   0.015873)   % G_Grocery_Pharmacy=L_29_87___14_69L   G_Transit=L_50_11___44_89L   
   (   0.333333   0.333333   0.333333)   % G_Grocery_Pharmacy=L_45_05___29_87L   G_Transit=L_50_11___44_89L   
   (   0.333333   0.333333   0.333333))   % G_Grocery_Pharmacy=L_60_23___45_05L   G_Transit=L_50_11___44_89L   
   ((   0.015873   0.968254   0.015873)   % G_Grocery_Pharmacy=L0_5__15_68L   G_Transit=L_55_32___50_11L   
   (   0.72549   0.273002   0.0015083)   % G_Grocery_Pharmacy=L_14_69__0_5L   G_Transit=L_55_32___50_11L   
   (   0.333333   0.333333   0.333333)   % G_Grocery_Pharmacy=L_29_87___14_69L   G_Transit=L_55_32___50_11L   
   (   0.015873   0.968254   0.015873)   % G_Grocery_Pharmacy=L_45_05___29_87L   G_Transit=L_55_32___50_11L   
   (   0.333333   0.333333   0.333333))   % G_Grocery_Pharmacy=L_60_23___45_05L   G_Transit=L_55_32___50_11L   
   ((   0.333333   0.333333   0.333333)   % G_Grocery_Pharmacy=L0_5__15_68L   G_Transit=L_65_74___60_53L   
   (   0.333333   0.333333   0.333333)   % G_Grocery_Pharmacy=L_14_69__0_5L   G_Transit=L_65_74___60_53L   
   (   0.015873   0.015873   0.968254)   % G_Grocery_Pharmacy=L_29_87___14_69L   G_Transit=L_65_74___60_53L   
   (   0.333333   0.333333   0.333333)   % G_Grocery_Pharmacy=L_45_05___29_87L   G_Transit=L_65_74___60_53L   
   (   0.333333   0.333333   0.333333))   % G_Grocery_Pharmacy=L_60_23___45_05L   G_Transit=L_65_74___60_53L   
   ((   0.333333   0.333333   0.333333)   % G_Grocery_Pharmacy=L0_5__15_68L   G_Transit=L_70_95___65_74L   
   (   0.333333   0.333333   0.333333)   % G_Grocery_Pharmacy=L_14_69__0_5L   G_Transit=L_70_95___65_74L   
   (   0.333333   0.333333   0.333333)   % G_Grocery_Pharmacy=L_29_87___14_69L   G_Transit=L_70_95___65_74L   
   (   0.333333   0.333333   0.333333)   % G_Grocery_Pharmacy=L_45_05___29_87L   G_Transit=L_70_95___65_74L   
   (   0.015873   0.015873   0.968254)));   % G_Grocery_Pharmacy=L_60_23___45_05L   G_Transit=L_70_95___65_74L   
}

potential ( G_Residencial | G_Transit   ) {
   data = 
   ((   0.20082   0.790984   0.00409836   0.00409836)   % G_Transit=L_50_11___44_89L   
   (   0.15566   0.834906   0.00471698   0.00471698)   % G_Transit=L_55_32___50_11L   
   (   0.05   0.05   0.85   0.05)   % G_Transit=L_65_74___60_53L   
   (   0.05   0.05   0.05   0.85));   % G_Transit=L_70_95___65_74L   
}


