
net {
  name = unnamedBN;
  software = "aGrUM 0.18.2";
  node_size = (50 50);
}

node Cases_per_Million {
   states = (L0_0__5_62L L11_23__16_85L L16_85__22_46L L22_46__28_08L L5_62__11_23L );
   label = "Cases_per_Million";
   ID = "Cases_per_Million";
}

node Deaths_per_Million {
   states = (L0_0__0_46L L0_46__0_93L L0_93__1_39L L1_39__1_85L L1_85__2_31L );
   label = "Deaths_per_Million";
   ID = "Deaths_per_Million";
}

node G_Retail {
   states = (L_10_89__5_11L L_26_88___10_89L L_42_88___26_88L L_58_87___42_88L L_74_87___58_87L );
   label = "G_Retail";
   ID = "G_Retail";
}

node G_Grocery_Pharmacy {
   states = (L16_8__36_06L L_21_72___2_46L L_2_46__16_8L L_40_98___21_72L L_60_23___40_98L );
   label = "G_Grocery_Pharmacy";
   ID = "G_Grocery_Pharmacy";
}

node G_Parks {
   states = (L20_52__36_73L L4_31__20_52L L_11_91__4_31L L_28_12___11_91L L_44_34___28_12L );
   label = "G_Parks";
   ID = "G_Parks";
}

node G_Transit {
   states = (L_19_64___2_54L L_2_54__14_57L L_36_74___19_64L L_53_85___36_74L L_70_95___53_85L );
   label = "G_Transit";
   ID = "G_Transit";
}

node G_Workplace {
   states = (L_22_4___2_57L L_2_57__17_26L L_42_24___22_4L L_62_07___42_24L L_81_9___62_07L );
   label = "G_Workplace";
   ID = "G_Workplace";
}

node G_Residencial {
   states = (L11_88__19_24L L19_24__26_61L L26_61__33_98L L4_51__11_88L L_2_86__4_51L );
   label = "G_Residencial";
   ID = "G_Residencial";
}

potential ( Cases_per_Million | Deaths_per_Million   ) {
   data = 
   ((   0.809223   0.0770227   0.028479   0.00825243   0.0770227)   % Deaths_per_Million=L0_0__0_46L   
   (   0.210417   0.366667   0.00208333   0.10625   0.314583)   % Deaths_per_Million=L0_46__0_93L   
   (   0.0181818   0.0181818   0.0181818   0.0181818   0.927273)   % Deaths_per_Million=L0_93__1_39L   
   (   0.866667   0.0333333   0.0333333   0.0333333   0.0333333)   % Deaths_per_Million=L1_39__1_85L   
   (   0.866667   0.0333333   0.0333333   0.0333333   0.0333333));   % Deaths_per_Million=L1_85__2_31L   
}

potential ( Deaths_per_Million | G_Grocery_Pharmacy   ) {
   data = 
   ((   0.985714   0.00357143   0.00357143   0.00357143   0.00357143)   % G_Grocery_Pharmacy=L16_8__36_06L   
   (   0.781731   0.16875   0.0245192   0.0125   0.0125)   % G_Grocery_Pharmacy=L_21_72___2_46L   
   (   0.981649   0.0176539   0.000232288   0.000232288   0.000232288)   % G_Grocery_Pharmacy=L_2_46__16_8L   
   (   0.325   0.6375   0.0125   0.0125   0.0125)   % G_Grocery_Pharmacy=L_40_98___21_72L   
   (   0.866667   0.0333333   0.0333333   0.0333333   0.0333333));   % G_Grocery_Pharmacy=L_60_23___40_98L   
}

potential (G_Retail) {
   data = (  0.277491 0.465683 0.24059 0.0118081 0.00442804);
}

potential ( G_Grocery_Pharmacy | G_Retail   ) {
   data = 
   ((   0.106915   0.000531915   0.891489   0.000531915   0.000531915)   % G_Retail=L_10_89__5_11L   
   (   0.0240887   0.261807   0.713471   0.000316957   0.000316957)   % G_Retail=L_26_88___10_89L   
   (   0.000613497   0.73681   0.230675   0.0312883   0.000613497)   % G_Retail=L_42_88___26_88L   
   (   0.0125   0.6375   0.0125   0.325   0.0125)   % G_Retail=L_58_87___42_88L   
   (   0.0333333   0.0333333   0.0333333   0.0333333   0.866667));   % G_Retail=L_74_87___58_87L   
}

potential ( G_Parks | G_Grocery_Pharmacy   ) {
   data = 
   ((   0.00357143   0.00357143   0.45   0.539286   0.00357143)   % G_Grocery_Pharmacy=L16_8__36_06L   
   (   0.0605769   0.0966346   0.108654   0.469231   0.264904)   % G_Grocery_Pharmacy=L_21_72___2_46L   
   (   0.0583043   0.215099   0.470616   0.23252   0.0234611)   % G_Grocery_Pharmacy=L_2_46__16_8L   
   (   0.0125   0.0125   0.0125   0.325   0.6375)   % G_Grocery_Pharmacy=L_40_98___21_72L   
   (   0.0333333   0.0333333   0.0333333   0.866667   0.0333333));   % G_Grocery_Pharmacy=L_60_23___40_98L   
}

potential ( G_Transit | G_Retail   ) {
   data = 
   ((   0.120213   0.372872   0.505851   0.000531915   0.000531915)   % G_Retail=L_10_89__5_11L   
   (   0.0161648   0.000316957   0.776862   0.206339   0.000316957)   % G_Retail=L_26_88___10_89L   
   (   0.000613497   0.000613497   0.000613497   0.782822   0.215337)   % G_Retail=L_42_88___26_88L   
   (   0.0125   0.0125   0.0125   0.6375   0.325)   % G_Retail=L_58_87___42_88L   
   (   0.0333333   0.0333333   0.0333333   0.0333333   0.866667));   % G_Retail=L_74_87___58_87L   
}

potential ( G_Workplace | G_Transit   ) {
   data = 
   ((   0.45   0.539286   0.00357143   0.00357143   0.00357143)   % G_Transit=L_19_64___2_54L   
   (   0.00141844   0.994326   0.00141844   0.00141844   0.00141844)   % G_Transit=L_2_54__14_57L   
   (   0.859325   0.000293686   0.139794   0.000293686   0.000293686)   % G_Transit=L_36_74___19_64L   
   (   0.114141   0.000505051   0.833838   0.0510101   0.000505051)   % G_Transit=L_53_85___36_74L   
   (   0.00246914   0.00246914   0.804938   0.0641975   0.125926));   % G_Transit=L_70_95___53_85L   
}

potential ( G_Residencial | G_Retail   G_Transit   ) {
   data = 
   (((   0.000884956   0.000884956   0.000884956   0.553982   0.443363)   % G_Transit=L_19_64___2_54L   G_Retail=L_10_89__5_11L   
   (   0.000285307   0.000285307   0.000285307   0.000285307   0.998859)   % G_Transit=L_2_54__14_57L   G_Retail=L_10_89__5_11L   
   (   0.000210305   0.000210305   0.000210305   0.920294   0.0790747)   % G_Transit=L_36_74___19_64L   G_Retail=L_10_89__5_11L   
   (   0.2   0.2   0.2   0.2   0.2)   % G_Transit=L_53_85___36_74L   G_Retail=L_10_89__5_11L   
   (   0.2   0.2   0.2   0.2   0.2))   % G_Transit=L_70_95___53_85L   G_Retail=L_10_89__5_11L   
   ((   0.00392157   0.00392157   0.00392157   0.984314   0.00392157)   % G_Transit=L_19_64___2_54L   G_Retail=L_26_88___10_89L   
   (   0.2   0.2   0.2   0.2   0.2)   % G_Transit=L_2_54__14_57L   G_Retail=L_26_88___10_89L   
   (   0.14288   8.15993e-05   8.15993e-05   0.856875   8.15993e-05)   % G_Transit=L_36_74___19_64L   G_Retail=L_26_88___10_89L   
   (   0.691551   0.00030722   0.00030722   0.307527   0.00030722)   % G_Transit=L_53_85___36_74L   G_Retail=L_26_88___10_89L   
   (   0.2   0.2   0.2   0.2   0.2))   % G_Transit=L_70_95___53_85L   G_Retail=L_26_88___10_89L   
   ((   0.2   0.2   0.2   0.2   0.2)   % G_Transit=L_19_64___2_54L   G_Retail=L_42_88___26_88L   
   (   0.2   0.2   0.2   0.2   0.2)   % G_Transit=L_2_54__14_57L   G_Retail=L_42_88___26_88L   
   (   0.2   0.2   0.2   0.2   0.2)   % G_Transit=L_36_74___19_64L   G_Retail=L_42_88___26_88L   
   (   0.783856   0.156897   0.00015674   0.0589342   0.00015674)   % G_Transit=L_53_85___36_74L   G_Retail=L_42_88___26_88L   
   (   0.784046   0.000569801   0.0717949   0.14302   0.000569801))   % G_Transit=L_70_95___53_85L   G_Retail=L_42_88___26_88L   
   ((   0.2   0.2   0.2   0.2   0.2)   % G_Transit=L_19_64___2_54L   G_Retail=L_58_87___42_88L   
   (   0.2   0.2   0.2   0.2   0.2)   % G_Transit=L_2_54__14_57L   G_Retail=L_58_87___42_88L   
   (   0.2   0.2   0.2   0.2   0.2)   % G_Transit=L_36_74___19_64L   G_Retail=L_58_87___42_88L   
   (   0.984314   0.00392157   0.00392157   0.00392157   0.00392157)   % G_Transit=L_53_85___36_74L   G_Retail=L_58_87___42_88L   
   (   0.969231   0.00769231   0.00769231   0.00769231   0.00769231))   % G_Transit=L_70_95___53_85L   G_Retail=L_58_87___42_88L   
   ((   0.2   0.2   0.2   0.2   0.2)   % G_Transit=L_19_64___2_54L   G_Retail=L_74_87___58_87L   
   (   0.2   0.2   0.2   0.2   0.2)   % G_Transit=L_2_54__14_57L   G_Retail=L_74_87___58_87L   
   (   0.2   0.2   0.2   0.2   0.2)   % G_Transit=L_36_74___19_64L   G_Retail=L_74_87___58_87L   
   (   0.2   0.2   0.2   0.2   0.2)   % G_Transit=L_53_85___36_74L   G_Retail=L_74_87___58_87L   
   (   0.00769231   0.00769231   0.969231   0.00769231   0.00769231)));   % G_Transit=L_70_95___53_85L   G_Retail=L_74_87___58_87L   
}


