
net {
  name = unnamedBN;
  software = "aGrUM 0.18.2";
  node_size = (50 50);
}

node Cases_per_Million {
   states = (L0_0__3_9L L11_69__15_59L L15_59__19_49L L3_9__7_8L L7_8__11_69L );
   label = "Cases_per_Million";
   ID = "Cases_per_Million";
}

node Deaths_per_Million {
   states = (L0_04__0_08L L0_08__0_12L L0_0__0_04L L0_16__0_2L );
   label = "Deaths_per_Million";
   ID = "Deaths_per_Million";
}

node G_Retail {
   states = (L_15_23___6_01L L_24_46___15_23L L_33_68___24_46L L_42_91___33_68L L_6_01__3_22L );
   label = "G_Retail";
   ID = "G_Retail";
}

node G_Grocery_Pharmacy {
   states = (L16_03__26_04L L26_04__36_06L L6_02__16_03L L_14_01___4_0L L_4_0__6_02L );
   label = "G_Grocery_Pharmacy";
   ID = "G_Grocery_Pharmacy";
}

node G_Parks {
   states = (L7_29__16_4L L_10_93___1_82L L_1_82__7_29L L_20_05___10_93L L_29_16___20_05L );
   label = "G_Parks";
   ID = "G_Parks";
}

node G_Transit {
   states = (L_13_36___1_07L L_1_07__11_23L L_25_65___13_36L L_37_95___25_65L L_50_24___37_95L );
   label = "G_Transit";
   ID = "G_Transit";
}

node G_Workplace {
   states = (L5_6__16_25L L_15_71___5_06L L_26_36___15_71L L_37_02___26_36L L_5_06__5_6L );
   label = "G_Workplace";
   ID = "G_Workplace";
}

node G_Residencial {
   states = (L10_21__14_36L L14_36__18_51L L1_91__6_06L L6_06__10_21L L_2_24__1_91L );
   label = "G_Residencial";
   ID = "G_Residencial";
}

potential ( Cases_per_Million | G_Grocery_Pharmacy   ) {
   data = 
   ((   0.490323   0.00645161   0.00645161   0.490323   0.00645161)   % G_Grocery_Pharmacy=L16_03__26_04L   
   (   0.72381   0.00952381   0.00952381   0.247619   0.00952381)   % G_Grocery_Pharmacy=L26_04__36_06L   
   (   0.836364   0.0030303   0.0787879   0.0030303   0.0787879)   % G_Grocery_Pharmacy=L6_02__16_03L   
   (   0.00952381   0.485714   0.247619   0.247619   0.00952381)   % G_Grocery_Pharmacy=L_14_01___4_0L   
   (   0.00952381   0.72381   0.247619   0.00952381   0.00952381));   % G_Grocery_Pharmacy=L_4_0__6_02L   
}

potential (Deaths_per_Million) {
   data = (  0.289062 0.0703125 0.601562 0.0390625);
}

potential ( G_Retail | G_Workplace   Cases_per_Million   ) {
   data = 
   (((   0.000796813   0.000796813   0.000796813   0.000796813   0.996813)   % Cases_per_Million=L0_0__3_9L   G_Workplace=L5_6__16_25L   
   (   0.2   0.2   0.2   0.2   0.2)   % Cases_per_Million=L11_69__15_59L   G_Workplace=L5_6__16_25L   
   (   0.2   0.2   0.2   0.2   0.2)   % Cases_per_Million=L15_59__19_49L   G_Workplace=L5_6__16_25L   
   (   0.2   0.2   0.2   0.2   0.2)   % Cases_per_Million=L3_9__7_8L   G_Workplace=L5_6__16_25L   
   (   0.2   0.2   0.2   0.2   0.2))   % Cases_per_Million=L7_8__11_69L   G_Workplace=L5_6__16_25L   
   ((   0.00769231   0.00769231   0.00769231   0.00769231   0.969231)   % Cases_per_Million=L0_0__3_9L   G_Workplace=L_15_71___5_06L   
   (   0.2   0.2   0.2   0.2   0.2)   % Cases_per_Million=L11_69__15_59L   G_Workplace=L_15_71___5_06L   
   (   0.00769231   0.969231   0.00769231   0.00769231   0.00769231)   % Cases_per_Million=L15_59__19_49L   G_Workplace=L_15_71___5_06L   
   (   0.00769231   0.969231   0.00769231   0.00769231   0.00769231)   % Cases_per_Million=L3_9__7_8L   G_Workplace=L_15_71___5_06L   
   (   0.2   0.2   0.2   0.2   0.2))   % Cases_per_Million=L7_8__11_69L   G_Workplace=L_15_71___5_06L   
   ((   0.2   0.2   0.2   0.2   0.2)   % Cases_per_Million=L0_0__3_9L   G_Workplace=L_26_36___15_71L   
   (   0.00392157   0.00392157   0.984314   0.00392157   0.00392157)   % Cases_per_Million=L11_69__15_59L   G_Workplace=L_26_36___15_71L   
   (   0.2   0.2   0.2   0.2   0.2)   % Cases_per_Million=L15_59__19_49L   G_Workplace=L_26_36___15_71L   
   (   0.2   0.2   0.2   0.2   0.2)   % Cases_per_Million=L3_9__7_8L   G_Workplace=L_26_36___15_71L   
   (   0.2   0.2   0.2   0.2   0.2))   % Cases_per_Million=L7_8__11_69L   G_Workplace=L_26_36___15_71L   
   ((   0.2   0.2   0.2   0.2   0.2)   % Cases_per_Million=L0_0__3_9L   G_Workplace=L_37_02___26_36L   
   (   0.00263158   0.00263158   0.00263158   0.989474   0.00263158)   % Cases_per_Million=L11_69__15_59L   G_Workplace=L_37_02___26_36L   
   (   0.00392157   0.00392157   0.00392157   0.984314   0.00392157)   % Cases_per_Million=L15_59__19_49L   G_Workplace=L_37_02___26_36L   
   (   0.00769231   0.00769231   0.00769231   0.969231   0.00769231)   % Cases_per_Million=L3_9__7_8L   G_Workplace=L_37_02___26_36L   
   (   0.2   0.2   0.2   0.2   0.2))   % Cases_per_Million=L7_8__11_69L   G_Workplace=L_37_02___26_36L   
   ((   0.0013245   0.0013245   0.0013245   0.0013245   0.994702)   % Cases_per_Million=L0_0__3_9L   G_Workplace=L_5_06__5_6L   
   (   0.2   0.2   0.2   0.2   0.2)   % Cases_per_Million=L11_69__15_59L   G_Workplace=L_5_06__5_6L   
   (   0.2   0.2   0.2   0.2   0.2)   % Cases_per_Million=L15_59__19_49L   G_Workplace=L_5_06__5_6L   
   (   0.989474   0.00263158   0.00263158   0.00263158   0.00263158)   % Cases_per_Million=L3_9__7_8L   G_Workplace=L_5_06__5_6L   
   (   0.00769231   0.969231   0.00769231   0.00769231   0.00769231)));   % Cases_per_Million=L7_8__11_69L   G_Workplace=L_5_06__5_6L   
}

potential ( G_Grocery_Pharmacy | G_Parks   ) {
   data = 
   ((   0.00952381   0.00952381   0.961905   0.00952381   0.00952381)   % G_Parks=L7_29__16_4L   
   (   0.396078   0.101961   0.494118   0.00392157   0.00392157)   % G_Parks=L_10_93___1_82L   
   (   0.0125   0.0125   0.95   0.0125   0.0125)   % G_Parks=L_1_82__7_29L   
   (   0.283333   0.422222   0.00555556   0.00555556   0.283333)   % G_Parks=L_20_05___10_93L   
   (   0.00555556   0.00555556   0.144444   0.561111   0.283333));   % G_Parks=L_29_16___20_05L   
}

potential (G_Parks) {
   data = (  0.13125 0.31875 0.1 0.225 0.225);
}

potential ( G_Transit | G_Retail   G_Workplace   G_Grocery_Pharmacy   ) {
   data = 
   ((((   0.2   0.2   0.2   0.2   0.2)   % G_Grocery_Pharmacy=L16_03__26_04L   G_Workplace=L5_6__16_25L   G_Retail=L_15_23___6_01L   
   (   0.2   0.2   0.2   0.2   0.2)   % G_Grocery_Pharmacy=L26_04__36_06L   G_Workplace=L5_6__16_25L   G_Retail=L_15_23___6_01L   
   (   0.2   0.2   0.2   0.2   0.2)   % G_Grocery_Pharmacy=L6_02__16_03L   G_Workplace=L5_6__16_25L   G_Retail=L_15_23___6_01L   
   (   0.2   0.2   0.2   0.2   0.2)   % G_Grocery_Pharmacy=L_14_01___4_0L   G_Workplace=L5_6__16_25L   G_Retail=L_15_23___6_01L   
   (   0.2   0.2   0.2   0.2   0.2))   % G_Grocery_Pharmacy=L_4_0__6_02L   G_Workplace=L5_6__16_25L   G_Retail=L_15_23___6_01L   
   ((   0.2   0.2   0.2   0.2   0.2)   % G_Grocery_Pharmacy=L16_03__26_04L   G_Workplace=L_15_71___5_06L   G_Retail=L_15_23___6_01L   
   (   0.2   0.2   0.2   0.2   0.2)   % G_Grocery_Pharmacy=L26_04__36_06L   G_Workplace=L_15_71___5_06L   G_Retail=L_15_23___6_01L   
   (   0.2   0.2   0.2   0.2   0.2)   % G_Grocery_Pharmacy=L6_02__16_03L   G_Workplace=L_15_71___5_06L   G_Retail=L_15_23___6_01L   
   (   0.2   0.2   0.2   0.2   0.2)   % G_Grocery_Pharmacy=L_14_01___4_0L   G_Workplace=L_15_71___5_06L   G_Retail=L_15_23___6_01L   
   (   0.2   0.2   0.2   0.2   0.2))   % G_Grocery_Pharmacy=L_4_0__6_02L   G_Workplace=L_15_71___5_06L   G_Retail=L_15_23___6_01L   
   ((   0.2   0.2   0.2   0.2   0.2)   % G_Grocery_Pharmacy=L16_03__26_04L   G_Workplace=L_26_36___15_71L   G_Retail=L_15_23___6_01L   
   (   0.2   0.2   0.2   0.2   0.2)   % G_Grocery_Pharmacy=L26_04__36_06L   G_Workplace=L_26_36___15_71L   G_Retail=L_15_23___6_01L   
   (   0.2   0.2   0.2   0.2   0.2)   % G_Grocery_Pharmacy=L6_02__16_03L   G_Workplace=L_26_36___15_71L   G_Retail=L_15_23___6_01L   
   (   0.2   0.2   0.2   0.2   0.2)   % G_Grocery_Pharmacy=L_14_01___4_0L   G_Workplace=L_26_36___15_71L   G_Retail=L_15_23___6_01L   
   (   0.2   0.2   0.2   0.2   0.2))   % G_Grocery_Pharmacy=L_4_0__6_02L   G_Workplace=L_26_36___15_71L   G_Retail=L_15_23___6_01L   
   ((   0.2   0.2   0.2   0.2   0.2)   % G_Grocery_Pharmacy=L16_03__26_04L   G_Workplace=L_37_02___26_36L   G_Retail=L_15_23___6_01L   
   (   0.2   0.2   0.2   0.2   0.2)   % G_Grocery_Pharmacy=L26_04__36_06L   G_Workplace=L_37_02___26_36L   G_Retail=L_15_23___6_01L   
   (   0.2   0.2   0.2   0.2   0.2)   % G_Grocery_Pharmacy=L6_02__16_03L   G_Workplace=L_37_02___26_36L   G_Retail=L_15_23___6_01L   
   (   0.2   0.2   0.2   0.2   0.2)   % G_Grocery_Pharmacy=L_14_01___4_0L   G_Workplace=L_37_02___26_36L   G_Retail=L_15_23___6_01L   
   (   0.2   0.2   0.2   0.2   0.2))   % G_Grocery_Pharmacy=L_4_0__6_02L   G_Workplace=L_37_02___26_36L   G_Retail=L_15_23___6_01L   
   ((   0.000796813   0.000796813   0.996813   0.000796813   0.000796813)   % G_Grocery_Pharmacy=L16_03__26_04L   G_Workplace=L_5_06__5_6L   G_Retail=L_15_23___6_01L   
   (   0.993651   0.0015873   0.0015873   0.0015873   0.0015873)   % G_Grocery_Pharmacy=L26_04__36_06L   G_Workplace=L_5_06__5_6L   G_Retail=L_15_23___6_01L   
   (   0.2   0.2   0.2   0.2   0.2)   % G_Grocery_Pharmacy=L6_02__16_03L   G_Workplace=L_5_06__5_6L   G_Retail=L_15_23___6_01L   
   (   0.2   0.2   0.2   0.2   0.2)   % G_Grocery_Pharmacy=L_14_01___4_0L   G_Workplace=L_5_06__5_6L   G_Retail=L_15_23___6_01L   
   (   0.2   0.2   0.2   0.2   0.2)))   % G_Grocery_Pharmacy=L_4_0__6_02L   G_Workplace=L_5_06__5_6L   G_Retail=L_15_23___6_01L   
   (((   0.2   0.2   0.2   0.2   0.2)   % G_Grocery_Pharmacy=L16_03__26_04L   G_Workplace=L5_6__16_25L   G_Retail=L_24_46___15_23L   
   (   0.2   0.2   0.2   0.2   0.2)   % G_Grocery_Pharmacy=L26_04__36_06L   G_Workplace=L5_6__16_25L   G_Retail=L_24_46___15_23L   
   (   0.2   0.2   0.2   0.2   0.2)   % G_Grocery_Pharmacy=L6_02__16_03L   G_Workplace=L5_6__16_25L   G_Retail=L_24_46___15_23L   
   (   0.2   0.2   0.2   0.2   0.2)   % G_Grocery_Pharmacy=L_14_01___4_0L   G_Workplace=L5_6__16_25L   G_Retail=L_24_46___15_23L   
   (   0.2   0.2   0.2   0.2   0.2))   % G_Grocery_Pharmacy=L_4_0__6_02L   G_Workplace=L5_6__16_25L   G_Retail=L_24_46___15_23L   
   ((   0.0015873   0.0015873   0.0015873   0.993651   0.0015873)   % G_Grocery_Pharmacy=L16_03__26_04L   G_Workplace=L_15_71___5_06L   G_Retail=L_24_46___15_23L   
   (   0.2   0.2   0.2   0.2   0.2)   % G_Grocery_Pharmacy=L26_04__36_06L   G_Workplace=L_15_71___5_06L   G_Retail=L_24_46___15_23L   
   (   0.0015873   0.0015873   0.0015873   0.993651   0.0015873)   % G_Grocery_Pharmacy=L6_02__16_03L   G_Workplace=L_15_71___5_06L   G_Retail=L_24_46___15_23L   
   (   0.2   0.2   0.2   0.2   0.2)   % G_Grocery_Pharmacy=L_14_01___4_0L   G_Workplace=L_15_71___5_06L   G_Retail=L_24_46___15_23L   
   (   0.2   0.2   0.2   0.2   0.2))   % G_Grocery_Pharmacy=L_4_0__6_02L   G_Workplace=L_15_71___5_06L   G_Retail=L_24_46___15_23L   
   ((   0.2   0.2   0.2   0.2   0.2)   % G_Grocery_Pharmacy=L16_03__26_04L   G_Workplace=L_26_36___15_71L   G_Retail=L_24_46___15_23L   
   (   0.2   0.2   0.2   0.2   0.2)   % G_Grocery_Pharmacy=L26_04__36_06L   G_Workplace=L_26_36___15_71L   G_Retail=L_24_46___15_23L   
   (   0.2   0.2   0.2   0.2   0.2)   % G_Grocery_Pharmacy=L6_02__16_03L   G_Workplace=L_26_36___15_71L   G_Retail=L_24_46___15_23L   
   (   0.2   0.2   0.2   0.2   0.2)   % G_Grocery_Pharmacy=L_14_01___4_0L   G_Workplace=L_26_36___15_71L   G_Retail=L_24_46___15_23L   
   (   0.2   0.2   0.2   0.2   0.2))   % G_Grocery_Pharmacy=L_4_0__6_02L   G_Workplace=L_26_36___15_71L   G_Retail=L_24_46___15_23L   
   ((   0.2   0.2   0.2   0.2   0.2)   % G_Grocery_Pharmacy=L16_03__26_04L   G_Workplace=L_37_02___26_36L   G_Retail=L_24_46___15_23L   
   (   0.2   0.2   0.2   0.2   0.2)   % G_Grocery_Pharmacy=L26_04__36_06L   G_Workplace=L_37_02___26_36L   G_Retail=L_24_46___15_23L   
   (   0.2   0.2   0.2   0.2   0.2)   % G_Grocery_Pharmacy=L6_02__16_03L   G_Workplace=L_37_02___26_36L   G_Retail=L_24_46___15_23L   
   (   0.2   0.2   0.2   0.2   0.2)   % G_Grocery_Pharmacy=L_14_01___4_0L   G_Workplace=L_37_02___26_36L   G_Retail=L_24_46___15_23L   
   (   0.2   0.2   0.2   0.2   0.2))   % G_Grocery_Pharmacy=L_4_0__6_02L   G_Workplace=L_37_02___26_36L   G_Retail=L_24_46___15_23L   
   ((   0.2   0.2   0.2   0.2   0.2)   % G_Grocery_Pharmacy=L16_03__26_04L   G_Workplace=L_5_06__5_6L   G_Retail=L_24_46___15_23L   
   (   0.2   0.2   0.2   0.2   0.2)   % G_Grocery_Pharmacy=L26_04__36_06L   G_Workplace=L_5_06__5_6L   G_Retail=L_24_46___15_23L   
   (   0.0015873   0.0015873   0.993651   0.0015873   0.0015873)   % G_Grocery_Pharmacy=L6_02__16_03L   G_Workplace=L_5_06__5_6L   G_Retail=L_24_46___15_23L   
   (   0.2   0.2   0.2   0.2   0.2)   % G_Grocery_Pharmacy=L_14_01___4_0L   G_Workplace=L_5_06__5_6L   G_Retail=L_24_46___15_23L   
   (   0.2   0.2   0.2   0.2   0.2)))   % G_Grocery_Pharmacy=L_4_0__6_02L   G_Workplace=L_5_06__5_6L   G_Retail=L_24_46___15_23L   
   (((   0.2   0.2   0.2   0.2   0.2)   % G_Grocery_Pharmacy=L16_03__26_04L   G_Workplace=L5_6__16_25L   G_Retail=L_33_68___24_46L   
   (   0.2   0.2   0.2   0.2   0.2)   % G_Grocery_Pharmacy=L26_04__36_06L   G_Workplace=L5_6__16_25L   G_Retail=L_33_68___24_46L   
   (   0.2   0.2   0.2   0.2   0.2)   % G_Grocery_Pharmacy=L6_02__16_03L   G_Workplace=L5_6__16_25L   G_Retail=L_33_68___24_46L   
   (   0.2   0.2   0.2   0.2   0.2)   % G_Grocery_Pharmacy=L_14_01___4_0L   G_Workplace=L5_6__16_25L   G_Retail=L_33_68___24_46L   
   (   0.2   0.2   0.2   0.2   0.2))   % G_Grocery_Pharmacy=L_4_0__6_02L   G_Workplace=L5_6__16_25L   G_Retail=L_33_68___24_46L   
   ((   0.2   0.2   0.2   0.2   0.2)   % G_Grocery_Pharmacy=L16_03__26_04L   G_Workplace=L_15_71___5_06L   G_Retail=L_33_68___24_46L   
   (   0.2   0.2   0.2   0.2   0.2)   % G_Grocery_Pharmacy=L26_04__36_06L   G_Workplace=L_15_71___5_06L   G_Retail=L_33_68___24_46L   
   (   0.2   0.2   0.2   0.2   0.2)   % G_Grocery_Pharmacy=L6_02__16_03L   G_Workplace=L_15_71___5_06L   G_Retail=L_33_68___24_46L   
   (   0.2   0.2   0.2   0.2   0.2)   % G_Grocery_Pharmacy=L_14_01___4_0L   G_Workplace=L_15_71___5_06L   G_Retail=L_33_68___24_46L   
   (   0.2   0.2   0.2   0.2   0.2))   % G_Grocery_Pharmacy=L_4_0__6_02L   G_Workplace=L_15_71___5_06L   G_Retail=L_33_68___24_46L   
   ((   0.2   0.2   0.2   0.2   0.2)   % G_Grocery_Pharmacy=L16_03__26_04L   G_Workplace=L_26_36___15_71L   G_Retail=L_33_68___24_46L   
   (   0.2   0.2   0.2   0.2   0.2)   % G_Grocery_Pharmacy=L26_04__36_06L   G_Workplace=L_26_36___15_71L   G_Retail=L_33_68___24_46L   
   (   0.2   0.2   0.2   0.2   0.2)   % G_Grocery_Pharmacy=L6_02__16_03L   G_Workplace=L_26_36___15_71L   G_Retail=L_33_68___24_46L   
   (   0.2   0.2   0.2   0.2   0.2)   % G_Grocery_Pharmacy=L_14_01___4_0L   G_Workplace=L_26_36___15_71L   G_Retail=L_33_68___24_46L   
   (   0.000796813   0.000796813   0.000796813   0.498805   0.498805))   % G_Grocery_Pharmacy=L_4_0__6_02L   G_Workplace=L_26_36___15_71L   G_Retail=L_33_68___24_46L   
   ((   0.2   0.2   0.2   0.2   0.2)   % G_Grocery_Pharmacy=L16_03__26_04L   G_Workplace=L_37_02___26_36L   G_Retail=L_33_68___24_46L   
   (   0.2   0.2   0.2   0.2   0.2)   % G_Grocery_Pharmacy=L26_04__36_06L   G_Workplace=L_37_02___26_36L   G_Retail=L_33_68___24_46L   
   (   0.2   0.2   0.2   0.2   0.2)   % G_Grocery_Pharmacy=L6_02__16_03L   G_Workplace=L_37_02___26_36L   G_Retail=L_33_68___24_46L   
   (   0.2   0.2   0.2   0.2   0.2)   % G_Grocery_Pharmacy=L_14_01___4_0L   G_Workplace=L_37_02___26_36L   G_Retail=L_33_68___24_46L   
   (   0.2   0.2   0.2   0.2   0.2))   % G_Grocery_Pharmacy=L_4_0__6_02L   G_Workplace=L_37_02___26_36L   G_Retail=L_33_68___24_46L   
   ((   0.2   0.2   0.2   0.2   0.2)   % G_Grocery_Pharmacy=L16_03__26_04L   G_Workplace=L_5_06__5_6L   G_Retail=L_33_68___24_46L   
   (   0.2   0.2   0.2   0.2   0.2)   % G_Grocery_Pharmacy=L26_04__36_06L   G_Workplace=L_5_06__5_6L   G_Retail=L_33_68___24_46L   
   (   0.2   0.2   0.2   0.2   0.2)   % G_Grocery_Pharmacy=L6_02__16_03L   G_Workplace=L_5_06__5_6L   G_Retail=L_33_68___24_46L   
   (   0.2   0.2   0.2   0.2   0.2)   % G_Grocery_Pharmacy=L_14_01___4_0L   G_Workplace=L_5_06__5_6L   G_Retail=L_33_68___24_46L   
   (   0.2   0.2   0.2   0.2   0.2)))   % G_Grocery_Pharmacy=L_4_0__6_02L   G_Workplace=L_5_06__5_6L   G_Retail=L_33_68___24_46L   
   (((   0.2   0.2   0.2   0.2   0.2)   % G_Grocery_Pharmacy=L16_03__26_04L   G_Workplace=L5_6__16_25L   G_Retail=L_42_91___33_68L   
   (   0.2   0.2   0.2   0.2   0.2)   % G_Grocery_Pharmacy=L26_04__36_06L   G_Workplace=L5_6__16_25L   G_Retail=L_42_91___33_68L   
   (   0.2   0.2   0.2   0.2   0.2)   % G_Grocery_Pharmacy=L6_02__16_03L   G_Workplace=L5_6__16_25L   G_Retail=L_42_91___33_68L   
   (   0.2   0.2   0.2   0.2   0.2)   % G_Grocery_Pharmacy=L_14_01___4_0L   G_Workplace=L5_6__16_25L   G_Retail=L_42_91___33_68L   
   (   0.2   0.2   0.2   0.2   0.2))   % G_Grocery_Pharmacy=L_4_0__6_02L   G_Workplace=L5_6__16_25L   G_Retail=L_42_91___33_68L   
   ((   0.2   0.2   0.2   0.2   0.2)   % G_Grocery_Pharmacy=L16_03__26_04L   G_Workplace=L_15_71___5_06L   G_Retail=L_42_91___33_68L   
   (   0.2   0.2   0.2   0.2   0.2)   % G_Grocery_Pharmacy=L26_04__36_06L   G_Workplace=L_15_71___5_06L   G_Retail=L_42_91___33_68L   
   (   0.2   0.2   0.2   0.2   0.2)   % G_Grocery_Pharmacy=L6_02__16_03L   G_Workplace=L_15_71___5_06L   G_Retail=L_42_91___33_68L   
   (   0.2   0.2   0.2   0.2   0.2)   % G_Grocery_Pharmacy=L_14_01___4_0L   G_Workplace=L_15_71___5_06L   G_Retail=L_42_91___33_68L   
   (   0.2   0.2   0.2   0.2   0.2))   % G_Grocery_Pharmacy=L_4_0__6_02L   G_Workplace=L_15_71___5_06L   G_Retail=L_42_91___33_68L   
   ((   0.2   0.2   0.2   0.2   0.2)   % G_Grocery_Pharmacy=L16_03__26_04L   G_Workplace=L_26_36___15_71L   G_Retail=L_42_91___33_68L   
   (   0.2   0.2   0.2   0.2   0.2)   % G_Grocery_Pharmacy=L26_04__36_06L   G_Workplace=L_26_36___15_71L   G_Retail=L_42_91___33_68L   
   (   0.2   0.2   0.2   0.2   0.2)   % G_Grocery_Pharmacy=L6_02__16_03L   G_Workplace=L_26_36___15_71L   G_Retail=L_42_91___33_68L   
   (   0.2   0.2   0.2   0.2   0.2)   % G_Grocery_Pharmacy=L_14_01___4_0L   G_Workplace=L_26_36___15_71L   G_Retail=L_42_91___33_68L   
   (   0.2   0.2   0.2   0.2   0.2))   % G_Grocery_Pharmacy=L_4_0__6_02L   G_Workplace=L_26_36___15_71L   G_Retail=L_42_91___33_68L   
   ((   0.2   0.2   0.2   0.2   0.2)   % G_Grocery_Pharmacy=L16_03__26_04L   G_Workplace=L_37_02___26_36L   G_Retail=L_42_91___33_68L   
   (   0.2   0.2   0.2   0.2   0.2)   % G_Grocery_Pharmacy=L26_04__36_06L   G_Workplace=L_37_02___26_36L   G_Retail=L_42_91___33_68L   
   (   0.2   0.2   0.2   0.2   0.2)   % G_Grocery_Pharmacy=L6_02__16_03L   G_Workplace=L_37_02___26_36L   G_Retail=L_42_91___33_68L   
   (   0.000399202   0.000399202   0.000399202   0.000399202   0.998403)   % G_Grocery_Pharmacy=L_14_01___4_0L   G_Workplace=L_37_02___26_36L   G_Retail=L_42_91___33_68L   
   (   0.000796813   0.000796813   0.000796813   0.000796813   0.996813))   % G_Grocery_Pharmacy=L_4_0__6_02L   G_Workplace=L_37_02___26_36L   G_Retail=L_42_91___33_68L   
   ((   0.2   0.2   0.2   0.2   0.2)   % G_Grocery_Pharmacy=L16_03__26_04L   G_Workplace=L_5_06__5_6L   G_Retail=L_42_91___33_68L   
   (   0.2   0.2   0.2   0.2   0.2)   % G_Grocery_Pharmacy=L26_04__36_06L   G_Workplace=L_5_06__5_6L   G_Retail=L_42_91___33_68L   
   (   0.2   0.2   0.2   0.2   0.2)   % G_Grocery_Pharmacy=L6_02__16_03L   G_Workplace=L_5_06__5_6L   G_Retail=L_42_91___33_68L   
   (   0.2   0.2   0.2   0.2   0.2)   % G_Grocery_Pharmacy=L_14_01___4_0L   G_Workplace=L_5_06__5_6L   G_Retail=L_42_91___33_68L   
   (   0.2   0.2   0.2   0.2   0.2)))   % G_Grocery_Pharmacy=L_4_0__6_02L   G_Workplace=L_5_06__5_6L   G_Retail=L_42_91___33_68L   
   (((   0.000796813   0.996813   0.000796813   0.000796813   0.000796813)   % G_Grocery_Pharmacy=L16_03__26_04L   G_Workplace=L5_6__16_25L   G_Retail=L_6_01__3_22L   
   (   0.0015873   0.993651   0.0015873   0.0015873   0.0015873)   % G_Grocery_Pharmacy=L26_04__36_06L   G_Workplace=L5_6__16_25L   G_Retail=L_6_01__3_22L   
   (   0.000228311   0.999087   0.000228311   0.000228311   0.000228311)   % G_Grocery_Pharmacy=L6_02__16_03L   G_Workplace=L5_6__16_25L   G_Retail=L_6_01__3_22L   
   (   0.2   0.2   0.2   0.2   0.2)   % G_Grocery_Pharmacy=L_14_01___4_0L   G_Workplace=L5_6__16_25L   G_Retail=L_6_01__3_22L   
   (   0.2   0.2   0.2   0.2   0.2))   % G_Grocery_Pharmacy=L_4_0__6_02L   G_Workplace=L5_6__16_25L   G_Retail=L_6_01__3_22L   
   ((   0.2   0.2   0.2   0.2   0.2)   % G_Grocery_Pharmacy=L16_03__26_04L   G_Workplace=L_15_71___5_06L   G_Retail=L_6_01__3_22L   
   (   0.2   0.2   0.2   0.2   0.2)   % G_Grocery_Pharmacy=L26_04__36_06L   G_Workplace=L_15_71___5_06L   G_Retail=L_6_01__3_22L   
   (   0.993651   0.0015873   0.0015873   0.0015873   0.0015873)   % G_Grocery_Pharmacy=L6_02__16_03L   G_Workplace=L_15_71___5_06L   G_Retail=L_6_01__3_22L   
   (   0.2   0.2   0.2   0.2   0.2)   % G_Grocery_Pharmacy=L_14_01___4_0L   G_Workplace=L_15_71___5_06L   G_Retail=L_6_01__3_22L   
   (   0.2   0.2   0.2   0.2   0.2))   % G_Grocery_Pharmacy=L_4_0__6_02L   G_Workplace=L_15_71___5_06L   G_Retail=L_6_01__3_22L   
   ((   0.2   0.2   0.2   0.2   0.2)   % G_Grocery_Pharmacy=L16_03__26_04L   G_Workplace=L_26_36___15_71L   G_Retail=L_6_01__3_22L   
   (   0.2   0.2   0.2   0.2   0.2)   % G_Grocery_Pharmacy=L26_04__36_06L   G_Workplace=L_26_36___15_71L   G_Retail=L_6_01__3_22L   
   (   0.2   0.2   0.2   0.2   0.2)   % G_Grocery_Pharmacy=L6_02__16_03L   G_Workplace=L_26_36___15_71L   G_Retail=L_6_01__3_22L   
   (   0.2   0.2   0.2   0.2   0.2)   % G_Grocery_Pharmacy=L_14_01___4_0L   G_Workplace=L_26_36___15_71L   G_Retail=L_6_01__3_22L   
   (   0.2   0.2   0.2   0.2   0.2))   % G_Grocery_Pharmacy=L_4_0__6_02L   G_Workplace=L_26_36___15_71L   G_Retail=L_6_01__3_22L   
   ((   0.2   0.2   0.2   0.2   0.2)   % G_Grocery_Pharmacy=L16_03__26_04L   G_Workplace=L_37_02___26_36L   G_Retail=L_6_01__3_22L   
   (   0.2   0.2   0.2   0.2   0.2)   % G_Grocery_Pharmacy=L26_04__36_06L   G_Workplace=L_37_02___26_36L   G_Retail=L_6_01__3_22L   
   (   0.2   0.2   0.2   0.2   0.2)   % G_Grocery_Pharmacy=L6_02__16_03L   G_Workplace=L_37_02___26_36L   G_Retail=L_6_01__3_22L   
   (   0.2   0.2   0.2   0.2   0.2)   % G_Grocery_Pharmacy=L_14_01___4_0L   G_Workplace=L_37_02___26_36L   G_Retail=L_6_01__3_22L   
   (   0.2   0.2   0.2   0.2   0.2))   % G_Grocery_Pharmacy=L_4_0__6_02L   G_Workplace=L_37_02___26_36L   G_Retail=L_6_01__3_22L   
   ((   0.993651   0.0015873   0.0015873   0.0015873   0.0015873)   % G_Grocery_Pharmacy=L16_03__26_04L   G_Workplace=L_5_06__5_6L   G_Retail=L_6_01__3_22L   
   (   0.996813   0.000796813   0.000796813   0.000796813   0.000796813)   % G_Grocery_Pharmacy=L26_04__36_06L   G_Workplace=L_5_06__5_6L   G_Retail=L_6_01__3_22L   
   (   0.000531915   0.997872   0.000531915   0.000531915   0.000531915)   % G_Grocery_Pharmacy=L6_02__16_03L   G_Workplace=L_5_06__5_6L   G_Retail=L_6_01__3_22L   
   (   0.2   0.2   0.2   0.2   0.2)   % G_Grocery_Pharmacy=L_14_01___4_0L   G_Workplace=L_5_06__5_6L   G_Retail=L_6_01__3_22L   
   (   0.2   0.2   0.2   0.2   0.2))));   % G_Grocery_Pharmacy=L_4_0__6_02L   G_Workplace=L_5_06__5_6L   G_Retail=L_6_01__3_22L   
}

potential ( G_Workplace | Cases_per_Million   ) {
   data = 
   ((   0.583721   0.0604651   0.00232558   0.00232558   0.351163)   % Cases_per_Million=L0_0__3_9L   
   (   0.00769231   0.00769231   0.392308   0.584615   0.00769231)   % Cases_per_Million=L11_69__15_59L   
   (   0.0125   0.325   0.0125   0.6375   0.0125)   % Cases_per_Million=L15_59__19_49L   
   (   0.00769231   0.2   0.00769231   0.2   0.584615)   % Cases_per_Million=L3_9__7_8L   
   (   0.0333333   0.0333333   0.0333333   0.0333333   0.866667));   % Cases_per_Million=L7_8__11_69L   
}

potential ( G_Residencial | G_Transit   ) {
   data = 
   ((   0.00769231   0.00769231   0.969231   0.00769231   0.00769231)   % G_Transit=L_13_36___1_07L   
   (   0.0030303   0.0030303   0.0030303   0.0030303   0.987879)   % G_Transit=L_1_07__11_23L   
   (   0.0125   0.0125   0.325   0.6375   0.0125)   % G_Transit=L_25_65___13_36L   
   (   0.325   0.0125   0.0125   0.6375   0.0125)   % G_Transit=L_37_95___25_65L   
   (   0.144444   0.838889   0.00555556   0.00555556   0.00555556));   % G_Transit=L_50_24___37_95L   
}


