
net {
  name = unnamedBN;
  software = "aGrUM 0.18.2";
  node_size = (50 50);
}

node Deaths_per_Million {
   states = (L0_0__2_25L L2_25__4_5L L4_5__6_74L L6_74__8_99L L8_99__11_24L );
   label = "Deaths_per_Million";
   ID = "Deaths_per_Million";
}

node C6_Stay_at_home_requirements {
   states = (0 1 );
   label = "C6_Stay_at_home_requirements";
   ID = "C6_Stay_at_home_requirements";
}

potential (Deaths_per_Million) {
   data = (  0.664945 0.137269 0.0597786 0.118819 0.0191882);
}

potential ( C6_Stay_at_home_requirements | Deaths_per_Million   ) {
   data = 
   ((   0.216981   0.783019)   % Deaths_per_Million=L0_0__2_25L   
   (   0.00268817   0.997312)   % Deaths_per_Million=L2_25__4_5L   
   (   0.00617284   0.993827)   % Deaths_per_Million=L4_5__6_74L   
   (   0.00310559   0.996894)   % Deaths_per_Million=L6_74__8_99L   
   (   0.0192308   0.980769));   % Deaths_per_Million=L8_99__11_24L   
}


