
net {
  name = unnamedBN;
  software = "aGrUM 0.18.2";
  node_size = (50 50);
}

node Cases_per_Million {
   states = (L0_0__9_29L L18_57__27_86L L27_86__37_15L L37_15__46_43L L9_29__18_57L );
   label = "Cases_per_Million";
   ID = "Cases_per_Million";
}

node Deaths_per_Million {
   states = (L0_0__1_04L L1_04__2_07L L2_07__3_11L L3_11__4_14L L4_14__5_18L );
   label = "Deaths_per_Million";
   ID = "Deaths_per_Million";
}

node G_Retail {
   states = (L_12_5___4_93L L_20_07___12_5L L_27_63___20_07L L_35_2___27_63L L_4_93__2_64L );
   label = "G_Retail";
   ID = "G_Retail";
}

node G_Grocery_Pharmacy {
   states = (L1_61__6_68L L6_68__11_75L L_13_6___8_53L L_3_46__1_61L L_8_53___3_46L );
   label = "G_Grocery_Pharmacy";
   ID = "G_Grocery_Pharmacy";
}

node G_Parks {
   states = (L24_42__42_41L L42_41__60_4L L6_43__24_42L L_11_56__6_43L L_29_55___11_56L );
   label = "G_Parks";
   ID = "G_Parks";
}

node G_Transit {
   states = (L_14_51___4_94L L_24_08___14_51L L_33_66___24_08L L_43_23___33_66L L_4_94__4_64L );
   label = "G_Transit";
   ID = "G_Transit";
}

node G_Workplace {
   states = (L_13_11___6_39L L_19_83___13_11L L_26_55___19_83L L_33_27___26_55L L_6_39__0_33L );
   label = "G_Workplace";
   ID = "G_Workplace";
}

node G_Residencial {
   states = (L10_8__13_55L L2_56__5_31L L5_31__8_05L L8_05__10_8L L_0_18__2_56L );
   label = "G_Residencial";
   ID = "G_Residencial";
}

potential ( Cases_per_Million | G_Transit   ) {
   data = 
   ((   0.0125   0.325   0.0125   0.0125   0.6375)   % G_Transit=L_14_51___4_94L   
   (   0.325   0.0125   0.0125   0.0125   0.6375)   % G_Transit=L_24_08___14_51L   
   (   0.927273   0.0181818   0.0181818   0.0181818   0.0181818)   % G_Transit=L_33_66___24_08L   
   (   0.00263158   0.134211   0.265789   0.134211   0.463158)   % G_Transit=L_43_23___33_66L   
   (   0.980488   0.00487805   0.00487805   0.00487805   0.00487805));   % G_Transit=L_4_94__4_64L   
}

potential ( Deaths_per_Million | Cases_per_Million   ) {
   data = 
   ((   0.985714   0.00357143   0.00357143   0.00357143   0.00357143)   % Cases_per_Million=L0_0__9_29L   
   (   0.325   0.0125   0.325   0.0125   0.325)   % Cases_per_Million=L18_57__27_86L   
   (   0.00952381   0.00952381   0.247619   0.72381   0.00952381)   % Cases_per_Million=L27_86__37_15L   
   (   0.0181818   0.0181818   0.0181818   0.0181818   0.927273)   % Cases_per_Million=L37_15__46_43L   
   (   0.717857   0.271429   0.00357143   0.00357143   0.00357143));   % Cases_per_Million=L9_29__18_57L   
}

potential ( G_Retail | G_Transit   ) {
   data = 
   ((   0.325   0.0125   0.0125   0.0125   0.6375)   % G_Transit=L_14_51___4_94L   
   (   0.0125   0.6375   0.325   0.0125   0.0125)   % G_Transit=L_24_08___14_51L   
   (   0.0181818   0.0181818   0.472727   0.472727   0.0181818)   % G_Transit=L_33_66___24_08L   
   (   0.00263158   0.00263158   0.331579   0.660526   0.00263158)   % G_Transit=L_43_23___33_66L   
   (   0.00487805   0.00487805   0.00487805   0.00487805   0.980488));   % G_Transit=L_4_94__4_64L   
}

potential ( G_Grocery_Pharmacy | Deaths_per_Million   G_Retail   ) {
   data = 
   (((   0.969231   0.00769231   0.00769231   0.00769231   0.00769231)   % G_Retail=L_12_5___4_93L   Deaths_per_Million=L0_0__1_04L   
   (   0.00392157   0.984314   0.00392157   0.00392157   0.00392157)   % G_Retail=L_20_07___12_5L   Deaths_per_Million=L0_0__1_04L   
   (   0.660526   0.00263158   0.00263158   0.00263158   0.331579)   % G_Retail=L_27_63___20_07L   Deaths_per_Million=L0_0__1_04L   
   (   0.0019802   0.0019802   0.0019802   0.249505   0.744554)   % G_Retail=L_35_2___27_63L   Deaths_per_Million=L0_0__1_04L   
   (   0.399203   0.000796813   0.000796813   0.598406   0.000796813))   % G_Retail=L_4_93__2_64L   Deaths_per_Million=L0_0__1_04L   
   ((   0.2   0.2   0.2   0.2   0.2)   % G_Retail=L_12_5___4_93L   Deaths_per_Million=L1_04__2_07L   
   (   0.2   0.2   0.2   0.2   0.2)   % G_Retail=L_20_07___12_5L   Deaths_per_Million=L1_04__2_07L   
   (   0.2   0.2   0.2   0.2   0.2)   % G_Retail=L_27_63___20_07L   Deaths_per_Million=L1_04__2_07L   
   (   0.00263158   0.00263158   0.989474   0.00263158   0.00263158)   % G_Retail=L_35_2___27_63L   Deaths_per_Million=L1_04__2_07L   
   (   0.2   0.2   0.2   0.2   0.2))   % G_Retail=L_4_93__2_64L   Deaths_per_Million=L1_04__2_07L   
   ((   0.2   0.2   0.2   0.2   0.2)   % G_Retail=L_12_5___4_93L   Deaths_per_Million=L2_07__3_11L   
   (   0.2   0.2   0.2   0.2   0.2)   % G_Retail=L_20_07___12_5L   Deaths_per_Million=L2_07__3_11L   
   (   0.00769231   0.00769231   0.00769231   0.969231   0.00769231)   % G_Retail=L_27_63___20_07L   Deaths_per_Million=L2_07__3_11L   
   (   0.00769231   0.00769231   0.969231   0.00769231   0.00769231)   % G_Retail=L_35_2___27_63L   Deaths_per_Million=L2_07__3_11L   
   (   0.2   0.2   0.2   0.2   0.2))   % G_Retail=L_4_93__2_64L   Deaths_per_Million=L2_07__3_11L   
   ((   0.2   0.2   0.2   0.2   0.2)   % G_Retail=L_12_5___4_93L   Deaths_per_Million=L3_11__4_14L   
   (   0.2   0.2   0.2   0.2   0.2)   % G_Retail=L_20_07___12_5L   Deaths_per_Million=L3_11__4_14L   
   (   0.00392157   0.00392157   0.00392157   0.00392157   0.984314)   % G_Retail=L_27_63___20_07L   Deaths_per_Million=L3_11__4_14L   
   (   0.00769231   0.00769231   0.969231   0.00769231   0.00769231)   % G_Retail=L_35_2___27_63L   Deaths_per_Million=L3_11__4_14L   
   (   0.2   0.2   0.2   0.2   0.2))   % G_Retail=L_4_93__2_64L   Deaths_per_Million=L3_11__4_14L   
   ((   0.2   0.2   0.2   0.2   0.2)   % G_Retail=L_12_5___4_93L   Deaths_per_Million=L4_14__5_18L   
   (   0.2   0.2   0.2   0.2   0.2)   % G_Retail=L_20_07___12_5L   Deaths_per_Million=L4_14__5_18L   
   (   0.00769231   0.00769231   0.969231   0.00769231   0.00769231)   % G_Retail=L_27_63___20_07L   Deaths_per_Million=L4_14__5_18L   
   (   0.00392157   0.00392157   0.984314   0.00392157   0.00392157)   % G_Retail=L_35_2___27_63L   Deaths_per_Million=L4_14__5_18L   
   (   0.2   0.2   0.2   0.2   0.2)));   % G_Retail=L_4_93__2_64L   Deaths_per_Million=L4_14__5_18L   
}

potential (G_Parks) {
   data = (  0.19375 0.1 0.1625 0.4125 0.13125);
}

potential (G_Transit) {
   data = (  0.1 0.1 0.06875 0.475 0.25625);
}

potential ( G_Workplace | G_Transit   ) {
   data = 
   ((   0.0125   0.0125   0.0125   0.0125   0.95)   % G_Transit=L_14_51___4_94L   
   (   0.6375   0.0125   0.0125   0.0125   0.325)   % G_Transit=L_24_08___14_51L   
   (   0.472727   0.0181818   0.472727   0.0181818   0.0181818)   % G_Transit=L_33_66___24_08L   
   (   0.00263158   0.265789   0.0684211   0.660526   0.00263158)   % G_Transit=L_43_23___33_66L   
   (   0.00487805   0.00487805   0.00487805   0.00487805   0.980488));   % G_Transit=L_4_94__4_64L   
}

potential ( G_Residencial | G_Workplace   G_Retail   ) {
   data = 
   (((   0.2   0.2   0.2   0.2   0.2)   % G_Retail=L_12_5___4_93L   G_Workplace=L_13_11___6_39L   
   (   0.00769231   0.00769231   0.969231   0.00769231   0.00769231)   % G_Retail=L_20_07___12_5L   G_Workplace=L_13_11___6_39L   
   (   0.00769231   0.969231   0.00769231   0.00769231   0.00769231)   % G_Retail=L_27_63___20_07L   G_Workplace=L_13_11___6_39L   
   (   0.00769231   0.969231   0.00769231   0.00769231   0.00769231)   % G_Retail=L_35_2___27_63L   G_Workplace=L_13_11___6_39L   
   (   0.2   0.2   0.2   0.2   0.2))   % G_Retail=L_4_93__2_64L   G_Workplace=L_13_11___6_39L   
   ((   0.2   0.2   0.2   0.2   0.2)   % G_Retail=L_12_5___4_93L   G_Workplace=L_19_83___13_11L   
   (   0.2   0.2   0.2   0.2   0.2)   % G_Retail=L_20_07___12_5L   G_Workplace=L_19_83___13_11L   
   (   0.2   0.2   0.2   0.2   0.2)   % G_Retail=L_27_63___20_07L   G_Workplace=L_19_83___13_11L   
   (   0.0019802   0.249505   0.744554   0.0019802   0.0019802)   % G_Retail=L_35_2___27_63L   G_Workplace=L_19_83___13_11L   
   (   0.2   0.2   0.2   0.2   0.2))   % G_Retail=L_4_93__2_64L   G_Workplace=L_19_83___13_11L   
   ((   0.2   0.2   0.2   0.2   0.2)   % G_Retail=L_12_5___4_93L   G_Workplace=L_26_55___19_83L   
   (   0.2   0.2   0.2   0.2   0.2)   % G_Retail=L_20_07___12_5L   G_Workplace=L_26_55___19_83L   
   (   0.00769231   0.00769231   0.00769231   0.969231   0.00769231)   % G_Retail=L_27_63___20_07L   G_Workplace=L_26_55___19_83L   
   (   0.969231   0.00769231   0.00769231   0.00769231   0.00769231)   % G_Retail=L_35_2___27_63L   G_Workplace=L_26_55___19_83L   
   (   0.2   0.2   0.2   0.2   0.2))   % G_Retail=L_4_93__2_64L   G_Workplace=L_26_55___19_83L   
   ((   0.2   0.2   0.2   0.2   0.2)   % G_Retail=L_12_5___4_93L   G_Workplace=L_33_27___26_55L   
   (   0.2   0.2   0.2   0.2   0.2)   % G_Retail=L_20_07___12_5L   G_Workplace=L_33_27___26_55L   
   (   0.993651   0.0015873   0.0015873   0.0015873   0.0015873)   % G_Retail=L_27_63___20_07L   G_Workplace=L_33_27___26_55L   
   (   0.993651   0.0015873   0.0015873   0.0015873   0.0015873)   % G_Retail=L_35_2___27_63L   G_Workplace=L_33_27___26_55L   
   (   0.2   0.2   0.2   0.2   0.2))   % G_Retail=L_4_93__2_64L   G_Workplace=L_33_27___26_55L   
   ((   0.00769231   0.00769231   0.00769231   0.00769231   0.969231)   % G_Retail=L_12_5___4_93L   G_Workplace=L_6_39__0_33L   
   (   0.00769231   0.969231   0.00769231   0.00769231   0.00769231)   % G_Retail=L_20_07___12_5L   G_Workplace=L_6_39__0_33L   
   (   0.2   0.2   0.2   0.2   0.2)   % G_Retail=L_27_63___20_07L   G_Workplace=L_6_39__0_33L   
   (   0.2   0.2   0.2   0.2   0.2)   % G_Retail=L_35_2___27_63L   G_Workplace=L_6_39__0_33L   
   (   0.000796813   0.000796813   0.000796813   0.000796813   0.996813)));   % G_Retail=L_4_93__2_64L   G_Workplace=L_6_39__0_33L   
}


