
net {
  name = unnamedBN;
  software = "aGrUM 0.18.2";
  node_size = (50 50);
}

node Cases_per_Million {
   states = (L0_0__308_48L L1233_94__1542_42L L308_48__616_97L L925_45__1233_94L );
   label = "Cases_per_Million";
   ID = "Cases_per_Million";
}

node Deaths_per_Million {
   states = (L0_0__2_25L L2_25__4_5L L4_5__6_74L L6_74__8_99L L8_99__11_24L );
   label = "Deaths_per_Million";
   ID = "Deaths_per_Million";
}

node G_Retail {
   states = (L_18_81___3_64L L_33_99___18_81L L_3_64__11_53L L_49_16___33_99L L_64_33___49_16L );
   label = "G_Retail";
   ID = "G_Retail";
}

node G_Grocery_Pharmacy {
   states = (L15_82__28_0L L3_64__15_82L L_20_71___8_53L L_32_89___20_71L L_8_53__3_64L );
   label = "G_Grocery_Pharmacy";
   ID = "G_Grocery_Pharmacy";
}

node G_Parks {
   states = (L136_62__181_5L L1_97__46_85L L46_85__91_74L L91_74__136_62L L_42_91__1_97L );
   label = "G_Parks";
   ID = "G_Parks";
}

node G_Transit {
   states = (L_23_09___8_73L L_37_45___23_09L L_51_82___37_45L L_66_18___51_82L L_8_73__5_64L );
   label = "G_Transit";
   ID = "G_Transit";
}

node G_Workplace {
   states = (L_25_72___6_72L L_44_72___25_72L L_63_72___44_72L L_6_72__12_29L L_82_73___63_72L );
   label = "G_Workplace";
   ID = "G_Workplace";
}

node G_Residencial {
   states = (L0_16__6_19L L12_21__18_23L L18_23__24_25L L6_19__12_21L L_5_86__0_16L );
   label = "G_Residencial";
   ID = "G_Residencial";
}

potential (Cases_per_Million) {
   data = (  0.964022 0.00461255 0.0267528 0.00461255);
}

potential ( Deaths_per_Million | G_Transit   ) {
   data = 
   ((   0.803774   0.190566   0.00188679   0.00188679   0.00188679)   % G_Transit=L_23_09___8_73L   
   (   0.76213   0.177811   0.0224852   0.0372781   0.000295858)   % G_Transit=L_37_45___23_09L   
   (   0.419955   0.102494   0.147846   0.2839   0.045805)   % G_Transit=L_51_82___37_45L   
   (   0.0125   0.0125   0.0125   0.6375   0.325)   % G_Transit=L_66_18___51_82L   
   (   0.993103   0.00172414   0.00172414   0.00172414   0.00172414));   % G_Transit=L_8_73__5_64L   
}

potential ( G_Retail | G_Grocery_Pharmacy   ) {
   data = 
   ((   0.0333333   0.0333333   0.866667   0.0333333   0.0333333)   % G_Grocery_Pharmacy=L15_82__28_0L   
   (   0.495775   0.0732394   0.425352   0.0028169   0.0028169)   % G_Grocery_Pharmacy=L3_64__15_82L   
   (   0.38306   0.560656   0.000546448   0.0551913   0.000546448)   % G_Grocery_Pharmacy=L_20_71___8_53L   
   (   0.00487805   0.126829   0.00487805   0.370732   0.492683)   % G_Grocery_Pharmacy=L_32_89___20_71L   
   (   0.499656   0.229851   0.270034   0.000229621   0.000229621));   % G_Grocery_Pharmacy=L_8_53__3_64L   
}

potential (G_Grocery_Pharmacy) {
   data = (  0.00442804 0.0523985 0.270111 0.0302583 0.642804);
}

potential ( G_Parks | G_Transit   ) {
   data = 
   ((   0.520755   0.0962264   0.143396   0.0490566   0.190566)   % G_Transit=L_23_09___8_73L   
   (   0.0742604   0.384911   0.281361   0.2   0.0594675)   % G_Transit=L_37_45___23_09L   
   (   0.0344671   0.487982   0.295238   0.136508   0.045805)   % G_Transit=L_51_82___37_45L   
   (   0.0125   0.6375   0.325   0.0125   0.0125)   % G_Transit=L_66_18___51_82L   
   (   0.00172414   0.475862   0.00172414   0.00172414   0.518966));   % G_Transit=L_8_73__5_64L   
}

potential ( G_Transit | G_Retail   G_Workplace   ) {
   data = 
   (((   0.0646907   0.934536   0.000257732   0.000257732   0.000257732)   % G_Workplace=L_25_72___6_72L   G_Retail=L_18_81___3_64L   
   (   0.000190295   0.594862   0.404567   0.000190295   0.000190295)   % G_Workplace=L_44_72___25_72L   G_Retail=L_18_81___3_64L   
   (   0.000399202   0.499401   0.499401   0.000399202   0.000399202)   % G_Workplace=L_63_72___44_72L   G_Retail=L_18_81___3_64L   
   (   0.310193   0.62011   0.000275482   0.000275482   0.069146)   % G_Workplace=L_6_72__12_29L   G_Retail=L_18_81___3_64L   
   (   0.2   0.2   0.2   0.2   0.2))   % G_Workplace=L_82_73___63_72L   G_Retail=L_18_81___3_64L   
   ((   0.0479087   0.523194   0.428137   0.000380228   0.000380228)   % G_Workplace=L_25_72___6_72L   G_Retail=L_33_99___18_81L   
   (   0.000275482   0.069146   0.930028   0.000275482   0.000275482)   % G_Workplace=L_44_72___25_72L   G_Retail=L_33_99___18_81L   
   (   0.000724638   0.815942   0.181884   0.000724638   0.000724638)   % G_Workplace=L_63_72___44_72L   G_Retail=L_33_99___18_81L   
   (   0.33308   0.475665   0.190494   0.000380228   0.000380228)   % G_Workplace=L_6_72__12_29L   G_Retail=L_33_99___18_81L   
   (   0.00769231   0.00769231   0.969231   0.00769231   0.00769231))   % G_Workplace=L_82_73___63_72L   G_Retail=L_33_99___18_81L   
   ((   0.0015873   0.2   0.0015873   0.0015873   0.795238)   % G_Workplace=L_25_72___6_72L   G_Retail=L_3_64__11_53L   
   (   0.000443459   0.942794   0.0558758   0.000443459   0.000443459)   % G_Workplace=L_44_72___25_72L   G_Retail=L_3_64__11_53L   
   (   0.000613497   0.153988   0.844172   0.000613497   0.000613497)   % G_Workplace=L_63_72___44_72L   G_Retail=L_3_64__11_53L   
   (   0.0558758   0.000443459   0.000443459   0.000443459   0.942794)   % G_Workplace=L_6_72__12_29L   G_Retail=L_3_64__11_53L   
   (   0.2   0.2   0.2   0.2   0.2))   % G_Workplace=L_82_73___63_72L   G_Retail=L_3_64__11_53L   
   ((   0.0019802   0.249505   0.744554   0.0019802   0.0019802)   % G_Workplace=L_25_72___6_72L   G_Retail=L_49_16___33_99L   
   (   0.2   0.2   0.2   0.2   0.2)   % G_Workplace=L_44_72___25_72L   G_Retail=L_49_16___33_99L   
   (   0.2   0.2   0.2   0.2   0.2)   % G_Workplace=L_63_72___44_72L   G_Retail=L_49_16___33_99L   
   (   0.969231   0.00769231   0.00769231   0.00769231   0.00769231)   % G_Workplace=L_6_72__12_29L   G_Retail=L_49_16___33_99L   
   (   0.00392157   0.00392157   0.00392157   0.984314   0.00392157))   % G_Workplace=L_82_73___63_72L   G_Retail=L_49_16___33_99L   
   ((   0.00392157   0.00392157   0.984314   0.00392157   0.00392157)   % G_Workplace=L_25_72___6_72L   G_Retail=L_64_33___49_16L   
   (   0.2   0.2   0.2   0.2   0.2)   % G_Workplace=L_44_72___25_72L   G_Retail=L_64_33___49_16L   
   (   0.2   0.2   0.2   0.2   0.2)   % G_Workplace=L_63_72___44_72L   G_Retail=L_64_33___49_16L   
   (   0.2   0.2   0.2   0.2   0.2)   % G_Workplace=L_6_72__12_29L   G_Retail=L_64_33___49_16L   
   (   0.00392157   0.00392157   0.494118   0.494118   0.00392157)));   % G_Workplace=L_82_73___63_72L   G_Retail=L_64_33___49_16L   
}

potential (G_Workplace) {
   data = (  0.23321 0.329151 0.1631 0.255351 0.0191882);
}

potential ( G_Residencial | G_Workplace   G_Transit   ) {
   data = 
   (((   0.660526   0.00263158   0.00263158   0.331579   0.00263158)   % G_Transit=L_23_09___8_73L   G_Workplace=L_25_72___6_72L   
   (   0.571075   0.000190295   0.000190295   0.428354   0.000190295)   % G_Transit=L_37_45___23_09L   G_Workplace=L_25_72___6_72L   
   (   0.641595   0.000569801   0.000569801   0.28547   0.0717949)   % G_Transit=L_51_82___37_45L   G_Workplace=L_25_72___6_72L   
   (   0.2   0.2   0.2   0.2   0.2)   % G_Transit=L_66_18___51_82L   G_Workplace=L_25_72___6_72L   
   (   0.992079   0.0019802   0.0019802   0.0019802   0.0019802))   % G_Transit=L_8_73__5_64L   G_Workplace=L_25_72___6_72L   
   ((   0.2   0.2   0.2   0.2   0.2)   % G_Transit=L_23_09___8_73L   G_Workplace=L_44_72___25_72L   
   (   0.340781   0.000181653   0.000181653   0.658674   0.000181653)   % G_Transit=L_37_45___23_09L   G_Workplace=L_44_72___25_72L   
   (   0.00017762   0.37762   0.00017762   0.621847   0.00017762)   % G_Transit=L_51_82___37_45L   G_Workplace=L_44_72___25_72L   
   (   0.2   0.2   0.2   0.2   0.2)   % G_Transit=L_66_18___51_82L   G_Workplace=L_44_72___25_72L   
   (   0.2   0.2   0.2   0.2   0.2))   % G_Transit=L_8_73__5_64L   G_Workplace=L_44_72___25_72L   
   ((   0.2   0.2   0.2   0.2   0.2)   % G_Transit=L_23_09___8_73L   G_Workplace=L_63_72___44_72L   
   (   0.0954373   0.000380228   0.000380228   0.903422   0.000380228)   % G_Transit=L_37_45___23_09L   G_Workplace=L_63_72___44_72L   
   (   0.000347222   0.0871528   0.000347222   0.911806   0.000347222)   % G_Transit=L_51_82___37_45L   G_Workplace=L_63_72___44_72L   
   (   0.2   0.2   0.2   0.2   0.2)   % G_Transit=L_66_18___51_82L   G_Workplace=L_63_72___44_72L   
   (   0.2   0.2   0.2   0.2   0.2))   % G_Transit=L_8_73__5_64L   G_Workplace=L_63_72___44_72L   
   ((   0.333038   0.000443459   0.000443459   0.000443459   0.665632)   % G_Transit=L_23_09___8_73L   G_Workplace=L_6_72__12_29L   
   (   0.499572   0.000285307   0.000285307   0.000285307   0.499572)   % G_Transit=L_37_45___23_09L   G_Workplace=L_6_72__12_29L   
   (   0.992079   0.0019802   0.0019802   0.0019802   0.0019802)   % G_Transit=L_51_82___37_45L   G_Workplace=L_6_72__12_29L   
   (   0.2   0.2   0.2   0.2   0.2)   % G_Transit=L_66_18___51_82L   G_Workplace=L_6_72__12_29L   
   (   0.840756   0.000420168   0.000420168   0.000420168   0.157983))   % G_Transit=L_8_73__5_64L   G_Workplace=L_6_72__12_29L   
   ((   0.2   0.2   0.2   0.2   0.2)   % G_Transit=L_23_09___8_73L   G_Workplace=L_82_73___63_72L   
   (   0.2   0.2   0.2   0.2   0.2)   % G_Transit=L_37_45___23_09L   G_Workplace=L_82_73___63_72L   
   (   0.00392157   0.494118   0.00392157   0.494118   0.00392157)   % G_Transit=L_51_82___37_45L   G_Workplace=L_82_73___63_72L   
   (   0.00263158   0.00263158   0.989474   0.00263158   0.00263158)   % G_Transit=L_66_18___51_82L   G_Workplace=L_82_73___63_72L   
   (   0.2   0.2   0.2   0.2   0.2)));   % G_Transit=L_8_73__5_64L   G_Workplace=L_82_73___63_72L   
}


